{"learner":{"attributes":{"scikit_learn":"{\"_estimator_type\": \"regressor\"}"},"feature_names":[],"feature_types":[],"gradient_booster":{"model":{"gbtree_model_param":{"num_parallel_tree":"1","num_trees":"300"},"iteration_indptr":[0,1,2,3,4,5,6,7,8,9,10,11,12,13,14,15,16,17,18,19,20,21,22,23,24,25,26,27,28,29,30,31,32,33,34,35,36,37,38,39,40,41,42,43,44,45,46,47,48,49,50,51,52,53,54,55,56,57,58,59,60,61,62,63,64,65,66,67,68,69,70,71,72,73,74,75,76,77,78,79,80,81,82,83,84,85,86,87,88,89,90,91,92,93,94,95,96,97,98,99,100,101,102,103,104,105,106,107,108,109,110,111,112,113,114,115,116,117,118,119,120,121,122,123,124,125,126,127,128,129,130,131,132,133,134,135,136,137,138,139,140,141,142,143,144,145,146,147,148,149,150,151,152,153,154,155,156,157,158,159,160,161,162,163,164,165,166,167,168,169,170,171,172,173,174,175,176,177,178,179,180,181,182,183,184,185,186,187,188,189,190,191,192,193,194,195,196,197,198,199,200,201,202,203,204,205,206,207,208,209,210,211,212,213,214,215,216,217,218,219,220,221,222,223,224,225,226,227,228,229,230,231,232,233,234,235,236,237,238,239,240,241,242,243,244,245,246,247,248,249,250,251,252,253,254,255,256,257,258,259,260,261,262,263,264,265,266,267,268,269,270,271,272,273,274,275,276,277,278,279,280,281,282,283,284,285,286,287,288,289,290,291,292,293,294,295,296,297,298,299,300],"tree_info":[0,0,0,0,0,0,0,0,0,0,0,0,0,0,0,0,0,0,0,0,0,0,0,0,0,0,0,0,0,0,0,0,0,0,0,0,0,0,0,0,0,0,0,0,0,0,0,0,0,0,0,0,0,0,0,0,0,0,0,0,0,0,0,0,0,0,0,0,0,0,0,0,0,0,0,0,0,0,0,0,0,0,0,0,0,0,0,0,0,0,0,0,0,0,0,0,0,0,0,0,0,0,0,0,0,0,0,0,0,0,0,0,0,0,0,0,0,0,0,0,0,0,0,0,0,0,0,0,0,0,0,0,0,0,0,0,0,0,0,0,0,0,0,0,0,0,0,0,0,0,0,0,0,0,0,0,0,0,0,0,0,0,0,0,0,0,0,0,0,0,0,0,0,0,0,0,0,0,0,0,0,0,0,0,0,0,0,0,0,0,0,0,0,0,0,0,0,0,0,0,0,0,0,0,0,0,0,0,0,0,0,0,0,0,0,0,0,0,0,0,0,0,0,0,0,0,0,0,0,0,0,0,0,0,0,0,0,0,0,0,0,0,0,0,0,0,0,0,0,0,0,0,0,0,0,0,0,0,0,0,0,0,0,0,0,0,0,0,0,0,0,0,0,0,0,0,0,0,0,0,0,0,0,0,0,0,0,0,0,0,0,0,0,0,0,0,0,0,0,0],"trees":[{"base_weights":[-3.055854E-4,-2.5294772E-1,1.3912442E-1,-3.22929E-2,-2.839628E-1,1.6964217E-1,-6.2140677E-2,-1.1200011E-1,4.1142706E-2,-1.75822E-1,-3.0622518E-1,1.9897197E-1,1.0034145E-1,-8.723786E-2,5.875292E-2,-1.8813361E-1,-6.0509793E-2,-4.954222E-2,5.5598352E-2,-2.5600976E-1,-1.4431265E-1,-2.8101096E-1,-3.7305623E-1,1.760867E-1,2.2331047E-1,5.538456E-2,1.275732E-1,-7.434837E-2,-2.1440037E-1,1.4169283E-1,3.421239E-2,-2.0424685E-1,-1.9380042E-2,-1.802763E-1,-2.9765548E-2,2.405832E-2,-1.00344665E-1,6.429785E-2,-3.587718E-2,-3.3459777E-1,-1.6759259E-1,-1.641479E-1,-7.1216434E-2,-3.1559408E-1,-2.6376364E-1,-3.3930865E-1,-4.1023672E-1,1.3411045E-1,1.8777914E-1,1.799279E-1,2.2744286E-1,-1.4922224E-2,6.756506E-2,9.581029E-2,1.5783262E-1,-1.2634334E-1,-5.3762816E-2,-2.6827097E-1,-1.2653472E-1,-3.5264373E-2,1.4997323E-1,1.9195369E-2,7.483236E-2,-1.0830483E-2,-3.4397126E-3,1.7075759E-3,-2.5207382E-3,-1.0157811E-2,5.681253E-4,-2.1362912E-3,2.5941066E-3,5.4361555E-3,-1.9515352E-4,-7.015309E-3,-1.291543E-3,7.243678E-3,2.768763E-3,-3.270425E-3,1.9372177E-3,-1.8030863E-2,-8.092991E-3,-9.848314E-3,1.186946E-3,-1.9860144E-3,-8.525519E-3,-1.8852291E-3,-1.3230376E-2,-1.4250827E-2,-1.9057948E-2,-1.4397263E-2,-1.1681327E-2,-1.8131042E-2,-9.649667E-3,-2.136874E-2,-1.4867145E-2,-4.0271762E-4,6.9412324E-3,8.544209E-3,1.0409768E-2,6.6522057E-3,9.323738E-3,1.0427701E-2,1.1877036E-2,8.702343E-4,-8.460012E-3,3.9150673E-3,8.2821987E-4,5.2153934E-3,5.9468485E-4,7.245601E-3,9.83909E-3,-9.750819E-3,-4.2357254E-3,-5.908965E-3,-1.7931234E-3,-3.5526913E-3,-1.40781915E-2,-1.3498607E-2,-3.6355138E-3,1.8814206E-4,-2.83297E-3,5.6563243E-3,9.175173E-3,1.345088E-3,-4.7955E-3,-4.104532E-3,4.2020096E-3],"categories":[],"categories_nodes":[],"categories_segments":[],"categories_sizes":[],"default_left":[0,0,0,0,0,0,0,0,0,0,0,0,0,0,0,0,0,0,0,0,0,0,0,0,0,0,0,0,0,0,0,0,0,0,0,0,0,0,0,0,0,0,0,0,0,0,0,0,0,0,0,0,0,0,0,0,0,0,0,0,0,0,0,0,0,0,0,0,0,0,0,0,0,0,0,0,0,0,0,0,0,0,0,0,0,0,0,0,0,0,0,0,0,0,0,0,0,0,0,0,0,0,0,0,0,0,0,0,0,0,0,0,0,0,0,0,0,0,0,0,0,0,0,0,0,0,0],"id":0,"left_children":[1,3,5,7,9,11,13,15,17,19,21,23,25,27,29,31,33,35,37,39,41,43,45,47,49,51,53,55,57,59,61,63,65,67,69,71,73,75,77,79,81,83,85,87,89,91,93,95,97,99,101,103,105,107,109,111,113,115,117,119,121,123,125,-1,-1,-1,-1,-1,-1,-1,-1,-1,-1,-1,-1,-1,-1,-1,-1,-1,-1,-1,-1,-1,-1,-1,-1,-1,-1,-1,-1,-1,-1,-1,-1,-1,-1,-1,-1,-1,-1,-1,-1,-1,-1,-1,-1,-1,-1,-1,-1,-1,-1,-1,-1,-1,-1,-1,-1,-1,-1,-1,-1,-1,-1,-1,-1],"loss_changes":[5.1993414E2,3.5912994E1,5.842859E1,3.797577E0,1.102536E1,1.676709E1,3.806838E0,1.2077789E0,4.4584173E-1,1.9540653E0,6.3237915E0,3.1923523E0,3.0021553E0,1.6854043E0,4.347964E-1,3.359375E-1,6.8319243E-1,1.7815125E-1,2.3467779E-1,1.4795494E0,8.118429E-1,1.5713501E0,1.1682587E0,1.4447784E0,4.6247864E-1,7.965772E-1,1.4554005E0,1.0036135E0,4.1572523E-1,7.708728E-2,1.0104203E-1,1.7600012E-1,2.1657785E-2,1.6892636E-1,1.6094317E-1,4.7771253E-2,7.9750925E-2,1.8393564E-1,5.9829697E-2,4.6299934E-1,6.004083E-1,3.4631157E-1,7.871729E-1,1.7317886E0,1.2860565E0,1.812851E0,8.2289886E-1,4.4076538E-1,7.7155304E-1,5.161953E-2,4.3875122E-1,6.911966E-1,4.3236852E-1,5.328617E-1,3.6502266E-1,7.4677324E-1,7.7754843E-1,1.3204527E-1,2.7374697E-1,2.7181653E-3,3.7308335E-2,1.1257395E-1,7.1920335E-2,0E0,0E0,0E0,0E0,0E0,0E0,0E0,0E0,0E0,0E0,0E0,0E0,0E0,0E0,0E0,0E0,0E0,0E0,0E0,0E0,0E0,0E0,0E0,0E0,0E0,0E0,0E0,0E0,0E0,0E0,0E0,0E0,0E0,0E0,0E0,0E0,0E0,0E0,0E0,0E0,0E0,0E0,0E0,0E0,0E0,0E0,0E0,0E0,0E0,0E0,0E0,0E0,0E0,0E0,0E0,0E0,0E0,0E0,0E0,0E0,0E0,0E0,0E0,0E0],"parents":[2147483647,0,0,1,1,2,2,3,3,4,4,5,5,6,6,7,7,8,8,9,9,10,10,11,11,12,12,13,13,14,14,15,15,16,16,17,17,18,18,19,19,20,20,21,21,22,22,23,23,24,24,25,25,26,26,27,27,28,28,29,29,30,30,31,31,32,32,33,33,34,34,35,35,36,36,37,37,38,38,39,39,40,40,41,41,42,42,43,43,44,44,45,45,46,46,47,47,48,48,49,49,50,50,51,51,52,52,53,53,54,54,55,55,56,56,57,57,58,58,59,59,60,60,61,61,62,62],"right_children":[2,4,6,8,10,12,14,16,18,20,22,24,26,28,30,32,34,36,38,40,42,44,46,48,50,52,54,56,58,60,62,64,66,68,70,72,74,76,78,80,82,84,86,88,90,92,94,96,98,100,102,104,106,108,110,112,114,116,118,120,122,124,126,-1,-1,-1,-1,-1,-1,-1,-1,-1,-1,-1,-1,-1,-1,-1,-1,-1,-1,-1,-1,-1,-1,-1,-1,-1,-1,-1,-1,-1,-1,-1,-1,-1,-1,-1,-1,-1,-1,-1,-1,-1,-1,-1,-1,-1,-1,-1,-1,-1,-1,-1,-1,-1,-1,-1,-1,-1,-1,-1,-1,-1,-1,-1,-1],"split_conditions":[3.572603E-1,7.030137E-1,7.2712326E-1,5.699315E-1,4.4273973E-1,5.89372E-1,5.69863E-1,7.4617887E-1,8.8767126E-2,1.7501888E-1,9.0575343E-1,7.674823E-1,5.1835614E-1,8.6630136E-1,7.69863E-1,3.2876712E-1,3.410422E-1,5.783958E-1,8.057235E-1,7.2868544E-1,4.101948E-1,3.04768E-1,5.865334E-1,2.6575342E-1,6.718636E-1,7.4486095E-1,3.3260274E-1,1.04362786E-1,7.2207355E-1,8.355502E-1,8.315344E-1,7.7070487E-1,7.593325E-1,5.7285416E-1,8.3150685E-1,5.9906554E-1,7.996656E-1,6.127228E-1,7.2107023E-1,5.6956524E-1,2.9369864E-1,6.053192E-1,5.106849E-1,3.2164383E-1,7.883821E-1,3.490528E-1,6.913043E-1,3.8739443E-1,6.9510883E-1,3.5429263E-1,7.035035E-1,8.882192E-1,4.6575344E-1,5.1511484E-1,7.9493445E-1,1.6401152E-1,4.135187E-1,5.889632E-1,5.106849E-1,6.9342506E-1,6.4314383E-1,7.441472E-1,3.700121E-1,-1.0830483E-2,-3.4397126E-3,1.7075759E-3,-2.5207382E-3,-1.0157811E-2,5.681253E-4,-2.1362912E-3,2.5941066E-3,5.4361555E-3,-1.9515352E-4,-7.015309E-3,-1.291543E-3,7.243678E-3,2.768763E-3,-3.270425E-3,1.9372177E-3,-1.8030863E-2,-8.092991E-3,-9.848314E-3,1.186946E-3,-1.9860144E-3,-8.525519E-3,-1.8852291E-3,-1.3230376E-2,-1.4250827E-2,-1.9057948E-2,-1.4397263E-2,-1.1681327E-2,-1.8131042E-2,-9.649667E-3,-2.136874E-2,-1.4867145E-2,-4.0271762E-4,6.9412324E-3,8.544209E-3,1.0409768E-2,6.6522057E-3,9.323738E-3,1.0427701E-2,1.1877036E-2,8.702343E-4,-8.460012E-3,3.9150673E-3,8.2821987E-4,5.2153934E-3,5.9468485E-4,7.245601E-3,9.83909E-3,-9.750819E-3,-4.2357254E-3,-5.908965E-3,-1.7931234E-3,-3.5526913E-3,-1.40781915E-2,-1.3498607E-2,-3.6355138E-3,1.8814206E-4,-2.83297E-3,5.6563243E-3,9.175173E-3,1.345088E-3,-4.7955E-3,-4.104532E-3,4.2020096E-3],"split_indices":[6,36,31,59,46,32,6,20,21,55,36,0,6,36,31,6,55,4,39,15,55,55,50,51,55,59,56,45,33,29,20,15,12,0,15,35,33,35,58,3,1,15,11,56,35,4,53,55,10,54,10,46,6,39,50,50,0,43,11,0,33,18,4,0,0,0,0,0,0,0,0,0,0,0,0,0,0,0,0,0,0,0,0,0,0,0,0,0,0,0,0,0,0,0,0,0,0,0,0,0,0,0,0,0,0,0,0,0,0,0,0,0,0,0,0,0,0,0,0,0,0,0,0,0,0,0,0],"split_type":[0,0,0,0,0,0,0,0,0,0,0,0,0,0,0,0,0,0,0,0,0,0,0,0,0,0,0,0,0,0,0,0,0,0,0,0,0,0,0,0,0,0,0,0,0,0,0,0,0,0,0,0,0,0,0,0,0,0,0,0,0,0,0,0,0,0,0,0,0,0,0,0,0,0,0,0,0,0,0,0,0,0,0,0,0,0,0,0,0,0,0,0,0,0,0,0,0,0,0,0,0,0,0,0,0,0,0,0,0,0,0,0,0,0,0,0,0,0,0,0,0,0,0,0,0,0,0],"sum_hessian":[1.4758E4,5.248E3,9.51E3,6.47E2,4.601E3,8.258E3,1.252E3,3.1E2,3.37E2,7.87E2,3.814E3,5.801E3,2.457E3,1.037E3,2.15E2,1.24E2,1.86E2,4.6E1,2.91E2,2.2E2,5.67E2,2.773E3,1.041E3,2.994E3,2.807E3,9.28E2,1.529E3,9.43E2,9.4E1,4.8E1,1.67E2,1.13E2,1.1E1,3.7E1,1.49E2,1.9E1,2.7E1,2.66E2,2.5E1,1.15E2,1.05E2,4.45E2,1.22E2,9.17E2,1.856E3,5.51E2,4.9E2,6.55E2,2.339E3,2.48E2,2.559E3,1.37E2,7.91E2,7.48E2,7.81E2,2.66E2,6.77E2,5.7E1,3.7E1,2E0,4.6E1,1.23E2,4.4E1,1.03E2,1E1,4E0,7E0,3.3E1,4E0,1.29E2,2E1,4E0,1.5E1,1.7E1,1E1,2.5E1,2.41E2,1.8E1,7E0,9.9E1,1.6E1,9.1E1,1.4E1,2.2E1,4.23E2,1.05E2,1.7E1,6.29E2,2.88E2,1.025E3,8.31E2,4.74E2,7.7E1,4.23E2,6.7E1,2.1E1,6.34E2,1.285E3,1.054E3,3.3E1,2.15E2,8.99E2,1.66E3,1.14E2,2.3E1,6.53E2,1.38E2,6.79E2,6.9E1,5.9E2,1.91E2,9.9E1,1.67E2,1.46E2,5.31E2,4E0,5.3E1,9E0,2.8E1,1E0,1E0,2.4E1,2.2E1,1.16E2,7E0,2E0,4.2E1],"tree_param":{"num_deleted":"0","num_feature":"60","num_nodes":"127","size_leaf_vector":"1"}},{"base_weights":[-4.6840194E-4,-2.0440112E-1,1.538735E-1,-4.171632E-2,-2.6163384E-1,3.1385653E-2,1.7608497E-1,1.12340815E-1,-6.289698E-2,-1.711554E-1,-2.9529944E-1,5.5802666E-2,-3.1223705E-1,1.18302315E-1,1.9185369E-1,6.83629E-2,1.4207044E-1,-1.7164037E-1,-4.727653E-2,-1.8978424E-1,-4.8294008E-2,-2.7090958E-1,-3.5450143E-1,1.5278232E-1,4.387584E-2,-2.1966273E-1,-3.8094875E-1,9.474795E-2,1.4302577E-1,1.6936015E-1,2.1034157E-1,8.160505E-2,-7.7267825E-3,9.717399E-2,1.5816823E-1,-2.3709965E-1,-1.3858232E-1,-7.688538E-2,2.2114612E-2,-2.588269E-1,-1.6094346E-1,-7.0974766E-3,-1.0038165E-1,-2.437873E-1,-2.9345036E-1,-3.919371E-1,-3.090639E-1,1.9203795E-1,1.0536405E-1,-3.9722178E-2,5.4882634E-2,-2.6616028E-1,-9.286319E-2,-9.041721E-3,-2.0261547E-2,1.0901236E-1,4.9975384E-2,9.974393E-2,1.5459928E-1,1.5795217E-1,1.9675705E-1,1.6891518E-1,2.1782453E-1,4.6316427E-3,2.703984E-3,1.6306343E-3,6.5453425E-3,8.424792E-3,4.9025523E-3,-3.0041102E-3,-1.2782781E-2,2.9814641E-3,-7.3705814E-3,-7.3045655E-3,-2.813626E-3,-3.1024934E-4,3.213326E-3,-9.497705E-3,-1.4723663E-2,-1.4926672E-2,-7.499733E-3,-6.7798286E-3,-7.471585E-5,-4.2284E-3,-1.2095941E-2,-1.3769939E-2,-1.0303467E-2,-1.1943891E-2,-1.5418085E-2,-2.275214E-2,-1.8234668E-2,-1.7949946E-2,-1.3650808E-2,6.0444884E-3,1.0446838E-2,-9.025355E-4,5.488936E-3,-7.262011E-3,-1.0966379E-3,1.5198567E-3,3.957543E-3,-4.216281E-3,-1.42303705E-2,1.6370461E-3,-6.918455E-3,5.9524475E-4,5.6889197E-3,4.817623E-3,6.888377E-4,7.1456837E-3,3.5116256E-3,-3.67467E-3,7.834435E-3,8.5404515E-3,6.321495E-3,7.5848843E-3,1.0122517E-2,9.1092745E-3,5.5530607E-3,1.0085475E-2,1.1358654E-2],"categories":[],"categories_nodes":[],"categories_segments":[],"categories_sizes":[],"default_left":[0,0,0,0,0,0,0,0,0,0,0,0,0,0,0,0,0,0,0,0,0,0,0,0,0,0,0,0,0,0,0,0,0,0,0,0,0,0,0,0,0,0,0,0,0,0,0,0,0,0,0,0,0,0,0,0,0,0,0,0,0,0,0,0,0,0,0,0,0,0,0,0,0,0,0,0,0,0,0,0,0,0,0,0,0,0,0,0,0,0,0,0,0,0,0,0,0,0,0,0,0,0,0,0,0,0,0,0,0,0,0,0,0,0,0,0,0,0,0,0,0],"id":1,"left_children":[1,3,5,7,9,11,13,15,17,19,21,23,25,27,29,31,33,35,37,39,41,43,45,47,49,51,53,55,57,59,61,63,-1,65,67,69,71,73,75,77,79,81,83,85,87,89,91,93,95,97,99,101,103,-1,-1,105,107,109,111,113,115,117,119,-1,-1,-1,-1,-1,-1,-1,-1,-1,-1,-1,-1,-1,-1,-1,-1,-1,-1,-1,-1,-1,-1,-1,-1,-1,-1,-1,-1,-1,-1,-1,-1,-1,-1,-1,-1,-1,-1,-1,-1,-1,-1,-1,-1,-1,-1,-1,-1,-1,-1,-1,-1,-1,-1,-1,-1,-1,-1],"loss_changes":[4.6570947E2,5.933676E1,2.2907654E1,5.4236994E0,1.4311371E1,1.0874393E1,6.4729614E0,2.5308466E-1,2.4718719E0,2.9227448E0,4.863861E0,1.3916981E0,4.633608E-1,8.7801933E-1,2.2927551E0,2.5759834E-1,7.063556E-2,3.6314583E-1,2.6274688E0,2.1726036E0,3.640787E-1,1.418335E0,1.5781555E0,2.2547507E-1,9.940975E-1,2.0522225E-1,1.5996218E-1,4.971733E-1,3.577671E-1,7.59964E-1,9.145813E-1,1.897043E-2,0E0,6.977722E-2,3.687334E-2,1.8172336E-1,2.2579908E-1,1.2699518E0,4.575954E-1,7.444153E-1,1.1407928E0,6.8917476E-2,1.4740783E-1,1.2691116E0,1.0053711E0,7.6931E-1,7.2281265E-1,6.0106516E-2,3.5761356E-2,2.3332965E-1,5.638857E-1,6.992161E-2,7.31191E-2,0E0,0E0,2.7448368E-1,3.2099962E-1,1.9380283E-1,2.9079342E-1,7.0466614E-1,1.5912628E-1,3.4367466E-1,3.4526825E-1,0E0,0E0,0E0,0E0,0E0,0E0,0E0,0E0,0E0,0E0,0E0,0E0,0E0,0E0,0E0,0E0,0E0,0E0,0E0,0E0,0E0,0E0,0E0,0E0,0E0,0E0,0E0,0E0,0E0,0E0,0E0,0E0,0E0,0E0,0E0,0E0,0E0,0E0,0E0,0E0,0E0,0E0,0E0,0E0,0E0,0E0,0E0,0E0,0E0,0E0,0E0,0E0,0E0,0E0,0E0,0E0,0E0,0E0],"parents":[2147483647,0,0,1,1,2,2,3,3,4,4,5,5,6,6,7,7,8,8,9,9,10,10,11,11,12,12,13,13,14,14,15,15,16,16,17,17,18,18,19,19,20,20,21,21,22,22,23,23,24,24,25,25,26,26,27,27,28,28,29,29,30,30,31,31,33,33,34,34,35,35,36,36,37,37,38,38,39,39,40,40,41,41,42,42,43,43,44,44,45,45,46,46,47,47,48,48,49,49,50,50,51,51,52,52,55,55,56,56,57,57,58,58,59,59,60,60,61,61,62,62],"right_children":[2,4,6,8,10,12,14,16,18,20,22,24,26,28,30,32,34,36,38,40,42,44,46,48,50,52,54,56,58,60,62,64,-1,66,68,70,72,74,76,78,80,82,84,86,88,90,92,94,96,98,100,102,104,-1,-1,106,108,110,112,114,116,118,120,-1,-1,-1,-1,-1,-1,-1,-1,-1,-1,-1,-1,-1,-1,-1,-1,-1,-1,-1,-1,-1,-1,-1,-1,-1,-1,-1,-1,-1,-1,-1,-1,-1,-1,-1,-1,-1,-1,-1,-1,-1,-1,-1,-1,-1,-1,-1,-1,-1,-1,-1,-1,-1,-1,-1,-1,-1,-1],"split_conditions":[5.388956E-1,7.221918E-1,5.106849E-1,3.9068493E-1,7.307537E-1,8.2575345E-1,2.7178082E-1,2.1808219E-1,2.3945205E-1,2.7178082E-1,9.0575343E-1,4.8767123E-1,9.369863E-1,3.2876712E-1,6.889003E-1,8.2748663E-1,1.930354E-1,1.9830714E-1,3.7473366E-1,1.7501888E-1,9.139726E-1,5.8465755E-1,7.658172E-1,3.853285E-1,7.4486095E-1,5.465538E-1,2.93027E-1,4.9133414E-1,7.232686E-1,8.073651E-1,6.739019E-1,7.821695E-1,-7.7267825E-3,4.444138E-1,2.756953E-1,6.520592E-1,3.715415E-1,1.23835616E-1,3.4739727E-1,4.806987E-1,1.890411E-1,3.1237406E-1,8.761528E-1,6.7536277E-1,5.889632E-1,5.210959E-1,3.3091494E-1,6.09699E-1,1.2712328E-1,3.572603E-1,3.0047235E-1,6.745718E-1,3.2406288E-1,-9.041721E-3,-2.0261547E-2,2.969863E-1,6.2014955E-1,1.23835616E-1,3.557529E-1,5.0052947E-1,7.049209E-1,6.2014955E-1,7.7345526E-1,4.6316427E-3,2.703984E-3,1.6306343E-3,6.5453425E-3,8.424792E-3,4.9025523E-3,-3.0041102E-3,-1.2782781E-2,2.9814641E-3,-7.3705814E-3,-7.3045655E-3,-2.813626E-3,-3.1024934E-4,3.213326E-3,-9.497705E-3,-1.4723663E-2,-1.4926672E-2,-7.499733E-3,-6.7798286E-3,-7.471585E-5,-4.2284E-3,-1.2095941E-2,-1.3769939E-2,-1.0303467E-2,-1.1943891E-2,-1.5418085E-2,-2.275214E-2,-1.8234668E-2,-1.7949946E-2,-1.3650808E-2,6.0444884E-3,1.0446838E-2,-9.025355E-4,5.488936E-3,-7.262011E-3,-1.0966379E-3,1.5198567E-3,3.957543E-3,-4.216281E-3,-1.42303705E-2,1.6370461E-3,-6.918455E-3,5.9524475E-4,5.6889197E-3,4.817623E-3,6.888377E-4,7.1456837E-3,3.5116256E-3,-3.67467E-3,7.834435E-3,8.5404515E-3,6.321495E-3,7.5848843E-3,1.0122517E-2,9.1092745E-3,5.5530607E-3,1.0085475E-2,1.1358654E-2],"split_indices":[4,36,6,36,44,36,51,56,6,1,36,36,41,56,10,25,40,9,50,55,31,26,40,34,59,24,19,39,15,50,55,22,0,50,44,40,27,56,1,5,11,4,22,25,48,21,14,48,41,1,5,27,9,0,0,1,30,41,55,30,55,30,0,0,0,0,0,0,0,0,0,0,0,0,0,0,0,0,0,0,0,0,0,0,0,0,0,0,0,0,0,0,0,0,0,0,0,0,0,0,0,0,0,0,0,0,0,0,0,0,0,0,0,0,0,0,0,0,0,0,0],"split_type":[0,0,0,0,0,0,0,0,0,0,0,0,0,0,0,0,0,0,0,0,0,0,0,0,0,0,0,0,0,0,0,0,0,0,0,0,0,0,0,0,0,0,0,0,0,0,0,0,0,0,0,0,0,0,0,0,0,0,0,0,0,0,0,0,0,0,0,0,0,0,0,0,0,0,0,0,0,0,0,0,0,0,0,0,0,0,0,0,0,0,0,0,0,0,0,0,0,0,0,0,0,0,0,0,0,0,0,0,0,0,0,0,0,0,0,0,0,0,0,0,0],"sum_hessian":[1.4794E4,6.373E3,8.421E3,1.659E3,4.714E3,1.293E3,7.128E3,2E2,1.459E3,1.28E3,3.434E3,1.208E3,8.5E1,1.53E3,5.598E3,8.2E1,1.18E2,1.82E2,1.277E3,1.111E3,1.69E2,2.436E3,9.98E2,1.31E2,1.077E3,3.8E1,4.7E1,7.86E2,7.44E2,2.53E3,3.068E3,7.8E1,4E0,3.3E1,8.5E1,5.9E1,1.23E2,8.95E2,3.82E2,3.25E2,7.86E2,9.5E1,7.4E1,1.111E3,1.325E3,5.43E2,4.55E2,7E1,6.1E1,1.25E2,9.52E2,2.7E1,1.1E1,6E0,4.1E1,5.95E2,1.91E2,1.59E2,5.85E2,1.791E3,7.39E2,4.73E2,2.595E3,5.4E1,2.4E1,1.2E1,2.1E1,7.1E1,1.4E1,6E0,5.3E1,5E0,1.18E2,2.04E2,6.91E2,2.29E2,1.53E2,1.13E2,2.12E2,5.6E1,7.3E2,3E0,9.2E1,6.8E1,6E0,6.01E2,5.1E2,2.88E2,1.037E3,1.59E2,3.84E2,1.87E2,2.68E2,1.5E1,5.5E1,2E0,5.9E1,1.7E1,1.08E2,4.75E2,4.77E2,3E0,2.4E1,3E0,8E0,2.8E1,5.67E2,8.3E1,1.08E2,6.3E1,9.6E1,5E0,5.8E2,1.269E3,5.22E2,8.6E1,6.53E2,3.83E2,9E1,9.61E2,1.634E3],"tree_param":{"num_deleted":"0","num_feature":"60","num_nodes":"121","size_leaf_vector":"1"}},{"base_weights":[4.1721054E-4,-2.1670717E-1,1.3708538E-1,-1.2024446E-1,-2.736149E-1,1.7445205E-1,5.227403E-2,-6.949632E-3,-1.5330748E-1,-2.3668225E-1,-3.1801978E-1,1.4862612E-1,1.9573063E-1,8.1703536E-2,-4.759053E-2,1.12006225E-1,-3.7211254E-2,-1.702297E-1,-5.8888298E-2,3.7136663E-2,-2.4411753E-1,-3.5040584E-1,-2.822866E-1,7.7435374E-2,1.5635282E-1,1.660486E-1,2.0186809E-1,5.628836E-2,1.2214689E-1,-7.466238E-2,4.0439524E-2,-6.4138942E-3,1.1979899E-1,-7.91803E-2,1.1026721E-2,-1.2960213E-1,-2.0304844E-1,-1.1856609E-1,-2.6703242E-2,-9.925799E-3,6.581956E-2,-2.6787537E-1,-2.1637936E-1,-3.7867025E-1,-2.6736024E-1,-3.6202496E-1,-2.6883417E-1,-4.2753994E-2,8.726959E-2,7.545662E-3,1.5774767E-1,1.5279257E-1,1.9704013E-1,1.5585665E-1,2.0638117E-1,4.1700606E-3,6.633264E-2,1.0412774E-1,1.6786921E-1,-6.636975E-2,-2.865834E-1,5.5116815E-3,6.933686E-2,3.4466244E-3,-4.00784E-3,4.745812E-3,7.29732E-3,-7.5045913E-3,-2.4156722E-3,-7.022425E-3,9.4443205E-4,-7.4638473E-3,-1.4029833E-3,-1.2489233E-2,-7.896396E-3,-7.430922E-3,-7.8038836E-4,-6.684921E-3,-1.9298567E-4,6.0256704E-4,4.8839394E-3,-4.3174773E-3,-1.3661741E-2,-6.651584E-3,-1.1749916E-2,-1.042214E-2,-1.9398453E-2,-1.116797E-2,-1.9611567E-2,-1.180612E-2,-2.0645835E-2,-1.5510425E-2,-1.2150623E-2,-3.8798868E-3,3.1547812E-3,3.3886086E-3,6.5267677E-3,-1.9912557E-3,4.809269E-3,4.527842E-3,8.036677E-3,8.475824E-3,5.845224E-3,9.979007E-3,5.360287E-3,8.24521E-3,5.509049E-3,9.900951E-3,1.1091346E-2,-1.5349856E-3,3.6925846E-3,2.514522E-3,5.1105088E-3,-2.2178094E-3,5.414299E-3,6.5318192E-3,9.69649E-3,-2.0831393E-3,-5.6248284E-3,-1.7229617E-3,-1.5797261E-2,-5.756149E-3,9.414023E-4,2.847067E-3,6.5374174E-3],"categories":[],"categories_nodes":[],"categories_segments":[],"categories_sizes":[],"default_left":[0,0,0,0,0,0,0,0,0,0,0,0,0,0,0,0,0,0,0,0,0,0,0,0,0,0,0,0,0,0,0,0,0,0,0,0,0,0,0,0,0,0,0,0,0,0,0,0,0,0,0,0,0,0,0,0,0,0,0,0,0,0,0,0,0,0,0,0,0,0,0,0,0,0,0,0,0,0,0,0,0,0,0,0,0,0,0,0,0,0,0,0,0,0,0,0,0,0,0,0,0,0,0,0,0,0,0,0,0,0,0,0,0,0,0,0,0,0,0,0,0,0,0,0,0],"id":2,"left_children":[1,3,5,7,9,11,13,15,17,19,21,23,25,27,29,31,33,35,37,39,41,43,45,47,49,51,53,55,57,59,61,63,65,67,69,71,73,75,77,-1,79,81,83,85,87,89,91,93,95,97,99,101,103,105,107,109,111,113,115,117,119,121,123,-1,-1,-1,-1,-1,-1,-1,-1,-1,-1,-1,-1,-1,-1,-1,-1,-1,-1,-1,-1,-1,-1,-1,-1,-1,-1,-1,-1,-1,-1,-1,-1,-1,-1,-1,-1,-1,-1,-1,-1,-1,-1,-1,-1,-1,-1,-1,-1,-1,-1,-1,-1,-1,-1,-1,-1,-1,-1,-1,-1,-1,-1],"loss_changes":[4.403917E2,3.1438232E1,2.885521E1,7.973894E0,5.836914E0,3.4450836E0,8.194782E0,1.7392701E0,2.6231194E0,4.023903E0,1.792038E0,1.5610886E0,5.973358E-1,2.2061396E0,1.5163105E0,9.120476E-2,7.803064E-1,1.8363686E0,4.8085862E-1,3.7130392E-1,1.2073135E0,1.9009476E0,7.415085E-1,3.3704627E-1,5.34111E-1,2.1597672E-1,5.627594E-1,6.928253E-1,6.6633797E-1,8.3506703E-1,1.5101606E-1,4.4419236E-2,4.6004295E-2,4.4364476E-1,2.1701236E-1,1.2484503E0,1.5864067E0,2.6996446E-1,4.0276828E-1,0E0,8.104749E-2,9.784622E-1,1.3514328E0,9.2269135E-1,1.1211653E0,6.073141E-1,6.4362335E-1,8.6036414E-2,2.1132517E-1,1.08803906E-1,4.9803925E-1,2.3466396E-1,1.8763542E-2,8.9276314E-2,2.926712E-1,5.246705E-1,6.3372517E-1,3.7402773E-1,2.0074797E-1,5.2981067E-1,1.2236369E-1,1.1301018E-1,5.497566E-2,0E0,0E0,0E0,0E0,0E0,0E0,0E0,0E0,0E0,0E0,0E0,0E0,0E0,0E0,0E0,0E0,0E0,0E0,0E0,0E0,0E0,0E0,0E0,0E0,0E0,0E0,0E0,0E0,0E0,0E0,0E0,0E0,0E0,0E0,0E0,0E0,0E0,0E0,0E0,0E0,0E0,0E0,0E0,0E0,0E0,0E0,0E0,0E0,0E0,0E0,0E0,0E0,0E0,0E0,0E0,0E0,0E0,0E0,0E0,0E0,0E0,0E0],"parents":[2147483647,0,0,1,1,2,2,3,3,4,4,5,5,6,6,7,7,8,8,9,9,10,10,11,11,12,12,13,13,14,14,15,15,16,16,17,17,18,18,19,19,20,20,21,21,22,22,23,23,24,24,25,25,26,26,27,27,28,28,29,29,30,30,31,31,32,32,33,33,34,34,35,35,36,36,37,37,38,38,40,40,41,41,42,42,43,43,44,44,45,45,46,46,47,47,48,48,49,49,50,50,51,51,52,52,53,53,54,54,55,55,56,56,57,57,58,58,59,59,60,60,61,61,62,62],"right_children":[2,4,6,8,10,12,14,16,18,20,22,24,26,28,30,32,34,36,38,40,42,44,46,48,50,52,54,56,58,60,62,64,66,68,70,72,74,76,78,-1,80,82,84,86,88,90,92,94,96,98,100,102,104,106,108,110,112,114,116,118,120,122,124,-1,-1,-1,-1,-1,-1,-1,-1,-1,-1,-1,-1,-1,-1,-1,-1,-1,-1,-1,-1,-1,-1,-1,-1,-1,-1,-1,-1,-1,-1,-1,-1,-1,-1,-1,-1,-1,-1,-1,-1,-1,-1,-1,-1,-1,-1,-1,-1,-1,-1,-1,-1,-1,-1,-1,-1,-1,-1,-1,-1,-1,-1],"split_conditions":[5.7004833E-1,7.307537E-1,5.582426E-1,6.166868E-1,8.8164383E-1,7.5358194E-1,7.593712E-1,3.9068493E-1,4.1072148E-1,6.728767E-1,3.1283605E-1,6.386955E-1,6.8680173E-1,7.0194465E-1,7.425063E-1,3.245501E-1,3.3912903E-1,3.819178E-1,2.5810418E-1,3.2894158E-1,7.804345E-1,4.2527768E-1,2.485746E-2,1.5780821E-1,2.1972603E-1,8.24432E-1,6.7005473E-1,1.3389517E-1,3.5780823E-1,8.867392E-1,7.8396815E-1,7.1590173E-1,6.0379875E-1,1.3589041E-1,2.9380766E-1,4.101948E-1,7.350803E-1,3.4136987E-1,2.380325E-1,-9.925799E-3,2.1783048E-1,6.059611E-1,1.2327981E-1,4.0300046E-3,8.847239E-1,2.9161176E-1,4.6174604E-1,6.401734E-1,7.019178E-1,8.365082E-1,3.052055E-1,5.0052947E-1,6.641096E-1,3.715415E-1,8.1860846E-1,3.3978236E-1,9.0136987E-1,4.0300046E-3,6.54515E-1,8.4672815E-1,5.35268E-1,1.8684931E-1,5.485914E-1,3.4466244E-3,-4.00784E-3,4.745812E-3,7.29732E-3,-7.5045913E-3,-2.4156722E-3,-7.022425E-3,9.4443205E-4,-7.4638473E-3,-1.4029833E-3,-1.2489233E-2,-7.896396E-3,-7.430922E-3,-7.8038836E-4,-6.684921E-3,-1.9298567E-4,6.0256704E-4,4.8839394E-3,-4.3174773E-3,-1.3661741E-2,-6.651584E-3,-1.1749916E-2,-1.042214E-2,-1.9398453E-2,-1.116797E-2,-1.9611567E-2,-1.180612E-2,-2.0645835E-2,-1.5510425E-2,-1.2150623E-2,-3.8798868E-3,3.1547812E-3,3.3886086E-3,6.5267677E-3,-1.9912557E-3,4.809269E-3,4.527842E-3,8.036677E-3,8.475824E-3,5.845224E-3,9.979007E-3,5.360287E-3,8.24521E-3,5.509049E-3,9.900951E-3,1.1091346E-2,-1.5349856E-3,3.6925846E-3,2.514522E-3,5.1105088E-3,-2.2178094E-3,5.414299E-3,6.5318192E-3,9.69649E-3,-2.0831393E-3,-5.6248284E-3,-1.7229617E-3,-1.5797261E-2,-5.756149E-3,9.414023E-4,2.847067E-3,6.5374174E-3],"split_indices":[2,44,34,39,36,0,34,36,4,36,55,0,5,5,5,55,50,46,50,2,35,5,0,11,11,50,55,5,56,39,5,0,55,56,2,55,15,1,52,0,12,30,5,0,44,7,15,30,1,40,56,30,11,37,0,14,51,35,58,12,4,56,55,0,0,0,0,0,0,0,0,0,0,0,0,0,0,0,0,0,0,0,0,0,0,0,0,0,0,0,0,0,0,0,0,0,0,0,0,0,0,0,0,0,0,0,0,0,0,0,0,0,0,0,0,0,0,0,0,0,0,0,0,0,0],"split_type":[0,0,0,0,0,0,0,0,0,0,0,0,0,0,0,0,0,0,0,0,0,0,0,0,0,0,0,0,0,0,0,0,0,0,0,0,0,0,0,0,0,0,0,0,0,0,0,0,0,0,0,0,0,0,0,0,0,0,0,0,0,0,0,0,0,0,0,0,0,0,0,0,0,0,0,0,0,0,0,0,0,0,0,0,0,0,0,0,0,0,0,0,0,0,0,0,0,0,0,0,0,0,0,0,0,0,0,0,0,0,0,0,0,0,0,0,0,0,0,0,0,0,0,0,0],"sum_hessian":[1.4839E4,5.732E3,9.107E3,2.128E3,3.604E3,6.321E3,2.786E3,4.81E2,1.647E3,1.971E3,1.633E3,2.859E3,3.462E3,2.152E3,6.34E2,9.7E1,3.84E2,1.396E3,2.51E2,5.2E1,1.919E3,8.52E2,7.81E2,2.81E2,2.578E3,5.98E2,2.864E3,1.323E3,8.29E2,4.85E2,1.49E2,6E0,9.1E1,2.05E2,1.79E2,6.26E2,7.7E2,8.7E1,1.64E2,5E0,4.7E1,1.029E3,8.9E2,6.33E2,2.19E2,1.09E2,6.72E2,2.1E1,2.6E2,2.4E1,2.554E3,4.23E2,1.75E2,2.59E2,2.605E3,2.14E2,1.109E3,5.97E2,2.32E2,4.68E2,1.7E1,6.8E1,8.1E1,3E0,3E0,4.9E1,4.2E1,6.1E1,1.44E2,8E0,1.71E2,5.24E2,1.02E2,3.76E2,3.94E2,6.7E1,2E1,2.8E1,1.36E2,1.8E1,2.9E1,3E1,9.99E2,1.64E2,7.26E2,3.4E1,5.99E2,1.64E2,5.5E1,3.3E1,7.6E1,2.54E2,4.18E2,1.6E1,5E0,1.81E2,7.9E1,1.6E1,8E0,1.1E2,2.444E3,2.86E2,1.37E2,1.69E2,6E0,2.14E2,4.5E1,1.699E3,9.06E2,1.43E2,7.1E1,7.68E2,3.41E2,1.6E1,5.81E2,9.8E1,1.34E2,3.06E2,1.62E2,2E0,1.5E1,6E0,6.2E1,6.9E1,1.2E1],"tree_param":{"num_deleted":"0","num_feature":"60","num_nodes":"125","size_leaf_vector":"1"}},{"base_weights":[5.8869465E-4,-2.1656063E-1,1.17922604E-1,-3.1104065E-2,-2.4276759E-1,1.4367904E-1,-5.9485264E-2,-9.905784E-2,3.4866735E-2,-2.0594509E-1,-3.0272484E-1,1.6944124E-1,8.4832884E-2,-8.0390595E-2,4.3503463E-2,-1.6792826E-1,-5.2139565E-2,-6.2697396E-2,5.1876683E-2,-1.2834176E-1,-2.2505721E-1,-3.196162E-1,-2.4684069E-1,1.4602552E-1,1.8710901E-1,4.53178E-2,1.0889705E-1,-6.528615E-2,-1.4937681E-1,3.279188E-2,9.403147E-3,-1.8519779E-1,-4.427446E-2,-1.3578236E-1,-2.1297263E-2,1.2756412E-2,-1.1091002E-1,6.927932E-3,7.431381E-2,-1.5203676E-1,-2.7985452E-2,-2.4362122E-1,-1.9457507E-1,-3.5441437E-1,-2.807139E-1,-2.0340654E-1,-2.9894182E-1,1.0864626E-1,1.5737914E-1,1.9415456E-1,1.6286075E-1,-1.6899717E-1,4.9556393E-2,5.455536E-2,1.22109376E-1,-1.1923024E-1,-4.447823E-2,-2.1500716E-1,-9.982525E-2,-2.1429807E-4,5.566646E-2,-9.590597E-3,2.0668544E-3,-4.9821014E-4,-6.2313117E-3,-8.180401E-3,6.124687E-4,-2.438517E-3,1.0391626E-3,-1.2091644E-3,5.14898E-3,-6.9853873E-3,-1.9671894E-3,3.6639632E-3,-3.2990033E-4,-1.3704338E-3,4.0743337E-3,-8.226586E-3,-7.749898E-4,-2.2200996E-3,3.125159E-3,-1.2490647E-2,-7.118221E-3,-5.4831216E-3,-1.050483E-2,-8.181102E-3,-1.8307155E-2,-1.8014632E-2,-1.3389373E-2,-1.31245125E-2,-8.338257E-3,-2.0032592E-2,-1.281432E-2,1.1355425E-3,5.743874E-3,6.764529E-3,8.412039E-3,9.288703E-3,1.0644313E-2,8.5242465E-3,6.061127E-3,-1.2338688E-2,-5.1531508E-3,1.3683855E-3,3.6079474E-3,-4.6039127E-5,3.2572963E-3,5.4480284E-3,7.6111145E-3,-8.838149E-3,-4.2575966E-3,4.592524E-3,-2.6020238E-3,-1.1720865E-2,-2.1153267E-3,-1.2397204E-2,-3.4196922E-3,-4.4700694E-3,5.4685323E-4,1.4402578E-3,3.7382755E-3],"categories":[],"categories_nodes":[],"categories_segments":[],"categories_sizes":[],"default_left":[0,0,0,0,0,0,0,0,0,0,0,0,0,0,0,0,0,0,0,0,0,0,0,0,0,0,0,0,0,0,0,0,0,0,0,0,0,0,0,0,0,0,0,0,0,0,0,0,0,0,0,0,0,0,0,0,0,0,0,0,0,0,0,0,0,0,0,0,0,0,0,0,0,0,0,0,0,0,0,0,0,0,0,0,0,0,0,0,0,0,0,0,0,0,0,0,0,0,0,0,0,0,0,0,0,0,0,0,0,0,0,0,0,0,0,0,0,0,0,0,0],"id":3,"left_children":[1,3,5,7,9,11,13,15,17,19,21,23,25,27,29,31,33,35,37,39,41,43,45,47,49,51,53,55,57,59,-1,61,63,65,67,69,71,73,75,77,79,81,83,85,87,89,91,93,95,97,99,101,103,105,107,109,111,113,115,117,119,-1,-1,-1,-1,-1,-1,-1,-1,-1,-1,-1,-1,-1,-1,-1,-1,-1,-1,-1,-1,-1,-1,-1,-1,-1,-1,-1,-1,-1,-1,-1,-1,-1,-1,-1,-1,-1,-1,-1,-1,-1,-1,-1,-1,-1,-1,-1,-1,-1,-1,-1,-1,-1,-1,-1,-1,-1,-1,-1,-1],"loss_changes":[3.765284E2,2.5187973E1,4.384732E1,2.8860002E0,9.965363E0,1.2686737E1,2.623714E0,1.0155606E0,5.4592896E-1,4.1492004E0,1.5503845E0,2.3829193E0,2.4227047E0,1.0447502E0,3.1281608E-1,2.6513696E-1,4.8725814E-1,1.7966828E-1,2.808624E-1,1.325016E0,1.2308884E0,1.6901398E0,8.556957E-1,1.0481186E0,5.350647E-1,8.877009E-1,1.1320553E0,9.2858744E-1,5.671644E-1,1.4572743E-1,0E0,1.7574239E-1,4.5625325E-2,2.1207714E-1,1.6286497E-1,6.914673E-2,5.6331694E-2,8.48451E-2,1.3794684E-1,7.685709E-1,1.6321036E-1,8.4217834E-1,1.1104164E0,1.4930878E0,5.5054855E-1,4.4116592E-1,6.869221E-1,3.1225443E-1,4.3859863E-1,3.631134E-1,2.1837807E-1,7.200128E-2,4.7447014E-1,1.8336731E-1,4.8824883E-1,4.378512E-1,6.2541234E-1,2.4819732E-1,4.718783E-1,8.05424E-2,5.6331247E-2,0E0,0E0,0E0,0E0,0E0,0E0,0E0,0E0,0E0,0E0,0E0,0E0,0E0,0E0,0E0,0E0,0E0,0E0,0E0,0E0,0E0,0E0,0E0,0E0,0E0,0E0,0E0,0E0,0E0,0E0,0E0,0E0,0E0,0E0,0E0,0E0,0E0,0E0,0E0,0E0,0E0,0E0,0E0,0E0,0E0,0E0,0E0,0E0,0E0,0E0,0E0,0E0,0E0,0E0,0E0,0E0,0E0,0E0,0E0,0E0],"parents":[2147483647,0,0,1,1,2,2,3,3,4,4,5,5,6,6,7,7,8,8,9,9,10,10,11,11,12,12,13,13,14,14,15,15,16,16,17,17,18,18,19,19,20,20,21,21,22,22,23,23,24,24,25,25,26,26,27,27,28,28,29,29,31,31,32,32,33,33,34,34,35,35,36,36,37,37,38,38,39,39,40,40,41,41,42,42,43,43,44,44,45,45,46,46,47,47,48,48,49,49,50,50,51,51,52,52,53,53,54,54,55,55,56,56,57,57,58,58,59,59,60,60],"right_children":[2,4,6,8,10,12,14,16,18,20,22,24,26,28,30,32,34,36,38,40,42,44,46,48,50,52,54,56,58,60,-1,62,64,66,68,70,72,74,76,78,80,82,84,86,88,90,92,94,96,98,100,102,104,106,108,110,112,114,116,118,120,-1,-1,-1,-1,-1,-1,-1,-1,-1,-1,-1,-1,-1,-1,-1,-1,-1,-1,-1,-1,-1,-1,-1,-1,-1,-1,-1,-1,-1,-1,-1,-1,-1,-1,-1,-1,-1,-1,-1,-1,-1,-1,-1,-1,-1,-1,-1,-1,-1,-1,-1,-1,-1,-1,-1,-1,-1,-1,-1,-1],"split_conditions":[3.539726E-1,7.090411E-1,7.3921806E-1,3.7424657E-1,8.7945205E-1,5.89372E-1,5.69863E-1,7.4617887E-1,8.8767126E-2,4.0931508E-1,4.300142E-1,7.548126E-1,5.106849E-1,8.2575345E-1,7.649315E-1,3.2164383E-1,3.410422E-1,5.783958E-1,6.4497095E-1,4.101948E-1,7.883821E-1,3.172977E-1,3.6758894E-1,2.6136985E-1,4.48397E-1,9.4502695E-2,2.1972603E-1,8.2391575E-2,5.38995E-1,7.7345526E-1,9.403147E-3,6.5308285E-1,8.2575345E-1,2.0054795E-1,1.8630137E-1,8.5024154E-1,7.8595316E-1,3.4651837E-1,4.971492E-2,3.6719066E-1,6.386955E-1,7.9125416E-1,4.7904366E-1,4.4749165E-1,4.8767123E-1,2.4698578E-1,2.974607E-1,4.5293775E-1,2.2794521E-1,7.755342E-1,9.330915E-1,1.9369563E-1,7.806436E-1,1.1590836E-1,7.4721676E-1,1.6401152E-1,6.10411E-1,5.5719066E-1,7.0922184E-1,3.8049173E-1,6.983278E-1,-9.590597E-3,2.0668544E-3,-4.9821014E-4,-6.2313117E-3,-8.180401E-3,6.124687E-4,-2.438517E-3,1.0391626E-3,-1.2091644E-3,5.14898E-3,-6.9853873E-3,-1.9671894E-3,3.6639632E-3,-3.2990033E-4,-1.3704338E-3,4.0743337E-3,-8.226586E-3,-7.749898E-4,-2.2200996E-3,3.125159E-3,-1.2490647E-2,-7.118221E-3,-5.4831216E-3,-1.050483E-2,-8.181102E-3,-1.8307155E-2,-1.8014632E-2,-1.3389373E-2,-1.31245125E-2,-8.338257E-3,-2.0032592E-2,-1.281432E-2,1.1355425E-3,5.743874E-3,6.764529E-3,8.412039E-3,9.288703E-3,1.0644313E-2,8.5242465E-3,6.061127E-3,-1.2338688E-2,-5.1531508E-3,1.3683855E-3,3.6079474E-3,-4.6039127E-5,3.2572963E-3,5.4480284E-3,7.6111145E-3,-8.838149E-3,-4.2575966E-3,4.592524E-3,-2.6020238E-3,-1.1720865E-2,-2.1153267E-3,-1.2397204E-2,-3.4196922E-3,-4.4700694E-3,5.4685323E-4,1.4402578E-3,3.7382755E-3],"split_indices":[6,36,34,1,36,32,6,20,21,46,5,0,6,36,6,6,55,4,30,55,35,55,57,51,32,45,56,45,5,5,0,5,16,1,1,42,28,20,15,4,5,15,20,53,26,50,4,55,21,10,54,55,45,45,50,50,16,3,15,4,28,0,0,0,0,0,0,0,0,0,0,0,0,0,0,0,0,0,0,0,0,0,0,0,0,0,0,0,0,0,0,0,0,0,0,0,0,0,0,0,0,0,0,0,0,0,0,0,0,0,0,0,0,0,0,0,0,0,0,0,0],"split_type":[0,0,0,0,0,0,0,0,0,0,0,0,0,0,0,0,0,0,0,0,0,0,0,0,0,0,0,0,0,0,0,0,0,0,0,0,0,0,0,0,0,0,0,0,0,0,0,0,0,0,0,0,0,0,0,0,0,0,0,0,0,0,0,0,0,0,0,0,0,0,0,0,0,0,0,0,0,0,0,0,0,0,0,0,0,0,0,0,0,0,0,0,0,0,0,0,0,0,0,0,0,0,0,0,0,0,0,0,0,0,0,0,0,0,0,0,0,0,0,0,0],"sum_hessian":[1.4776E4,5.183E3,9.593E3,6.42E2,4.541E3,8.377E3,1.216E3,3.16E2,3.26E2,2.816E3,1.725E3,5.825E3,2.552E3,1.011E3,2.05E2,1.27E2,1.89E2,4.8E1,2.78E2,5.58E2,2.258E3,1.321E3,4.04E2,2.509E3,3.316E3,9.67E2,1.585E3,8.31E2,1.8E2,1.92E2,1.3E1,1.11E2,1.6E1,5E1,1.39E2,1.9E1,2.9E1,9.3E1,1.85E2,4.51E2,1.07E2,1.399E3,8.59E2,6.93E2,6.28E2,2.23E2,1.81E2,5.87E2,1.922E3,2.564E3,7.52E2,1.8E1,9.49E2,3.11E2,1.274E3,2.3E2,6.01E2,7.6E1,1.04E2,7.9E1,1.13E2,1.08E2,3E0,1.2E1,4E0,4.2E1,8E0,8.4E1,5.5E1,1.4E1,5E0,2E1,9E0,1.5E1,7.8E1,1.2E1,1.73E2,4.13E2,3.8E1,9.1E1,1.6E1,1.317E3,8.2E1,1.34E2,7.25E2,4.1E1,6.52E2,8.4E1,5.44E2,8.3E1,1.4E2,5.1E1,1.3E2,4E1,5.47E2,6.38E2,1.284E3,1.779E3,7.85E2,6.33E2,1.19E2,7E0,1.1E1,4.8E2,4.69E2,5E1,2.61E2,8.9E2,3.84E2,8.4E1,1.46E2,3.1E1,5.7E2,6.8E1,8E0,1.7E1,8.7E1,8E0,7.1E1,4.8E1,6.5E1],"tree_param":{"num_deleted":"0","num_feature":"60","num_nodes":"121","size_leaf_vector":"1"}},{"base_weights":[-2.7800116E-4,-1.9528103E-1,1.23398736E-1,-1.0433363E-1,-2.4584201E-1,1.5947843E-1,4.772592E-2,-4.338681E-3,-1.3491309E-1,-2.1094064E-1,-2.8486738E-1,1.0847257E-1,1.6799594E-1,7.133617E-2,-3.474803E-2,7.606738E-2,-4.1138027E-2,-8.8933825E-2,-1.6675574E-1,3.7001558E-2,-2.1706443E-1,-3.1222826E-1,-2.5521845E-1,5.265005E-2,1.1685737E-1,1.5000802E-1,1.8535598E-1,4.0488362E-2,1.0028553E-1,-6.1726306E-2,4.5416377E-2,-1.811077E-1,8.424176E-2,-1.1819159E-1,-1.9724255E-2,-1.0908877E-1,-4.0244065E-2,-1.8120173E-1,-6.482593E-2,4.95591E-2,-8.394066E-3,-2.3708965E-1,-1.9231054E-1,-2.678916E-1,-3.524103E-1,-2.982356E-1,-2.302306E-1,-1.1590985E-2,6.8491906E-2,1.7762339E-2,1.2073254E-1,1.3806143E-1,1.6759507E-1,1.7426814E-1,2.0277356E-1,4.3479856E-2,-2.1414185E-1,4.3636438E-2,1.1130586E-1,-1.7261575E-1,-4.5518663E-2,2.848967E-2,1.2063692E-1,-1.1573873E-2,5.0928444E-4,1.2895443E-3,5.2459384E-3,-4.0885257E-3,-1.1560723E-2,-3.9982293E-3,2.9598028E-4,-6.6504674E-3,-3.0580282E-3,-1.0323969E-3,-6.062414E-3,-1.2586303E-2,-7.958813E-3,-7.7814306E-4,-5.1328526E-3,-1.4798095E-3,3.6184401E-3,-1.709006E-2,-1.1334396E-2,-8.555452E-3,-1.3253624E-2,-1.7547645E-2,-1.2111043E-2,-6.3409507E-3,-1.8107738E-2,-5.164201E-3,-1.5913641E-2,-9.567214E-3,-1.4927476E-2,-1.8158564E-3,4.481589E-3,4.5916247E-3,2.7481993E-3,4.555778E-3,-2.6058229E-3,6.655468E-3,5.054286E-3,5.3180526E-3,7.2013545E-3,7.82984E-3,9.244164E-3,8.3048595E-3,9.82349E-3,9.558855E-3,1.1244508E-2,1.7145679E-3,4.9853977E-3,-1.3197884E-2,-4.0822485E-3,-7.31191E-4,2.972379E-3,4.331307E-3,6.505187E-3,-2.4756426E-3,-1.1723042E-2,-8.6731435E-4,-4.307437E-3,3.4254629E-3,7.239073E-4,2.8091173E-3,7.502754E-3],"categories":[],"categories_nodes":[],"categories_segments":[],"categories_sizes":[],"default_left":[0,0,0,0,0,0,0,0,0,0,0,0,0,0,0,0,0,0,0,0,0,0,0,0,0,0,0,0,0,0,0,0,0,0,0,0,0,0,0,0,0,0,0,0,0,0,0,0,0,0,0,0,0,0,0,0,0,0,0,0,0,0,0,0,0,0,0,0,0,0,0,0,0,0,0,0,0,0,0,0,0,0,0,0,0,0,0,0,0,0,0,0,0,0,0,0,0,0,0,0,0,0,0,0,0,0,0,0,0,0,0,0,0,0,0,0,0,0,0,0,0,0,0,0,0],"id":4,"left_children":[1,3,5,7,9,11,13,15,17,19,21,23,25,27,29,31,33,35,37,39,41,43,45,47,49,51,53,55,57,59,61,63,65,67,69,71,73,75,77,79,-1,81,83,85,87,89,91,93,95,97,99,101,103,105,107,109,111,113,115,117,119,121,123,-1,-1,-1,-1,-1,-1,-1,-1,-1,-1,-1,-1,-1,-1,-1,-1,-1,-1,-1,-1,-1,-1,-1,-1,-1,-1,-1,-1,-1,-1,-1,-1,-1,-1,-1,-1,-1,-1,-1,-1,-1,-1,-1,-1,-1,-1,-1,-1,-1,-1,-1,-1,-1,-1,-1,-1,-1,-1,-1,-1,-1,-1],"loss_changes":[3.57636E2,2.6438065E1,2.4766708E1,6.292349E0,4.9767456E0,2.651001E0,5.7098117E0,1.4322734E0,2.292593E0,2.9779053E0,1.3342743E0,4.066782E-1,1.6156616E0,2.0311422E0,1.415045E0,3.3479846E-1,5.454712E-1,6.305361E-1,1.3576546E0,1.318157E-1,9.0070343E-1,1.5125351E0,8.364105E-1,1.19864464E-1,2.920065E-1,5.2103424E-1,4.8107147E-1,8.510171E-1,7.286854E-1,8.7100124E-1,2.0664707E-1,5.053477E-2,1.761651E-1,2.7747536E-1,4.036648E-1,5.158019E-1,3.0068398E-1,1.2243443E0,2.1645254E-1,8.519523E-2,0E0,1.0672493E0,1.2797909E0,8.38253E-1,9.872589E-1,1.1624527E0,1.3695068E0,6.3323535E-2,2.463299E-2,1.5852368E-1,1.6575813E-1,2.7742767E-1,1.6936302E-1,2.6506042E-1,2.222023E-1,5.6128144E-1,6.425494E-2,1.7865348E-1,4.4476986E-1,4.6041644E-1,4.8841417E-1,7.526813E-2,4.845363E-2,0E0,0E0,0E0,0E0,0E0,0E0,0E0,0E0,0E0,0E0,0E0,0E0,0E0,0E0,0E0,0E0,0E0,0E0,0E0,0E0,0E0,0E0,0E0,0E0,0E0,0E0,0E0,0E0,0E0,0E0,0E0,0E0,0E0,0E0,0E0,0E0,0E0,0E0,0E0,0E0,0E0,0E0,0E0,0E0,0E0,0E0,0E0,0E0,0E0,0E0,0E0,0E0,0E0,0E0,0E0,0E0,0E0,0E0,0E0,0E0,0E0,0E0],"parents":[2147483647,0,0,1,1,2,2,3,3,4,4,5,5,6,6,7,7,8,8,9,9,10,10,11,11,12,12,13,13,14,14,15,15,16,16,17,17,18,18,19,19,20,20,21,21,22,22,23,23,24,24,25,25,26,26,27,27,28,28,29,29,30,30,31,31,32,32,33,33,34,34,35,35,36,36,37,37,38,38,39,39,41,41,42,42,43,43,44,44,45,45,46,46,47,47,48,48,49,49,50,50,51,51,52,52,53,53,54,54,55,55,56,56,57,57,58,58,59,59,60,60,61,61,62,62],"right_children":[2,4,6,8,10,12,14,16,18,20,22,24,26,28,30,32,34,36,38,40,42,44,46,48,50,52,54,56,58,60,62,64,66,68,70,72,74,76,78,80,-1,82,84,86,88,90,92,94,96,98,100,102,104,106,108,110,112,114,116,118,120,122,124,-1,-1,-1,-1,-1,-1,-1,-1,-1,-1,-1,-1,-1,-1,-1,-1,-1,-1,-1,-1,-1,-1,-1,-1,-1,-1,-1,-1,-1,-1,-1,-1,-1,-1,-1,-1,-1,-1,-1,-1,-1,-1,-1,-1,-1,-1,-1,-1,-1,-1,-1,-1,-1,-1,-1,-1,-1,-1,-1,-1,-1,-1],"split_conditions":[5.7004833E-1,7.234986E-1,6.227492E-1,6.166868E-1,8.7945205E-1,2.690411E-1,7.430137E-1,6.0164386E-1,5.912329E-1,6.4219177E-1,3.1283605E-1,6.3299966E-1,7.048899E-1,5.1835614E-1,5.7643837E-1,2.0821919E-1,1.23835616E-1,3.9246917E-1,2.6575342E-1,3.7863013E-1,7.41141E-1,3.3260274E-1,3.201581E-1,5.4184306E-1,4.0086532E-1,7.674823E-1,6.31932E-1,8.4E-1,2.0657535E-1,6.9510883E-1,7.123288E-1,5.526751E-1,2.0876712E-1,6.2630135E-1,1.6401152E-1,3.6939335E-1,7.9161626E-1,1.1706869E-1,9.249315E-1,6.4497095E-1,-8.394066E-3,6.127228E-1,4.5951474E-1,7.5383115E-1,4.0300046E-3,7.9945207E-1,6.0735786E-1,3.2277283E-1,3.9846635E-1,8.082192E-1,3.8212347E-1,2.3536558E-1,8.0880105E-1,7.198469E-1,7.800153E-1,8.3858764E-1,5.1835614E-1,1.1590836E-1,3.1173208E-1,3.426038E-1,7.821695E-1,7.38815E-1,6.909756E-1,-1.1573873E-2,5.0928444E-4,1.2895443E-3,5.2459384E-3,-4.0885257E-3,-1.1560723E-2,-3.9982293E-3,2.9598028E-4,-6.6504674E-3,-3.0580282E-3,-1.0323969E-3,-6.062414E-3,-1.2586303E-2,-7.958813E-3,-7.7814306E-4,-5.1328526E-3,-1.4798095E-3,3.6184401E-3,-1.709006E-2,-1.1334396E-2,-8.555452E-3,-1.3253624E-2,-1.7547645E-2,-1.2111043E-2,-6.3409507E-3,-1.8107738E-2,-5.164201E-3,-1.5913641E-2,-9.567214E-3,-1.4927476E-2,-1.8158564E-3,4.481589E-3,4.5916247E-3,2.7481993E-3,4.555778E-3,-2.6058229E-3,6.655468E-3,5.054286E-3,5.3180526E-3,7.2013545E-3,7.82984E-3,9.244164E-3,8.3048595E-3,9.82349E-3,9.558855E-3,1.1244508E-2,1.7145679E-3,4.9853977E-3,-1.3197884E-2,-4.0822485E-3,-7.31191E-4,2.972379E-3,4.331307E-3,6.505187E-3,-2.4756426E-3,-1.1723042E-2,-8.6731435E-4,-4.307437E-3,3.4254629E-3,7.239073E-4,2.8091173E-3,7.502754E-3],"split_indices":[2,44,32,39,36,51,31,31,41,36,55,0,10,6,6,6,56,55,1,6,45,56,2,25,55,0,45,36,56,15,6,0,11,36,50,45,14,55,31,30,0,25,10,25,0,41,58,30,30,11,30,10,50,50,10,40,1,45,45,59,7,14,30,0,0,0,0,0,0,0,0,0,0,0,0,0,0,0,0,0,0,0,0,0,0,0,0,0,0,0,0,0,0,0,0,0,0,0,0,0,0,0,0,0,0,0,0,0,0,0,0,0,0,0,0,0,0,0,0,0,0,0,0,0,0],"split_type":[0,0,0,0,0,0,0,0,0,0,0,0,0,0,0,0,0,0,0,0,0,0,0,0,0,0,0,0,0,0,0,0,0,0,0,0,0,0,0,0,0,0,0,0,0,0,0,0,0,0,0,0,0,0,0,0,0,0,0,0,0,0,0,0,0,0,0,0,0,0,0,0,0,0,0,0,0,0,0,0,0,0,0,0,0,0,0,0,0,0,0,0,0,0,0,0,0,0,0,0,0,0,0,0,0,0,0,0,0,0,0,0,0,0,0,0,0,0,0,0,0,0,0,0,0],"sum_hessian":[1.4827E4,5.754E3,9.073E3,2.057E3,3.697E3,6.143E3,2.93E3,4.82E2,1.575E3,1.955E3,1.742E3,8.81E2,5.262E3,2.278E3,6.52E2,1.51E2,3.31E2,6.46E2,9.29E2,4.7E1,1.908E3,9.01E2,8.41E2,1.16E2,7.65E2,2.589E3,2.673E3,1.104E3,1.174E3,4.88E2,1.64E2,4E0,1.47E2,7.1E1,2.6E2,4.56E2,1.9E2,8.13E2,1.16E2,4.5E1,2E0,1.05E3,8.58E2,4.32E2,4.69E2,3.05E2,5.36E2,2.3E1,9.3E1,2.9E1,7.36E2,1.547E3,1.042E3,1.64E3,1.033E3,1.092E3,1.2E1,1.92E2,9.82E2,6.1E1,4.27E2,1.35E2,2.9E1,3E0,1E0,3.9E1,1.08E2,5.5E1,1.6E1,7.7E1,1.83E2,3.03E2,1.53E2,1.54E2,3.6E1,1.91E2,6.22E2,5.1E1,6.5E1,1E1,3.5E1,9.2E1,9.58E2,6.67E2,1.91E2,9.9E1,3.33E2,2E1,4.49E2,2.9E1,2.76E2,3.44E2,1.92E2,1.9E1,4E0,3.2E1,6.1E1,1.4E1,1.5E1,4.48E2,2.88E2,2.48E2,1.299E3,6.43E2,3.99E2,1.205E3,4.35E2,6.84E2,3.49E2,9.4E2,1.52E2,8E0,4E0,4.1E1,1.51E2,4.27E2,5.55E2,2.1E1,4E1,2.53E2,1.74E2,3.4E1,1.01E2,1E1,1.9E1],"tree_param":{"num_deleted":"0","num_feature":"60","num_nodes":"125","size_leaf_vector":"1"}},{"base_weights":[4.3433422E-4,-1.8504016E-1,1.16848476E-1,-1.0114697E-1,-2.3441729E-1,1.5181355E-1,4.490253E-2,-4.8964685E-3,-1.3072744E-1,-2.0296735E-1,-2.7236935E-1,1.3366908E-1,1.7212926E-1,6.853465E-2,-4.5965664E-2,7.404986E-2,-4.495111E-2,-1.7140146E-1,-9.949165E-2,4.6728283E-2,-2.0910722E-1,-2.9963225E-1,-2.4229978E-1,9.995804E-2,1.4259227E-1,1.3526498E-1,1.7559738E-1,2.291949E-2,8.370098E-2,-1.3651219E-1,-2.3694215E-2,-1.0961309E-2,7.890394E-2,-1.1656061E-1,-1.9338958E-2,-2.3874292E-1,-1.460767E-1,-2.1759458E-1,-8.7477095E-2,-9.372361E-3,7.227713E-2,-2.321271E-1,-1.8114285E-1,-2.5849146E-1,-3.4203678E-1,-2.8649163E-1,-2.1696642E-1,4.5476135E-2,1.1039231E-1,1.2320053E-1,1.5505306E-1,1.4785066E-1,1.0785737E-1,1.798848E-1,1.4600451E-1,7.9267144E-2,-3.8360585E-3,3.2086715E-2,9.104421E-2,-6.6693544E-2,-2.0187682E-1,-4.5378704E-2,3.9326143E-2,5.9348266E-3,2.6386182E-3,-3.0243727E-3,-1.0324187E-2,-1.7448129E-3,3.5974581E-3,-3.8267914E-3,-1.2815918E-2,-5.27922E-3,-9.371773E-3,-9.124555E-3,-2.1698195E-2,-5.1719253E-3,-1.5065549E-3,-2.0751914E-3,3.9341724E-3,-4.0788823E-3,-1.1839197E-2,-4.7769086E-3,-9.969805E-3,-1.4747056E-2,-9.647659E-3,-5.2059046E-3,-1.7629417E-2,-1.6832963E-2,-1.2222837E-2,-8.77516E-3,-1.4979154E-2,3.606156E-3,-1.8126704E-4,3.823203E-4,5.7843057E-3,3.7512122E-4,6.223731E-3,6.8420763E-3,8.230874E-3,6.87566E-3,9.668517E-3,3.4690143E-3,6.1166566E-3,8.79126E-3,9.983006E-3,6.518622E-3,9.413718E-3,-8.136049E-4,4.530139E-3,-3.7286326E-3,1.657721E-3,-2.319952E-3,2.091724E-3,2.4992602E-3,5.065917E-3,-6.17884E-4,-7.3841223E-3,-1.2000122E-2,-1.6470985E-4,-5.0111124E-3,-1.0026841E-3,3.328276E-3,5.736147E-4],"categories":[],"categories_nodes":[],"categories_segments":[],"categories_sizes":[],"default_left":[0,0,0,0,0,0,0,0,0,0,0,0,0,0,0,0,0,0,0,0,0,0,0,0,0,0,0,0,0,0,0,0,0,0,0,0,0,0,0,0,0,0,0,0,0,0,0,0,0,0,0,0,0,0,0,0,0,0,0,0,0,0,0,0,0,0,0,0,0,0,0,0,0,0,0,0,0,0,0,0,0,0,0,0,0,0,0,0,0,0,0,0,0,0,0,0,0,0,0,0,0,0,0,0,0,0,0,0,0,0,0,0,0,0,0,0,0,0,0,0,0,0,0],"id":5,"left_children":[1,3,5,7,9,11,13,15,17,19,21,23,25,27,29,31,33,35,37,39,41,43,45,47,49,51,53,55,57,59,61,-1,63,65,67,69,71,73,75,-1,77,79,81,83,85,87,89,91,93,95,97,99,101,103,105,107,109,111,113,115,117,119,121,-1,-1,-1,-1,-1,-1,-1,-1,-1,-1,-1,-1,-1,-1,-1,-1,-1,-1,-1,-1,-1,-1,-1,-1,-1,-1,-1,-1,-1,-1,-1,-1,-1,-1,-1,-1,-1,-1,-1,-1,-1,-1,-1,-1,-1,-1,-1,-1,-1,-1,-1,-1,-1,-1,-1,-1,-1,-1,-1,-1],"loss_changes":[3.19214E2,2.3592148E1,2.2842339E1,6.018202E0,4.2273254E0,2.2299805E0,6.3852468E0,1.5780877E0,2.0373192E0,3.0238495E0,1.2579117E0,9.582672E-1,3.4445953E-1,1.6300726E0,1.2349595E0,2.564605E-1,6.048241E-1,1.1606159E0,1.2821465E0,3.00728E-1,1.1932831E0,1.3892212E0,8.0771637E-1,3.8154507E-1,5.980339E-1,7.097912E-2,3.0729675E-1,8.897954E-1,6.679344E-1,5.3874016E-1,6.7686725E-1,0E0,1.6635013E-1,4.2618823E-1,3.5045898E-1,5.220461E-1,8.3766174E-1,5.588119E-1,7.6026297E-1,0E0,3.533806E-2,7.161217E-1,1.3419437E0,9.7985077E-1,1.0026016E0,5.0816345E-1,1.653347E0,1.4549458E-1,3.0914783E-1,1.4706516E-1,2.4763107E-1,5.3403854E-2,3.7742257E-2,1.4889526E-1,1.9879246E-1,2.072438E-1,1.0517211E0,1.717845E-1,6.4837456E-1,2.6221108E-1,4.6861672E-1,5.091104E-1,9.5593974E-2,0E0,0E0,0E0,0E0,0E0,0E0,0E0,0E0,0E0,0E0,0E0,0E0,0E0,0E0,0E0,0E0,0E0,0E0,0E0,0E0,0E0,0E0,0E0,0E0,0E0,0E0,0E0,0E0,0E0,0E0,0E0,0E0,0E0,0E0,0E0,0E0,0E0,0E0,0E0,0E0,0E0,0E0,0E0,0E0,0E0,0E0,0E0,0E0,0E0,0E0,0E0,0E0,0E0,0E0,0E0,0E0,0E0,0E0,0E0,0E0],"parents":[2147483647,0,0,1,1,2,2,3,3,4,4,5,5,6,6,7,7,8,8,9,9,10,10,11,11,12,12,13,13,14,14,15,15,16,16,17,17,18,18,19,19,20,20,21,21,22,22,23,23,24,24,25,25,26,26,27,27,28,28,29,29,30,30,32,32,33,33,34,34,35,35,36,36,37,37,38,38,40,40,41,41,42,42,43,43,44,44,45,45,46,46,47,47,48,48,49,49,50,50,51,51,52,52,53,53,54,54,55,55,56,56,57,57,58,58,59,59,60,60,61,61,62,62],"right_children":[2,4,6,8,10,12,14,16,18,20,22,24,26,28,30,32,34,36,38,40,42,44,46,48,50,52,54,56,58,60,62,-1,64,66,68,70,72,74,76,-1,78,80,82,84,86,88,90,92,94,96,98,100,102,104,106,108,110,112,114,116,118,120,122,-1,-1,-1,-1,-1,-1,-1,-1,-1,-1,-1,-1,-1,-1,-1,-1,-1,-1,-1,-1,-1,-1,-1,-1,-1,-1,-1,-1,-1,-1,-1,-1,-1,-1,-1,-1,-1,-1,-1,-1,-1,-1,-1,-1,-1,-1,-1,-1,-1,-1,-1,-1,-1,-1,-1,-1,-1,-1,-1,-1],"split_conditions":[5.7004833E-1,7.307537E-1,6.227492E-1,6.166868E-1,8.8164383E-1,7.674823E-1,7.6420796E-1,6.328767E-1,7.2868544E-1,6.728767E-1,3.1283605E-1,2.6136985E-1,6.718636E-1,3.0047235E-1,7.1067786E-1,2.9380766E-1,1.3589041E-1,1.7501888E-1,2.485746E-2,1.01168886E-1,7.816358E-1,3.4465754E-1,3.201581E-1,6.3299966E-1,2.558904E-1,3.5177866E-1,5.5452055E-1,3.266775E-1,1.9835617E-1,7.250448E-1,7.5988597E-1,-1.0961309E-2,2.1120515E-1,5.8465755E-1,7.6632184E-1,3.0879092E-1,6.2630135E-1,8.695652E-1,4.059574E-1,-9.372361E-3,3.1337792E-1,6.127228E-1,1.1590836E-1,4.2527768E-1,4.0300046E-3,7.7466834E-1,6.137124E-1,3.644014E-1,4.0086532E-1,2.010959E-1,7.186543E-1,8.05214E-1,3.6939335E-1,8.541941E-1,7.219075E-1,1.2E-1,6.4497095E-1,3.888089E-2,2.690411E-1,8.082192E-1,7.483531E-1,1.4231075E-1,4.4876713E-1,5.9348266E-3,2.6386182E-3,-3.0243727E-3,-1.0324187E-2,-1.7448129E-3,3.5974581E-3,-3.8267914E-3,-1.2815918E-2,-5.27922E-3,-9.371773E-3,-9.124555E-3,-2.1698195E-2,-5.1719253E-3,-1.5065549E-3,-2.0751914E-3,3.9341724E-3,-4.0788823E-3,-1.1839197E-2,-4.7769086E-3,-9.969805E-3,-1.4747056E-2,-9.647659E-3,-5.2059046E-3,-1.7629417E-2,-1.6832963E-2,-1.2222837E-2,-8.77516E-3,-1.4979154E-2,3.606156E-3,-1.8126704E-4,3.823203E-4,5.7843057E-3,3.7512122E-4,6.223731E-3,6.8420763E-3,8.230874E-3,6.87566E-3,9.668517E-3,3.4690143E-3,6.1166566E-3,8.79126E-3,9.983006E-3,6.518622E-3,9.413718E-3,-8.136049E-4,4.530139E-3,-3.7286326E-3,1.657721E-3,-2.319952E-3,2.091724E-3,2.4992602E-3,5.065917E-3,-6.17884E-4,-7.3841223E-3,-1.2000122E-2,-1.6470985E-4,-5.0111124E-3,-1.0026841E-3,3.328276E-3,5.736147E-4],"split_indices":[2,44,32,39,36,0,34,31,15,36,55,51,55,5,15,2,56,55,55,14,35,56,2,0,21,37,41,20,56,30,5,0,44,36,5,5,41,27,55,0,8,30,5,5,0,35,58,35,55,11,55,15,45,7,35,16,30,45,11,16,57,45,41,0,0,0,0,0,0,0,0,0,0,0,0,0,0,0,0,0,0,0,0,0,0,0,0,0,0,0,0,0,0,0,0,0,0,0,0,0,0,0,0,0,0,0,0,0,0,0,0,0,0,0,0,0,0,0,0,0,0,0,0],"split_type":[0,0,0,0,0,0,0,0,0,0,0,0,0,0,0,0,0,0,0,0,0,0,0,0,0,0,0,0,0,0,0,0,0,0,0,0,0,0,0,0,0,0,0,0,0,0,0,0,0,0,0,0,0,0,0,0,0,0,0,0,0,0,0,0,0,0,0,0,0,0,0,0,0,0,0,0,0,0,0,0,0,0,0,0,0,0,0,0,0,0,0,0,0,0,0,0,0,0,0,0,0,0,0,0,0,0,0,0,0,0,0,0,0,0,0,0,0,0,0,0,0,0,0],"sum_hessian":[1.4782E4,5.7E3,9.082E3,2.113E3,3.587E3,6.111E3,2.971E3,4.97E2,1.616E3,1.965E3,1.622E3,3.232E3,2.879E3,2.358E3,6.13E2,1.67E2,3.3E2,7E2,9.16E2,4.7E1,1.918E3,8.46E2,7.76E2,6.79E2,2.553E3,2.51E2,2.628E3,5.89E2,1.769E3,1.2E2,4.93E2,2E0,1.65E2,8.6E1,2.44E2,1.89E2,5.11E2,8.3E1,8.33E2,4E0,4.3E1,1.048E3,8.7E2,4.33E2,4.13E2,2.79E2,4.97E2,1.1E2,5.69E2,1.003E3,1.55E3,1.69E2,8.2E1,2.291E3,3.37E2,1.89E2,4E2,2.21E2,1.548E3,5.9E1,6.1E1,3.67E2,1.26E2,6.4E1,1.01E2,5.4E1,3.2E1,2.09E2,3.5E1,1.9E1,1.7E2,2.6E2,2.51E2,7.3E1,1E1,6.51E2,1.82E2,2E0,4.1E1,3.2E1,1.016E3,1.54E2,7.16E2,2.76E2,1.57E2,1.8E1,3.95E2,1.24E2,1.55E2,3.33E2,1.64E2,7.1E1,3.9E1,2.8E1,5.41E2,1.1E1,9.92E2,5.39E2,1.011E3,1.41E2,2.8E1,2.4E1,5.8E1,1.909E3,3.82E2,2.49E2,8.8E1,2E1,1.69E2,1.37E2,2.63E2,2.4E1,1.97E2,3.11E2,1.237E3,3.6E1,2.3E1,5.1E1,1E1,1.15E2,2.52E2,6.3E1,6.3E1],"tree_param":{"num_deleted":"0","num_feature":"60","num_nodes":"123","size_leaf_vector":"1"}},{"base_weights":[3.354727E-4,-1.7657426E-1,1.1178333E-1,-1.03794836E-1,-2.2991017E-1,4.4901524E-2,1.43739E-1,-1.4241686E-2,-1.3655265E-1,-1.9156173E-1,-2.5776732E-1,9.917937E-2,9.077312E-3,1.2718958E-1,1.6322862E-1,5.8033533E-2,-5.034663E-2,-7.565715E-2,-1.6192614E-1,-1.7305087E-1,-2.60908E-1,-3.5542622E-1,-2.4952501E-1,5.0286483E-2,1.1365662E-1,-5.0870404E-2,3.0006722E-2,7.8349054E-2,1.317827E-1,1.6739298E-2,1.6457953E-1,-1.7961758E-1,6.445547E-2,-1.5821317E-1,-3.0677972E-2,-9.754581E-2,-2.2149848E-2,-1.8608198E-1,-1.0483203E-1,8.4378116E-2,-1.773794E-1,-2.0325626E-1,-3.1526098E-1,-3.7022832E-1,-8.732425E-2,-2.5666463E-1,-1.462783E-1,6.357152E-2,9.085968E-3,1.2060842E-2,1.1760862E-1,-3.1003268E-2,-1.2915109E-1,3.4038346E-2,-1.988217E-1,2.6797034E-2,1.08793125E-1,9.3841724E-2,1.3671876E-1,-2.7750839E-2,7.466454E-2,1.5959762E-1,1.9123289E-1,-3.4757953E-3,-1.0864473E-2,5.034144E-3,1.8820793E-3,-4.1710823E-3,-1.0488532E-2,-4.492348E-3,-4.215383E-4,-8.398078E-3,-3.7279301E-3,-2.711293E-3,1.5208527E-3,-1.2095819E-2,-8.555915E-3,-7.1672625E-3,-3.082258E-3,1.4108676E-3,4.8736585E-3,-1.1592586E-2,-7.862506E-3,-1.5303728E-2,-7.988955E-3,-1.90868E-2,-1.2576349E-2,-1.9467352E-2,-1.1003878E-2,-6.4094025E-3,-1.4497802E-3,-1.2278513E-2,-1.6273623E-2,-7.892507E-3,4.705462E-3,2.783752E-3,5.894165E-3,-4.9201393E-4,2.5506024E-3,3.6933662E-3,-2.5207845E-3,5.1486706E-3,6.8527535E-3,-3.5659007E-3,-6.350264E-4,-7.265014E-4,-8.017754E-3,4.3663303E-3,1.3100422E-3,-1.2670107E-2,-3.2404047E-3,-1.7864695E-3,3.0382555E-3,2.2258249E-3,6.16293E-3,4.0001213E-3,6.7152614E-3,6.0595344E-3,7.3106014E-3,-1.09305234E-4,-2.369581E-3,-1.0242731E-3,4.2588427E-3,5.980178E-3,8.096993E-3,7.152755E-3,9.993875E-3],"categories":[],"categories_nodes":[],"categories_segments":[],"categories_sizes":[],"default_left":[0,0,0,0,0,0,0,0,0,0,0,0,0,0,0,0,0,0,0,0,0,0,0,0,0,0,0,0,0,0,0,0,0,0,0,0,0,0,0,0,0,0,0,0,0,0,0,0,0,0,0,0,0,0,0,0,0,0,0,0,0,0,0,0,0,0,0,0,0,0,0,0,0,0,0,0,0,0,0,0,0,0,0,0,0,0,0,0,0,0,0,0,0,0,0,0,0,0,0,0,0,0,0,0,0,0,0,0,0,0,0,0,0,0,0,0,0,0,0,0,0,0,0,0,0,0,0],"id":6,"left_children":[1,3,5,7,9,11,13,15,17,19,21,23,25,27,29,31,33,35,37,39,41,43,45,47,49,51,53,55,57,59,61,63,65,67,69,71,73,75,77,79,81,83,85,87,89,91,93,95,97,99,101,103,105,107,109,111,113,115,117,119,121,123,125,-1,-1,-1,-1,-1,-1,-1,-1,-1,-1,-1,-1,-1,-1,-1,-1,-1,-1,-1,-1,-1,-1,-1,-1,-1,-1,-1,-1,-1,-1,-1,-1,-1,-1,-1,-1,-1,-1,-1,-1,-1,-1,-1,-1,-1,-1,-1,-1,-1,-1,-1,-1,-1,-1,-1,-1,-1,-1,-1,-1,-1,-1,-1,-1],"loss_changes":[2.9337723E2,2.2300125E1,1.950454E1,7.1383553E0,3.495163E0,5.7410936E0,1.9715729E0,1.7069206E0,2.7411728E0,1.7519684E0,1.4559784E0,8.252821E-1,2.2348397E0,7.400551E-1,5.578842E-1,3.442849E-1,9.201598E-1,6.138923E-1,1.7140884E0,1.2495995E0,8.540497E-1,5.510349E-1,1.2694016E0,1.4720696E-1,3.6194515E-1,7.1294916E-1,1.2245334E0,4.5222604E-1,5.59494E-1,7.165375E-2,3.4220123E-1,9.781346E-3,2.0311779E-1,2.4085677E-1,4.8629007E-1,5.91238E-1,2.6131445E-1,6.9550514E-1,6.165514E-1,1.122269E-2,1.1587143E0,5.992818E-1,5.352545E-1,3.1334114E-1,1.7734878E-2,1.1849976E0,3.40317E-1,8.092672E-2,5.3666696E-2,1.38875E-1,2.3377609E-1,2.7136844E-1,3.3029675E-1,5.398177E-1,1.5181154E-1,2.3367646E-1,1.6373515E-1,1.8805051E-1,3.8058853E-1,7.930177E-3,1.3747849E-2,2.027359E-1,1.534071E-1,0E0,0E0,0E0,0E0,0E0,0E0,0E0,0E0,0E0,0E0,0E0,0E0,0E0,0E0,0E0,0E0,0E0,0E0,0E0,0E0,0E0,0E0,0E0,0E0,0E0,0E0,0E0,0E0,0E0,0E0,0E0,0E0,0E0,0E0,0E0,0E0,0E0,0E0,0E0,0E0,0E0,0E0,0E0,0E0,0E0,0E0,0E0,0E0,0E0,0E0,0E0,0E0,0E0,0E0,0E0,0E0,0E0,0E0,0E0,0E0,0E0,0E0,0E0,0E0],"parents":[2147483647,0,0,1,1,2,2,3,3,4,4,5,5,6,6,7,7,8,8,9,9,10,10,11,11,12,12,13,13,14,14,15,15,16,16,17,17,18,18,19,19,20,20,21,21,22,22,23,23,24,24,25,25,26,26,27,27,28,28,29,29,30,30,31,31,32,32,33,33,34,34,35,35,36,36,37,37,38,38,39,39,40,40,41,41,42,42,43,43,44,44,45,45,46,46,47,47,48,48,49,49,50,50,51,51,52,52,53,53,54,54,55,55,56,56,57,57,58,58,59,59,60,60,61,61,62,62],"right_children":[2,4,6,8,10,12,14,16,18,20,22,24,26,28,30,32,34,36,38,40,42,44,46,48,50,52,54,56,58,60,62,64,66,68,70,72,74,76,78,80,82,84,86,88,90,92,94,96,98,100,102,104,106,108,110,112,114,116,118,120,122,124,126,-1,-1,-1,-1,-1,-1,-1,-1,-1,-1,-1,-1,-1,-1,-1,-1,-1,-1,-1,-1,-1,-1,-1,-1,-1,-1,-1,-1,-1,-1,-1,-1,-1,-1,-1,-1,-1,-1,-1,-1,-1,-1,-1,-1,-1,-1,-1,-1,-1,-1,-1,-1,-1,-1,-1,-1,-1,-1,-1,-1,-1,-1,-1,-1],"split_conditions":[5.7004833E-1,7.7260274E-1,6.936719E-1,6.49863E-1,6.147945E-1,5.0665057E-1,7.7070487E-1,6.652055E-1,5.912329E-1,9.2301494E-1,5.7182986E-1,2.1808219E-1,3.4136987E-1,4.97051E-1,4.347826E-1,2.3056653E-1,3.888089E-2,2.389041E-1,4.5505846E-1,6.652055E-1,6.1170566E-1,4.848485E-1,3.2876712E-1,5.6053513E-1,3.2164383E-1,9.3107617E-1,8.2575345E-1,1.529279E-1,1.528767E-1,2.3414718E-1,8.071127E-1,2.4985152E-1,3.9661428E-1,7.2981966E-1,7.4873084E-1,2.4897616E-1,3.5711408E-1,1.1706869E-1,3.4179765E-1,1.6164383E-1,4.0931508E-1,4.65964E-1,3.9899665E-1,4.4219178E-1,2.485746E-2,5.0065875E-1,6.772265E-1,8.154768E-1,1.8684931E-1,8.431438E-1,3.5780823E-1,1.3205479E-1,7.5719064E-1,2.5810418E-1,7.719064E-1,8.66183E-1,6.1313355E-1,7.123288E-1,3.90137E-1,7.4352217E-1,7.7207994E-1,6.5811074E-1,4.6191052E-1,-3.4757953E-3,-1.0864473E-2,5.034144E-3,1.8820793E-3,-4.1710823E-3,-1.0488532E-2,-4.492348E-3,-4.215383E-4,-8.398078E-3,-3.7279301E-3,-2.711293E-3,1.5208527E-3,-1.2095819E-2,-8.555915E-3,-7.1672625E-3,-3.082258E-3,1.4108676E-3,4.8736585E-3,-1.1592586E-2,-7.862506E-3,-1.5303728E-2,-7.988955E-3,-1.90868E-2,-1.2576349E-2,-1.9467352E-2,-1.1003878E-2,-6.4094025E-3,-1.4497802E-3,-1.2278513E-2,-1.6273623E-2,-7.892507E-3,4.705462E-3,2.783752E-3,5.894165E-3,-4.9201393E-4,2.5506024E-3,3.6933662E-3,-2.5207845E-3,5.1486706E-3,6.8527535E-3,-3.5659007E-3,-6.350264E-4,-7.265014E-4,-8.017754E-3,4.3663303E-3,1.3100422E-3,-1.2670107E-2,-3.2404047E-3,-1.7864695E-3,3.0382555E-3,2.2258249E-3,6.16293E-3,4.0001213E-3,6.7152614E-3,6.0595344E-3,7.3106014E-3,-1.09305234E-4,-2.369581E-3,-1.0242731E-3,4.2588427E-3,5.980178E-3,8.096993E-3,7.152755E-3,9.993875E-3],"split_indices":[2,41,4,36,26,39,0,31,41,49,20,56,1,5,52,7,45,1,9,36,58,12,1,53,1,29,36,10,46,40,10,0,39,5,15,55,49,55,4,11,26,2,13,1,0,57,15,20,56,13,56,56,13,20,48,59,0,1,16,2,0,55,54,0,0,0,0,0,0,0,0,0,0,0,0,0,0,0,0,0,0,0,0,0,0,0,0,0,0,0,0,0,0,0,0,0,0,0,0,0,0,0,0,0,0,0,0,0,0,0,0,0,0,0,0,0,0,0,0,0,0,0,0,0,0,0,0],"split_type":[0,0,0,0,0,0,0,0,0,0,0,0,0,0,0,0,0,0,0,0,0,0,0,0,0,0,0,0,0,0,0,0,0,0,0,0,0,0,0,0,0,0,0,0,0,0,0,0,0,0,0,0,0,0,0,0,0,0,0,0,0,0,0,0,0,0,0,0,0,0,0,0,0,0,0,0,0,0,0,0,0,0,0,0,0,0,0,0,0,0,0,0,0,0,0,0,0,0,0,0,0,0,0,0,0,0,0,0,0,0,0,0,0,0,0,0,0,0,0,0,0,0,0,0,0,0,0],"sum_hessian":[1.4878E4,5.75E3,9.128E3,2.433E3,3.317E3,2.952E3,6.176E3,6.52E2,1.781E3,1.399E3,1.918E3,1.173E3,1.779E3,3.344E3,2.832E3,2.17E2,4.35E2,5.25E2,1.256E3,1.107E3,2.92E2,1.46E2,1.772E3,2.69E2,9.04E2,4.6E2,1.319E3,2.89E2,3.055E3,2.6E1,2.806E3,5E0,2.12E2,6.6E1,3.69E2,3.72E2,1.53E2,8.81E2,3.75E2,1.8E1,1.089E3,1.44E2,1.48E2,1.38E2,8E0,1.656E3,1.16E2,2.03E2,6.6E1,3.4E1,8.7E2,3.68E2,9.2E1,1.297E3,2.2E1,1.08E2,1.81E2,3.54E2,2.701E3,1.5E1,1.1E1,2.37E3,4.36E2,2E0,3E0,8.9E1,1.23E2,2.8E1,3.8E1,1E2,2.69E2,9E1,2.82E2,9.5E1,5.8E1,1.83E2,6.98E2,1.97E2,1.78E2,4E0,1.4E1,2.91E2,7.98E2,4.1E1,1.03E2,7E1,7.8E1,1.21E2,1.7E1,4E0,4E0,1.43E3,2.26E2,1.11E2,5E0,1.79E2,2.4E1,4.6E1,2E1,1.7E1,1.7E1,5E2,3.7E2,1.14E2,2.54E2,2E1,7.2E1,1.65E2,1.132E3,1.5E1,7E0,3.8E1,7E1,3.4E1,1.47E2,2.66E2,8.8E1,1.03E3,1.671E3,7E0,8E0,1E0,1E1,1.34E2,2.236E3,6.9E1,3.67E2],"tree_param":{"num_deleted":"0","num_feature":"60","num_nodes":"127","size_leaf_vector":"1"}},{"base_weights":[-6.594036E-4,-1.7821714E-1,9.714124E-2,-2.747376E-2,-2.007862E-1,1.178608E-1,-4.555377E-2,-8.530325E-2,3.0775467E-2,-1.7201445E-1,-2.509852E-1,1.3621359E-1,6.4726174E-2,-6.376321E-2,4.31511E-2,-1.3982843E-1,-4.7916397E-2,-3.3942207E-3,6.55718E-2,-9.926111E-2,-1.8637972E-1,-2.6818764E-1,-1.9571257E-1,1.00320496E-1,1.4250962E-1,4.5826122E-2,9.812222E-2,-1.6993297E-2,-8.318805E-2,3.1267233E-2,8.2767205E-3,-1.5131149E-1,-1.6891697E-2,-1.2187909E-1,-2.1324938E-2,-2.5925426E-2,3.4441095E-2,1.185115E-2,7.6155685E-2,-1.18530735E-1,-7.0075295E-3,-1.9213887E-1,-8.5947104E-2,-2.9333463E-1,-2.3535694E-1,-1.2932006E-1,-2.2755416E-1,1.0599704E-1,2.7304081E-2,1.2694545E-1,1.5881515E-1,-5.4725483E-2,4.8983596E-2,1.6744946E-1,8.752494E-2,6.5125087E-3,-2.7031682E-2,-2.3465614E-1,-7.58949E-2,2.313762E-3,4.906498E-2,-1.088619E-2,-6.3324603E-3,1.3596156E-3,-2.9281303E-3,-1.2564428E-2,-4.5206505E-3,-6.0220536E-5,-2.5660533E-3,2.3428842E-3,-2.1913298E-3,1.0857531E-3,5.560626E-3,3.2497298E-3,-4.7810427E-3,4.885096E-3,2.4353135E-3,-6.5207793E-3,4.059372E-4,-2.322757E-3,1.7748702E-3,-1.4242514E-2,-9.401752E-3,-5.227972E-3,-4.5019443E-4,-6.2016193E-3,-1.5176251E-2,-1.4104701E-2,-9.447387E-3,-1.2017684E-2,-4.8401314E-3,-1.3466002E-2,-9.472712E-3,4.5360755E-3,6.970608E-3,-6.377653E-3,1.9487834E-3,5.9457906E-3,7.5506316E-3,6.7867204E-3,8.406765E-3,4.7159526E-3,-1.2005599E-2,-2.2552E-4,2.753313E-3,6.9199004E-3,9.461536E-3,3.0749568E-4,4.798033E-3,-4.1820892E-4,-5.5807433E-3,-3.425605E-3,-1.1890278E-2,-8.091734E-3,-3.0434565E-3,7.203791E-4,-4.2643785E-3,4.157528E-4,2.974584E-3],"categories":[],"categories_nodes":[],"categories_segments":[],"categories_sizes":[],"default_left":[0,0,0,0,0,0,0,0,0,0,0,0,0,0,0,0,0,0,0,0,0,0,0,0,0,0,0,0,0,0,0,0,0,0,0,0,0,0,0,0,0,0,0,0,0,0,0,0,0,0,0,0,0,0,0,0,0,0,0,0,0,0,0,0,0,0,0,0,0,0,0,0,0,0,0,0,0,0,0,0,0,0,0,0,0,0,0,0,0,0,0,0,0,0,0,0,0,0,0,0,0,0,0,0,0,0,0,0,0,0,0,0,0,0,0,0,0,0,0],"id":7,"left_children":[1,3,5,7,9,11,13,15,17,19,21,23,25,27,29,31,33,35,37,39,41,43,45,47,49,51,53,55,57,59,-1,61,63,65,67,69,71,73,75,77,79,81,83,85,87,89,91,93,95,97,99,101,103,105,107,-1,109,111,113,115,117,-1,-1,-1,-1,-1,-1,-1,-1,-1,-1,-1,-1,-1,-1,-1,-1,-1,-1,-1,-1,-1,-1,-1,-1,-1,-1,-1,-1,-1,-1,-1,-1,-1,-1,-1,-1,-1,-1,-1,-1,-1,-1,-1,-1,-1,-1,-1,-1,-1,-1,-1,-1,-1,-1,-1,-1,-1,-1],"loss_changes":[2.5599866E2,1.7808075E1,2.8110588E1,2.3033261E0,6.5342255E0,8.086052E0,1.9507618E0,6.9251394E-1,4.0566468E-1,3.0102615E0,1.5230255E0,1.3798065E0,1.3418255E0,9.079933E-1,2.9442784E-1,1.9366908E-1,4.0059003E-1,1.4837112E-1,9.518629E-2,8.5246134E-1,1.3826523E0,9.7203064E-1,8.098469E-1,3.80085E-1,1.3111725E0,4.3573594E-1,5.510473E-1,4.3955648E-1,7.6319885E-1,9.727943E-2,0E0,1.8043637E-1,2.5473721E-2,1.9716871E-1,9.1675945E-2,1.4407003E-1,6.1089724E-2,1.7184637E-1,7.863313E-2,5.986266E-1,1.4249334E-1,8.165817E-1,1.8952692E-1,1.1872864E0,1.1440029E0,4.4971228E-1,3.73847E-1,4.2479515E-1,1.2787662E-1,5.016899E-1,5.2745056E-1,1.1831425E0,4.3073416E-1,3.7721157E-2,4.593358E-1,0E0,4.3643755E-1,4.51684E-4,8.63076E-1,7.856753E-2,4.9217105E-2,0E0,0E0,0E0,0E0,0E0,0E0,0E0,0E0,0E0,0E0,0E0,0E0,0E0,0E0,0E0,0E0,0E0,0E0,0E0,0E0,0E0,0E0,0E0,0E0,0E0,0E0,0E0,0E0,0E0,0E0,0E0,0E0,0E0,0E0,0E0,0E0,0E0,0E0,0E0,0E0,0E0,0E0,0E0,0E0,0E0,0E0,0E0,0E0,0E0,0E0,0E0,0E0,0E0,0E0,0E0,0E0,0E0,0E0],"parents":[2147483647,0,0,1,1,2,2,3,3,4,4,5,5,6,6,7,7,8,8,9,9,10,10,11,11,12,12,13,13,14,14,15,15,16,16,17,17,18,18,19,19,20,20,21,21,22,22,23,23,24,24,25,25,26,26,27,27,28,28,29,29,31,31,32,32,33,33,34,34,35,35,36,36,37,37,38,38,39,39,40,40,41,41,42,42,43,43,44,44,45,45,46,46,47,47,48,48,49,49,50,50,51,51,52,52,53,53,54,54,56,56,57,57,58,58,59,59,60,60],"right_children":[2,4,6,8,10,12,14,16,18,20,22,24,26,28,30,32,34,36,38,40,42,44,46,48,50,52,54,56,58,60,-1,62,64,66,68,70,72,74,76,78,80,82,84,86,88,90,92,94,96,98,100,102,104,106,108,-1,110,112,114,116,118,-1,-1,-1,-1,-1,-1,-1,-1,-1,-1,-1,-1,-1,-1,-1,-1,-1,-1,-1,-1,-1,-1,-1,-1,-1,-1,-1,-1,-1,-1,-1,-1,-1,-1,-1,-1,-1,-1,-1,-1,-1,-1,-1,-1,-1,-1,-1,-1,-1,-1,-1,-1,-1,-1,-1,-1,-1,-1],"split_conditions":[3.572603E-1,7.090411E-1,7.3921806E-1,3.7424657E-1,8.8164383E-1,5.388956E-1,5.69863E-1,7.4617887E-1,6.7169565E-1,3.9068493E-1,4.2527768E-1,6.7561644E-1,6.569863E-1,7.9945207E-1,7.649315E-1,3.2876712E-1,3.410422E-1,3.0520475E-1,6.9847214E-1,4.101948E-1,4.5505846E-1,3.3010882E-1,3.832776E-1,7.3534244E-1,7.048899E-1,2.0114185E-1,3.576458E-1,3.478261E-1,6.8114686E-1,7.7434283E-1,8.2767205E-3,6.2192667E-1,3.4465754E-1,3.7041515E-1,2.3013699E-1,3.266775E-1,2.1808219E-1,2.5329787E-1,3.6701262E-1,3.6719066E-1,3.1187057E-1,3.888089E-2,2.4657534E-1,4.4749165E-1,3.2728738E-1,7.6585686E-1,7.3478264E-1,2.7178082E-1,7.857534E-1,8.121974E-1,7.198469E-1,4.3835616E-1,2.8901914E-1,2.6412895E-1,3.6802495E-1,6.5125087E-3,5.846154E-1,5.912329E-1,5.38995E-1,7.7123743E-1,2.0596534E-1,-1.088619E-2,-6.3324603E-3,1.3596156E-3,-2.9281303E-3,-1.2564428E-2,-4.5206505E-3,-6.0220536E-5,-2.5660533E-3,2.3428842E-3,-2.1913298E-3,1.0857531E-3,5.560626E-3,3.2497298E-3,-4.7810427E-3,4.885096E-3,2.4353135E-3,-6.5207793E-3,4.059372E-4,-2.322757E-3,1.7748702E-3,-1.4242514E-2,-9.401752E-3,-5.227972E-3,-4.5019443E-4,-6.2016193E-3,-1.5176251E-2,-1.4104701E-2,-9.447387E-3,-1.2017684E-2,-4.8401314E-3,-1.3466002E-2,-9.472712E-3,4.5360755E-3,6.970608E-3,-6.377653E-3,1.9487834E-3,5.9457906E-3,7.5506316E-3,6.7867204E-3,8.406765E-3,4.7159526E-3,-1.2005599E-2,-2.2552E-4,2.753313E-3,6.9199004E-3,9.461536E-3,3.0749568E-4,4.798033E-3,-4.1820892E-4,-5.5807433E-3,-3.425605E-3,-1.1890278E-2,-8.091734E-3,-3.0434565E-3,7.203791E-4,-4.2643785E-3,4.157528E-4,2.974584E-3],"split_indices":[6,36,34,1,36,34,6,20,30,46,5,1,6,31,6,6,55,5,50,55,9,4,58,41,10,17,30,17,25,5,0,39,41,14,46,20,11,10,5,4,50,50,1,53,14,30,28,51,51,50,55,6,50,40,55,0,58,36,5,18,54,0,0,0,0,0,0,0,0,0,0,0,0,0,0,0,0,0,0,0,0,0,0,0,0,0,0,0,0,0,0,0,0,0,0,0,0,0,0,0,0,0,0,0,0,0,0,0,0,0,0,0,0,0,0,0,0,0,0],"split_type":[0,0,0,0,0,0,0,0,0,0,0,0,0,0,0,0,0,0,0,0,0,0,0,0,0,0,0,0,0,0,0,0,0,0,0,0,0,0,0,0,0,0,0,0,0,0,0,0,0,0,0,0,0,0,0,0,0,0,0,0,0,0,0,0,0,0,0,0,0,0,0,0,0,0,0,0,0,0,0,0,0,0,0,0,0,0,0,0,0,0,0,0,0,0,0,0,0,0,0,0,0,0,0,0,0,0,0,0,0,0,0,0,0,0,0,0,0,0,0],"sum_hessian":[1.474E4,5.235E3,9.505E3,6.82E2,4.553E3,8.3E3,1.205E3,3.42E2,3.4E2,2.897E3,1.656E3,6.168E3,2.132E3,1E3,2.05E2,1.38E2,2.04E2,1.72E2,1.68E2,4.79E2,2.418E3,1.26E3,3.96E2,9.23E2,5.245E3,1.363E3,7.69E2,2.94E2,7.06E2,1.88E2,1.7E1,1.26E2,1.2E1,5.3E1,1.51E2,1.08E2,6.4E1,2.8E1,1.4E2,3.96E2,8.3E1,2.286E3,1.32E2,7.09E2,5.51E2,1.3E2,2.66E2,8.56E2,6.7E1,2.688E3,2.557E3,4.1E1,1.322E3,1E2,6.69E2,1.8E1,2.76E2,3.1E1,6.75E2,7.2E1,1.16E2,3.2E1,9.4E1,6E0,6E0,9E0,4.4E1,9.1E1,6E1,2.1E1,8.7E1,5.6E1,8E0,1.9E1,9E0,7.7E1,6.3E1,3.62E2,3.4E1,4.3E1,4E1,9.4E1,2.192E3,1.06E2,2.6E1,4.1E1,6.68E2,2.72E2,2.79E2,2.8E1,1.02E2,1.24E2,1.42E2,5.9E2,2.66E2,4E0,6.3E1,2.02E3,6.68E2,7.4E2,1.817E3,2.3E1,1.8E1,1.35E2,1.187E3,4.6E1,5.4E1,6.3E1,6.06E2,2.27E2,4.9E1,1E0,3E1,9.9E1,5.76E2,6.4E1,8E0,2.4E1,9.2E1],"tree_param":{"num_deleted":"0","num_feature":"60","num_nodes":"119","size_leaf_vector":"1"}},{"base_weights":[7.055458E-4,-1.5879573E-1,1.0080288E-1,-9.198796E-2,-2.066283E-1,1.3073596E-1,3.8567483E-2,-1.3144217E-1,-3.793561E-2,-1.7057873E-1,-2.3354281E-1,1.1429016E-1,1.4798239E-1,5.894556E-2,-3.8786516E-2,-6.744507E-2,-1.564951E-1,5.327799E-2,-6.183176E-2,-1.5423621E-1,-2.2806704E-1,-2.7079117E-1,-2.1616778E-1,8.40298E-2,1.2138082E-1,1.5424421E-1,1.2667553E-1,1.8095922E-2,7.333738E-2,-6.1269782E-2,3.3668507E-2,-1.0416502E-1,-2.402643E-2,-2.368437E-1,-1.447303E-1,7.899925E-2,2.7296761E-2,-5.752432E-2,-2.4577035E-1,-1.9741012E-1,-1.2450467E-1,-2.7799106E-1,-1.883611E-1,-2.4401124E-1,-3.242007E-1,-2.4896145E-1,-1.8495563E-1,4.2262994E-2,9.521944E-2,1.4041539E-1,1.1535849E-1,1.4676179E-1,1.69321E-1,5.4870512E-2,1.3021483E-1,2.42197E-2,-9.7456805E-2,2.8671272E-2,8.042893E-2,-2.3598139E-1,-5.5018894E-2,6.050738E-2,8.483722E-3,-5.82022E-3,-2.1730403E-3,-1.1114351E-2,-6.75632E-4,-1.43765975E-2,-7.4770534E-3,-1.1683015E-2,-6.891443E-3,2.5354265E-3,4.8527415E-3,2.8456134E-5,3.6599438E-3,-5.089557E-3,-2.0022828E-3,-1.3393961E-2,-2.296648E-3,3.4407673E-3,-1.02716135E-2,-8.352856E-3,-3.862456E-3,-1.4946531E-2,-6.6106054E-3,-6.6136234E-3,-1.1539375E-2,-1.6905194E-2,-1.1167041E-2,-1.9048903E-2,-1.3860111E-2,-8.664982E-3,-1.3175438E-2,-1.1881683E-2,-8.153936E-3,-1.0379824E-3,2.8066782E-3,3.2067187E-3,5.3205783E-3,6.191095E-3,7.5010182E-3,5.478651E-3,6.6872383E-3,5.7615107E-3,7.484021E-3,7.6416745E-3,9.525286E-3,3.4960012E-3,-2.3200344E-3,6.197578E-3,8.711643E-3,5.445391E-4,4.164417E-3,2.118396E-3,-1.0754941E-2,2.7150854E-3,1.8230859E-4,1.99275E-3,4.429172E-3,-1.2854027E-2,2.0126388E-3,-5.429371E-3,-1.9660748E-3,1.7208478E-3,3.993352E-3,-6.835826E-4,3.22468E-3],"categories":[],"categories_nodes":[],"categories_segments":[],"categories_sizes":[],"default_left":[0,0,0,0,0,0,0,0,0,0,0,0,0,0,0,0,0,0,0,0,0,0,0,0,0,0,0,0,0,0,0,0,0,0,0,0,0,0,0,0,0,0,0,0,0,0,0,0,0,0,0,0,0,0,0,0,0,0,0,0,0,0,0,0,0,0,0,0,0,0,0,0,0,0,0,0,0,0,0,0,0,0,0,0,0,0,0,0,0,0,0,0,0,0,0,0,0,0,0,0,0,0,0,0,0,0,0,0,0,0,0,0,0,0,0,0,0,0,0,0,0,0,0,0,0,0,0],"id":8,"left_children":[1,3,5,7,9,11,13,15,17,19,21,23,25,27,29,31,33,35,37,39,41,43,45,47,49,51,53,55,57,59,61,63,65,67,69,71,73,75,77,79,81,83,85,87,89,91,93,95,97,99,101,103,105,107,109,111,113,115,117,119,121,123,125,-1,-1,-1,-1,-1,-1,-1,-1,-1,-1,-1,-1,-1,-1,-1,-1,-1,-1,-1,-1,-1,-1,-1,-1,-1,-1,-1,-1,-1,-1,-1,-1,-1,-1,-1,-1,-1,-1,-1,-1,-1,-1,-1,-1,-1,-1,-1,-1,-1,-1,-1,-1,-1,-1,-1,-1,-1,-1,-1,-1,-1,-1,-1,-1],"loss_changes":[2.368026E2,1.8256561E1,1.6971535E1,5.0876503E0,3.1930542E0,1.7282791E0,4.669786E0,2.2020168E0,2.2025652E0,1.3064308E0,1.1743698E0,6.6654205E-1,3.8071442E-1,1.3767118E0,1.0088007E0,6.1928606E-1,9.0249825E-1,1.3818026E-1,6.197059E-1,1.4066658E0,5.700741E-1,7.81929E-1,1.2886772E0,2.7732372E-1,2.7645874E-1,2.3619461E-1,1.67449E-1,4.354233E-1,5.4662514E-1,5.024892E-1,9.884855E-2,1.5171027E-1,3.7220097E-1,5.101547E-1,4.9991035E-1,4.871303E-2,1.3000499E-1,6.017506E-1,6.7222714E-2,9.8160934E-1,1.320282E0,3.7867737E-1,3.9304876E-1,7.121868E-1,4.2274475E-1,6.51062E-1,7.3568153E-1,1.13931954E-1,1.5808344E-1,7.8487396E-2,1.9223976E-1,1.2576294E-1,2.3668861E-1,5.506315E-2,1.5870953E-1,4.5731363E-1,5.190404E-1,1.530976E-1,4.9110603E-1,1.0360104E-1,3.8001513E-1,3.311342E-2,9.6432544E-2,0E0,0E0,0E0,0E0,0E0,0E0,0E0,0E0,0E0,0E0,0E0,0E0,0E0,0E0,0E0,0E0,0E0,0E0,0E0,0E0,0E0,0E0,0E0,0E0,0E0,0E0,0E0,0E0,0E0,0E0,0E0,0E0,0E0,0E0,0E0,0E0,0E0,0E0,0E0,0E0,0E0,0E0,0E0,0E0,0E0,0E0,0E0,0E0,0E0,0E0,0E0,0E0,0E0,0E0,0E0,0E0,0E0,0E0,0E0,0E0,0E0,0E0,0E0,0E0],"parents":[2147483647,0,0,1,1,2,2,3,3,4,4,5,5,6,6,7,7,8,8,9,9,10,10,11,11,12,12,13,13,14,14,15,15,16,16,17,17,18,18,19,19,20,20,21,21,22,22,23,23,24,24,25,25,26,26,27,27,28,28,29,29,30,30,31,31,32,32,33,33,34,34,35,35,36,36,37,37,38,38,39,39,40,40,41,41,42,42,43,43,44,44,45,45,46,46,47,47,48,48,49,49,50,50,51,51,52,52,53,53,54,54,55,55,56,56,57,57,58,58,59,59,60,60,61,61,62,62],"right_children":[2,4,6,8,10,12,14,16,18,20,22,24,26,28,30,32,34,36,38,40,42,44,46,48,50,52,54,56,58,60,62,64,66,68,70,72,74,76,78,80,82,84,86,88,90,92,94,96,98,100,102,104,106,108,110,112,114,116,118,120,122,124,126,-1,-1,-1,-1,-1,-1,-1,-1,-1,-1,-1,-1,-1,-1,-1,-1,-1,-1,-1,-1,-1,-1,-1,-1,-1,-1,-1,-1,-1,-1,-1,-1,-1,-1,-1,-1,-1,-1,-1,-1,-1,-1,-1,-1,-1,-1,-1,-1,-1,-1,-1,-1,-1,-1,-1,-1,-1,-1,-1,-1,-1,-1,-1,-1],"split_conditions":[5.7004833E-1,7.7260274E-1,6.227492E-1,4.2160738E-1,6.147945E-1,7.6542014E-1,7.6420796E-1,5.912329E-1,6.948811E-1,9.2140263E-1,4.0184453E-1,6.290411E-1,4.5586297E-1,2.690411E-1,7.411054E-1,4.5657754E-1,5.6186438E-2,5.577514E-1,5.840387E-1,6.4990735E-1,3.083434E-1,8.641096E-1,7.451619E-1,6.3299966E-1,4.250836E-1,7.755342E-1,5.078597E-1,4.5972604E-1,2.0657535E-1,2.2520548E-1,4.4876713E-1,3.9246917E-1,8.313456E-2,2.2136986E-1,6.600625E-1,2.1589041E-1,7.997795E-1,1.6401152E-1,7.3578596E-1,5.173474E-1,4.3434343E-1,4.772037E-1,7.395696E-1,5.6761134E-1,8.0576235E-1,2.0383562E-1,2.5810418E-1,5.1374453E-1,2.739726E-1,6.772603E-1,7.9254365E-1,1.4958905E-1,5.086765E-1,4.6288976E-1,7.8414595E-1,8.284932E-1,1.9886549E-1,4.9626702E-1,3.0047235E-1,5.9332454E-1,1.23835616E-1,2.2865294E-1,4.6690348E-1,-5.82022E-3,-2.1730403E-3,-1.1114351E-2,-6.75632E-4,-1.43765975E-2,-7.4770534E-3,-1.1683015E-2,-6.891443E-3,2.5354265E-3,4.8527415E-3,2.8456134E-5,3.6599438E-3,-5.089557E-3,-2.0022828E-3,-1.3393961E-2,-2.296648E-3,3.4407673E-3,-1.02716135E-2,-8.352856E-3,-3.862456E-3,-1.4946531E-2,-6.6106054E-3,-6.6136234E-3,-1.1539375E-2,-1.6905194E-2,-1.1167041E-2,-1.9048903E-2,-1.3860111E-2,-8.664982E-3,-1.3175438E-2,-1.1881683E-2,-8.153936E-3,-1.0379824E-3,2.8066782E-3,3.2067187E-3,5.3205783E-3,6.191095E-3,7.5010182E-3,5.478651E-3,6.6872383E-3,5.7615107E-3,7.484021E-3,7.6416745E-3,9.525286E-3,3.4960012E-3,-2.3200344E-3,6.197578E-3,8.711643E-3,5.445391E-4,4.164417E-3,2.118396E-3,-1.0754941E-2,2.7150854E-3,1.8230859E-4,1.99275E-3,4.429172E-3,-1.2854027E-2,2.0126388E-3,-5.429371E-3,-1.9660748E-3,1.7208478E-3,3.993352E-3,-6.835826E-4,3.22468E-3],"split_indices":[2,41,32,2,26,0,34,41,34,49,12,1,32,11,5,0,50,37,49,25,9,31,40,0,33,10,59,6,56,11,41,55,55,1,35,56,50,50,43,27,2,0,27,20,30,56,50,25,56,56,50,41,40,37,20,56,10,37,5,2,56,50,55,0,0,0,0,0,0,0,0,0,0,0,0,0,0,0,0,0,0,0,0,0,0,0,0,0,0,0,0,0,0,0,0,0,0,0,0,0,0,0,0,0,0,0,0,0,0,0,0,0,0,0,0,0,0,0,0,0,0,0,0,0,0,0,0],"split_type":[0,0,0,0,0,0,0,0,0,0,0,0,0,0,0,0,0,0,0,0,0,0,0,0,0,0,0,0,0,0,0,0,0,0,0,0,0,0,0,0,0,0,0,0,0,0,0,0,0,0,0,0,0,0,0,0,0,0,0,0,0,0,0,0,0,0,0,0,0,0,0,0,0,0,0,0,0,0,0,0,0,0,0,0,0,0,0,0,0,0,0,0,0,0,0,0,0,0,0,0,0,0,0,0,0,0,0,0,0,0,0,0,0,0,0,0,0,0,0,0,0,0,0,0,0,0,0],"sum_hessian":[1.483E4,5.718E3,9.112E3,2.387E3,3.331E3,6.152E3,2.96E3,1.379E3,1.008E3,1.427E3,1.904E3,3.153E3,2.999E3,2.343E3,6.17E2,3.89E2,9.9E2,2.09E2,7.99E2,1.114E3,3.13E2,6.01E2,1.303E3,6.01E2,2.552E3,2.313E3,6.86E2,6.11E2,1.732E3,4.71E2,1.46E2,2.1E2,1.79E2,1.24E2,8.66E2,1.04E2,1.05E2,7.82E2,1.7E1,4.52E2,6.62E2,1.36E2,1.77E2,4.04E2,1.97E2,6.32E2,6.71E2,1.28E2,4.73E2,6.08E2,1.944E3,1.553E3,7.6E2,3.3E1,6.53E2,5.81E2,3E1,2.38E2,1.494E3,1.5E1,4.56E2,7E1,7.6E1,1.74E2,3.6E1,8E0,1.71E2,7.7E1,4.7E1,6E1,8.06E2,4.2E1,6.2E1,6.7E1,3.8E1,2.2E2,5.62E2,1.5E1,2E0,1.3E1,4.39E2,3.47E2,3.15E2,1.18E2,1.8E1,7.8E1,9.9E1,7E1,3.34E2,8.6E1,1.11E2,1.04E2,5.28E2,1.94E2,4.77E2,2.3E1,1.05E2,1.27E2,3.46E2,2.28E2,3.8E2,1.484E3,4.6E2,1.35E2,1.418E3,4.32E2,3.28E2,2.9E1,4E0,5.75E2,7.8E1,4.75E2,1.06E2,1.4E1,1.6E1,1.17E2,1.21E2,2.51E2,1.243E3,1.4E1,1E0,1.02E2,3.54E2,3.1E1,3.9E1,5.5E1,2.1E1],"tree_param":{"num_deleted":"0","num_feature":"60","num_nodes":"127","size_leaf_vector":"1"}},{"base_weights":[1.1399736E-3,-1.5794149E-1,8.7943256E-2,-2.376318E-2,-1.7772295E-1,1.06526956E-1,-4.1721053E-2,-6.6451415E-2,2.6738333E-2,-1.202047E-1,-1.9827098E-1,1.2609993E-1,6.442196E-2,-6.1052386E-2,2.3974309E-2,-2.1663617E-2,-1.0091547E-1,-3.4010748E-3,6.460241E-2,-6.570807E-2,-1.3630056E-1,-1.8072592E-1,-2.3925081E-1,1.0782364E-1,1.3959092E-1,3.3475112E-2,8.275519E-2,-5.3114273E-2,-1.8155977E-1,2.2294177E-3,8.981575E-2,-3.605036E-2,3.4795985E-2,-1.3783233E-1,-6.0405284E-2,4.7241144E-2,-3.4317605E-2,-8.1943035E-2,6.962591E-2,-7.964788E-2,1.8527996E-2,-6.88275E-2,-1.4944519E-1,-1.5049022E-1,-1.966399E-1,-2.7085856E-1,-2.0506963E-1,7.521902E-2,1.1448818E-1,1.3261102E-1,1.5556604E-1,-5.792571E-4,5.1715657E-2,5.9500393E-2,1.017654E-1,-6.7539506E-2,-2.9437456E-3,-1.1701888E-2,-1.4444657E-1,-8.2877964E-2,1.1775009E-2,9.597546E-2,-3.7818179E-3,-5.9027304E-3,-1.4050193E-3,-2.527341E-3,2.592051E-3,6.284863E-5,-7.4542277E-3,-1.6193154E-3,-6.394335E-3,-4.8671616E-3,2.6640196E-3,-3.7637127E-3,-4.5592416E-4,-5.3034346E-3,3.6398918E-4,3.959106E-3,5.837114E-4,9.2526583E-4,-4.4888766E-3,-3.8556207E-3,1.4183372E-3,-4.369169E-3,1.0501508E-3,-1.128405E-2,-6.929539E-3,-9.324315E-3,-4.494365E-3,-1.22953E-2,-9.439954E-3,-1.522725E-2,-1.121048E-2,-1.2406412E-2,-8.137338E-3,8.868586E-4,4.0985136E-3,4.907833E-3,6.1559416E-3,6.4198035E-3,7.7603855E-3,8.022666E-3,6.3157217E-3,-6.699068E-3,4.212558E-4,2.757386E-3,-5.357825E-3,4.2606625E-3,1.9751335E-3,4.6729213E-3,6.837389E-3,-7.857553E-3,-2.905213E-3,-7.161602E-3,1.8939206E-4,-9.394682E-3,-5.223281E-3,2.7639896E-3,-4.6274923E-3,-7.326541E-3,8.4645924E-4,3.930114E-3,8.037911E-3],"categories":[],"categories_nodes":[],"categories_segments":[],"categories_sizes":[],"default_left":[0,0,0,0,0,0,0,0,0,0,0,0,0,0,0,0,0,0,0,0,0,0,0,0,0,0,0,0,0,0,0,0,0,0,0,0,0,0,0,0,0,0,0,0,0,0,0,0,0,0,0,0,0,0,0,0,0,0,0,0,0,0,0,0,0,0,0,0,0,0,0,0,0,0,0,0,0,0,0,0,0,0,0,0,0,0,0,0,0,0,0,0,0,0,0,0,0,0,0,0,0,0,0,0,0,0,0,0,0,0,0,0,0,0,0,0,0,0,0,0,0,0,0],"id":9,"left_children":[1,3,5,7,9,11,13,15,17,19,21,23,25,27,29,31,33,35,37,39,41,43,45,47,49,51,53,55,57,59,61,63,65,67,69,71,73,75,77,79,81,83,85,87,89,91,93,95,97,99,101,103,105,107,109,111,113,-1,115,117,119,121,-1,-1,-1,-1,-1,-1,-1,-1,-1,-1,-1,-1,-1,-1,-1,-1,-1,-1,-1,-1,-1,-1,-1,-1,-1,-1,-1,-1,-1,-1,-1,-1,-1,-1,-1,-1,-1,-1,-1,-1,-1,-1,-1,-1,-1,-1,-1,-1,-1,-1,-1,-1,-1,-1,-1,-1,-1,-1,-1,-1,-1],"loss_changes":[2.0453593E2,1.3874802E1,2.3096046E1,1.4526439E0,5.36203E0,6.899658E0,1.5279782E0,5.612167E-1,3.5285085E-1,1.0454025E0,2.3697052E0,1.395546E0,1.5075302E0,8.790388E-1,3.9208966E-1,1.3121757E-1,2.997489E-1,2.7248412E-1,1.0656077E-1,3.255645E-1,8.118782E-1,1.1030731E0,1.0280838E0,5.2028656E-1,3.4600067E-1,6.1623085E-1,7.3265934E-1,6.316104E-1,7.720876E-2,1.6914275E-1,7.65605E-2,8.012988E-2,5.062453E-2,1.6764951E-1,1.8493426E-1,6.281644E-2,1.1077733E-1,1.1534948E-2,7.273078E-2,2.3730052E-1,3.98267E-2,2.568686E-1,6.100311E-1,1.7633171E0,5.480728E-1,7.457237E-1,8.452873E-1,1.5998483E-1,2.7249527E-1,1.9865799E-1,1.218338E-1,4.17946E-1,3.5814667E-1,3.8433957E-1,2.5398827E-1,5.641229E-1,1.8563765E-1,0E0,4.290551E-2,3.3177286E-2,1.550607E-1,6.1645806E-2,0E0,0E0,0E0,0E0,0E0,0E0,0E0,0E0,0E0,0E0,0E0,0E0,0E0,0E0,0E0,0E0,0E0,0E0,0E0,0E0,0E0,0E0,0E0,0E0,0E0,0E0,0E0,0E0,0E0,0E0,0E0,0E0,0E0,0E0,0E0,0E0,0E0,0E0,0E0,0E0,0E0,0E0,0E0,0E0,0E0,0E0,0E0,0E0,0E0,0E0,0E0,0E0,0E0,0E0,0E0,0E0,0E0,0E0,0E0,0E0,0E0],"parents":[2147483647,0,0,1,1,2,2,3,3,4,4,5,5,6,6,7,7,8,8,9,9,10,10,11,11,12,12,13,13,14,14,15,15,16,16,17,17,18,18,19,19,20,20,21,21,22,22,23,23,24,24,25,25,26,26,27,27,28,28,29,29,30,30,31,31,32,32,33,33,34,34,35,35,36,36,37,37,38,38,39,39,40,40,41,41,42,42,43,43,44,44,45,45,46,46,47,47,48,48,49,49,50,50,51,51,52,52,53,53,54,54,55,55,56,56,58,58,59,59,60,60,61,61],"right_children":[2,4,6,8,10,12,14,16,18,20,22,24,26,28,30,32,34,36,38,40,42,44,46,48,50,52,54,56,58,60,62,64,66,68,70,72,74,76,78,80,82,84,86,88,90,92,94,96,98,100,102,104,106,108,110,112,114,-1,116,118,120,122,-1,-1,-1,-1,-1,-1,-1,-1,-1,-1,-1,-1,-1,-1,-1,-1,-1,-1,-1,-1,-1,-1,-1,-1,-1,-1,-1,-1,-1,-1,-1,-1,-1,-1,-1,-1,-1,-1,-1,-1,-1,-1,-1,-1,-1,-1,-1,-1,-1,-1,-1,-1,-1,-1,-1,-1,-1,-1,-1,-1,-1],"split_conditions":[3.572603E-1,7.090411E-1,7.3534244E-1,6.654575E-1,5.6E-1,5.740009E-1,5.4136986E-1,6.1808217E-1,6.7603475E-1,5.912329E-1,9.0575343E-1,7.548126E-1,5.1835614E-1,8.9369863E-1,3.6183518E-1,7.9863495E-1,6.67893E-1,7.69863E-1,6.492908E-2,2.2410959E-1,4.7023413E-1,3.1671232E-1,7.658172E-1,1.4958905E-1,8.224573E-1,8.0088675E-1,3.249315E-1,3.7473366E-1,3.9580813E-1,3.8049173E-1,5.271233E-1,7.9443E-3,1.2712328E-1,3.9661428E-1,8.403869E-1,4.694774E-1,1.1178082E-1,5.526751E-1,4.694774E-1,6.0249126E-1,6.909756E-1,5.1068115E-1,3.888089E-2,6.909756E-1,3.1116486E-1,2.8219178E-1,5.89372E-1,6.492908E-2,4.0931508E-1,8.5199827E-1,8.370663E-1,1.1749344E-2,3.819178E-1,5.6302154E-1,8.073651E-1,6.8114686E-1,2.1783048E-1,-1.1701888E-2,1.87979E-1,4.4230327E-1,6.9847214E-1,4.9167952E-1,-3.7818179E-3,-5.9027304E-3,-1.4050193E-3,-2.527341E-3,2.592051E-3,6.284863E-5,-7.4542277E-3,-1.6193154E-3,-6.394335E-3,-4.8671616E-3,2.6640196E-3,-3.7637127E-3,-4.5592416E-4,-5.3034346E-3,3.6398918E-4,3.959106E-3,5.837114E-4,9.2526583E-4,-4.4888766E-3,-3.8556207E-3,1.4183372E-3,-4.369169E-3,1.0501508E-3,-1.128405E-2,-6.929539E-3,-9.324315E-3,-4.494365E-3,-1.22953E-2,-9.439954E-3,-1.522725E-2,-1.121048E-2,-1.2406412E-2,-8.137338E-3,8.868586E-4,4.0985136E-3,4.907833E-3,6.1559416E-3,6.4198035E-3,7.7603855E-3,8.022666E-3,6.3157217E-3,-6.699068E-3,4.212558E-4,2.757386E-3,-5.357825E-3,4.2606625E-3,1.9751335E-3,4.6729213E-3,6.837389E-3,-7.857553E-3,-2.905213E-3,-7.161602E-3,1.8939206E-4,-9.394682E-3,-5.223281E-3,2.7639896E-3,-4.6274923E-3,-7.326541E-3,8.4645924E-4,3.930114E-3,8.037911E-3],"split_indices":[6,36,31,59,46,32,6,36,30,41,36,0,6,36,50,15,33,41,15,1,48,21,40,46,0,59,56,50,4,4,41,10,46,44,24,32,21,0,7,15,15,9,50,25,19,11,17,40,16,7,52,10,11,57,50,25,57,0,0,0,15,50,0,0,0,0,0,0,0,0,0,0,0,0,0,0,0,0,0,0,0,0,0,0,0,0,0,0,0,0,0,0,0,0,0,0,0,0,0,0,0,0,0,0,0,0,0,0,0,0,0,0,0,0,0,0,0,0,0,0,0,0,0],"split_type":[0,0,0,0,0,0,0,0,0,0,0,0,0,0,0,0,0,0,0,0,0,0,0,0,0,0,0,0,0,0,0,0,0,0,0,0,0,0,0,0,0,0,0,0,0,0,0,0,0,0,0,0,0,0,0,0,0,0,0,0,0,0,0,0,0,0,0,0,0,0,0,0,0,0,0,0,0,0,0,0,0,0,0,0,0,0,0,0,0,0,0,0,0,0,0,0,0,0,0,0,0,0,0,0,0,0,0,0,0,0,0,0,0,0,0,0,0,0,0,0,0,0,0],"sum_hessian":[1.481E4,5.228E3,9.582E3,6.72E2,4.556E3,8.381E3,1.201E3,3.64E2,3.08E2,1.201E3,3.355E3,5.72E3,2.661E3,9.28E2,2.73E2,1.59E2,2.05E2,1.72E2,1.36E2,2.75E2,9.26E2,2.353E3,1.002E3,2.433E3,3.287E3,9.91E2,1.67E3,8.72E2,5.6E1,2.06E2,6.7E1,1.27E2,3.2E1,1.06E2,9.9E1,6.5E1,1.07E2,4E0,1.32E2,2.36E2,3.9E1,1.52E2,7.74E2,8.15E2,1.538E3,5.17E2,4.85E2,4.15E2,2.018E3,2.294E3,9.93E2,3.46E2,6.45E2,7.53E2,9.17E2,6.77E2,1.95E2,2.1E1,3.5E1,2E1,1.86E2,6.5E1,2E0,1E1,1.17E2,5E0,2.7E1,8E0,9.8E1,7.1E1,2.8E1,2E0,6.3E1,4E1,6.7E1,3E0,1E0,1.13E2,1.9E1,2.2E1,2.14E2,3E0,3.6E1,1.26E2,2.6E1,9.4E1,6.8E2,5.1E2,3.05E2,2.07E2,1.331E3,2.97E2,2.2E2,2.38E2,2.47E2,4.4E1,3.71E2,7.02E2,1.316E3,1.939E3,3.55E2,8.47E2,1.46E2,2.1E1,3.25E2,6.32E2,1.3E1,3.28E2,4.25E2,7.44E2,1.73E2,6.3E1,6.14E2,8E0,1.87E2,1.5E1,2E1,1E0,1.9E1,5E0,1.81E2,5.3E1,1.2E1],"tree_param":{"num_deleted":"0","num_feature":"60","num_nodes":"123","size_leaf_vector":"1"}},{"base_weights":[-2.6514128E-4,-1.5140344E-1,8.301161E-2,-2.208024E-2,-1.695404E-1,1.01191156E-1,-4.1251123E-2,-7.186705E-2,2.3365792E-2,-9.737175E-2,-1.8461946E-1,1.2012142E-1,6.0819343E-2,-5.70485E-2,3.3056434E-2,-6.072953E-2,-2.1440063E-1,-9.350941E-3,5.6331445E-2,-1.4552099E-1,-6.533676E-2,-1.7161834E-1,-2.3901811E-1,1.0592153E-1,1.3659862E-1,3.3381186E-2,7.7130355E-2,-1.6906102E-1,-5.0002214E-2,2.3865758E-2,7.6697506E-3,-1.2625642E-1,-3.0789081E-2,-1.19723484E-1,-1.25300875E-2,1.5370618E-2,-4.7954116E-2,5.9004724E-3,4.7260508E-2,-8.537931E-2,-1.9057089E-1,4.6097286E-2,-7.180573E-2,-1.9650549E-1,-1.580607E-1,-2.699826E-1,-2.0500812E-1,4.705676E-2,1.0876441E-1,1.1445078E-1,1.4101224E-1,1.721776E-2,6.5461434E-2,5.4337196E-2,9.644417E-2,-2.9936333E-3,-1.8438219E-1,-1.5615466E-1,-4.2892985E-2,5.0254357E-3,4.592803E-2,4.0606462E-4,-6.7128274E-3,-2.4996474E-3,2.2680499E-4,-1.7747872E-3,-6.3342596E-3,-2.126174E-3,1.5175188E-3,3.071183E-3,-2.9859764E-3,-2.873597E-3,2.9273685E-3,-5.0527505E-3,9.0593536E-4,-3.318141E-3,-1.0643402E-2,2.6634668E-3,-4.229665E-4,-4.6331813E-3,-1.3956794E-3,-8.269522E-3,-1.2685085E-2,-1.11731095E-2,-7.4794265E-3,-1.1939598E-2,-1.5916878E-2,-1.41904E-2,-8.807226E-3,3.774943E-5,3.025975E-3,4.099523E-3,5.667431E-3,6.4103357E-3,4.8090885E-3,5.5513466E-3,7.1928324E-3,-8.598971E-4,2.2759126E-3,2.78973E-3,5.764821E-3,3.916576E-3,1.7191975E-3,4.464639E-3,6.653244E-3,-2.424403E-3,1.5937798E-3,-4.198246E-3,-9.759254E-3,-1.0165836E-2,-3.0566035E-3,-4.179325E-3,-1.3138639E-3,-2.603778E-3,1.3684271E-3,-2.3974576E-3,2.71116E-3],"categories":[],"categories_nodes":[],"categories_segments":[],"categories_sizes":[],"default_left":[0,0,0,0,0,0,0,0,0,0,0,0,0,0,0,0,0,0,0,0,0,0,0,0,0,0,0,0,0,0,0,0,0,0,0,0,0,0,0,0,0,0,0,0,0,0,0,0,0,0,0,0,0,0,0,0,0,0,0,0,0,0,0,0,0,0,0,0,0,0,0,0,0,0,0,0,0,0,0,0,0,0,0,0,0,0,0,0,0,0,0,0,0,0,0,0,0,0,0,0,0,0,0,0,0,0,0,0,0,0,0,0,0,0,0,0,0],"id":10,"left_children":[1,3,5,7,9,11,13,15,17,19,21,23,25,27,29,31,33,35,37,39,41,43,45,47,49,51,53,55,57,59,-1,61,63,65,-1,67,69,-1,71,73,75,77,79,81,83,85,87,89,91,93,95,97,99,101,103,105,107,109,111,113,115,-1,-1,-1,-1,-1,-1,-1,-1,-1,-1,-1,-1,-1,-1,-1,-1,-1,-1,-1,-1,-1,-1,-1,-1,-1,-1,-1,-1,-1,-1,-1,-1,-1,-1,-1,-1,-1,-1,-1,-1,-1,-1,-1,-1,-1,-1,-1,-1,-1,-1,-1,-1,-1,-1,-1,-1],"loss_changes":[1.8603818E2,1.2312622E1,2.153283E1,1.4655899E0,4.993347E0,6.3466644E0,1.430479E0,4.7750807E-1,3.661479E-1,1.221375E0,2.6521606E0,1.3095932E0,1.186101E0,7.839756E-1,2.3302159E-1,5.6114113E-1,4.540038E-2,1.6392763E-1,8.8974416E-2,8.4531116E-1,3.5004568E-1,1.0071564E0,7.1551895E-1,5.042801E-1,2.3958206E-1,5.1325154E-1,7.2773075E-1,1.495645E-1,7.072127E-1,8.290126E-2,0E0,9.7843766E-2,1.3522437E-1,1.9416958E-4,0E0,9.235076E-2,8.988881E-2,0E0,1.7949784E-1,2.2572279E-1,4.871502E-1,1.1015262E-2,4.1396475E-1,1.881855E0,1.0730934E0,4.9710846E-1,7.528906E-1,8.846983E-2,3.4701538E-1,9.824371E-2,1.6970444E-1,6.445844E-1,1.53507E-1,3.6404037E-1,2.2381783E-1,1.1063719E-2,4.2190313E-2,2.5197697E-1,5.9822595E-1,1.4048891E-1,7.424286E-2,0E0,0E0,0E0,0E0,0E0,0E0,0E0,0E0,0E0,0E0,0E0,0E0,0E0,0E0,0E0,0E0,0E0,0E0,0E0,0E0,0E0,0E0,0E0,0E0,0E0,0E0,0E0,0E0,0E0,0E0,0E0,0E0,0E0,0E0,0E0,0E0,0E0,0E0,0E0,0E0,0E0,0E0,0E0,0E0,0E0,0E0,0E0,0E0,0E0,0E0,0E0,0E0,0E0,0E0,0E0,0E0],"parents":[2147483647,0,0,1,1,2,2,3,3,4,4,5,5,6,6,7,7,8,8,9,9,10,10,11,11,12,12,13,13,14,14,15,15,16,16,17,17,18,18,19,19,20,20,21,21,22,22,23,23,24,24,25,25,26,26,27,27,28,28,29,29,31,31,32,32,33,33,35,35,36,36,38,38,39,39,40,40,41,41,42,42,43,43,44,44,45,45,46,46,47,47,48,48,49,49,50,50,51,51,52,52,53,53,54,54,55,55,56,56,57,57,58,58,59,59,60,60],"right_children":[2,4,6,8,10,12,14,16,18,20,22,24,26,28,30,32,34,36,38,40,42,44,46,48,50,52,54,56,58,60,-1,62,64,66,-1,68,70,-1,72,74,76,78,80,82,84,86,88,90,92,94,96,98,100,102,104,106,108,110,112,114,116,-1,-1,-1,-1,-1,-1,-1,-1,-1,-1,-1,-1,-1,-1,-1,-1,-1,-1,-1,-1,-1,-1,-1,-1,-1,-1,-1,-1,-1,-1,-1,-1,-1,-1,-1,-1,-1,-1,-1,-1,-1,-1,-1,-1,-1,-1,-1,-1,-1,-1,-1,-1,-1,-1,-1,-1],"split_conditions":[3.572603E-1,7.030137E-1,7.3534244E-1,5.852479E-1,4.4273973E-1,5.740009E-1,5.69863E-1,8.735178E-1,6.7169565E-1,2.4268594E-1,9.3349457E-1,7.7345526E-1,5.106849E-1,4.7208673E-1,5.057366E-1,6.745718E-1,6.351878E-1,5.1304346E-1,6.0250765E-1,4.806987E-1,6.053192E-1,3.04768E-1,7.63109E-1,6.3571656E-1,7.0376945E-1,7.307692E-1,3.2876712E-1,1.04362786E-1,6.774256E-1,2.3414718E-1,7.6697506E-3,4.48397E-1,4.6690348E-1,6.702341E-1,-1.25300875E-2,1.1590836E-1,4.5657754E-1,5.9004724E-3,1.1178082E-1,2.8219178E-1,8.3071345E-1,5.779264E-1,3.2728738E-1,3.2164383E-1,6.492908E-2,4.9714535E-1,2.974607E-1,1.2E-1,1.5506849E-1,4.0623626E-1,6.605997E-1,7.791865E-1,8.154079E-1,5.6302154E-1,8.1685746E-1,3.6336175E-1,6.277592E-1,3.04768E-1,1.1590836E-1,2.109589E-1,3.8049173E-1,4.0606462E-4,-6.7128274E-3,-2.4996474E-3,2.2680499E-4,-1.7747872E-3,-6.3342596E-3,-2.126174E-3,1.5175188E-3,3.071183E-3,-2.9859764E-3,-2.873597E-3,2.9273685E-3,-5.0527505E-3,9.0593536E-4,-3.318141E-3,-1.0643402E-2,2.6634668E-3,-4.229665E-4,-4.6331813E-3,-1.3956794E-3,-8.269522E-3,-1.2685085E-2,-1.11731095E-2,-7.4794265E-3,-1.1939598E-2,-1.5916878E-2,-1.41904E-2,-8.807226E-3,3.774943E-5,3.025975E-3,4.099523E-3,5.667431E-3,6.4103357E-3,4.8090885E-3,5.5513466E-3,7.1928324E-3,-8.598971E-4,2.2759126E-3,2.78973E-3,5.764821E-3,3.916576E-3,1.7191975E-3,4.464639E-3,6.653244E-3,-2.424403E-3,1.5937798E-3,-4.198246E-3,-9.759254E-3,-1.0165836E-2,-3.0566035E-3,-4.179325E-3,-1.3138639E-3,-2.603778E-3,1.3684271E-3,-2.3974576E-3,2.71116E-3],"split_indices":[6,36,31,59,46,32,6,22,30,55,39,0,6,5,50,27,35,8,35,5,15,55,40,0,55,48,56,40,25,50,0,37,55,3,0,5,0,0,21,1,34,3,54,56,0,57,4,51,46,32,5,45,50,57,50,0,28,55,45,51,4,0,0,0,0,0,0,0,0,0,0,0,0,0,0,0,0,0,0,0,0,0,0,0,0,0,0,0,0,0,0,0,0,0,0,0,0,0,0,0,0,0,0,0,0,0,0,0,0,0,0,0,0,0,0,0,0],"split_type":[0,0,0,0,0,0,0,0,0,0,0,0,0,0,0,0,0,0,0,0,0,0,0,0,0,0,0,0,0,0,0,0,0,0,0,0,0,0,0,0,0,0,0,0,0,0,0,0,0,0,0,0,0,0,0,0,0,0,0,0,0,0,0,0,0,0,0,0,0,0,0,0,0,0,0,0,0,0,0,0,0,0,0,0,0,0,0,0,0,0,0,0,0,0,0,0,0,0,0,0,0,0,0,0,0,0,0,0,0,0,0,0,0,0,0,0,0],"sum_hessian":[1.4779E4,5.25E3,9.529E3,6.46E2,4.604E3,8.313E3,1.216E3,3.08E2,3.38E2,7.97E2,3.807E3,5.658E3,2.655E3,1.003E3,2.13E2,2.87E2,2.1E1,1.7E2,1.68E2,3.17E2,4.8E2,3.076E3,7.31E2,3.043E3,2.615E3,9.91E2,1.664E3,5.8E1,9.45E2,1.99E2,1.4E1,8.9E1,1.98E2,7E0,1.4E1,1.04E2,6.6E1,2E1,1.48E2,1.37E2,1.8E2,2.6E1,4.54E2,1.08E3,1.996E3,3.79E2,3.52E2,1.41E2,2.902E3,4.39E2,2.176E3,6.6E2,3.31E2,7.65E2,8.99E2,5E0,5.3E1,5.8E1,8.87E2,1.08E2,9.1E1,5E0,8.4E1,1.28E2,7E1,1E0,6E0,2.1E1,8.3E1,6E0,6E1,1.4E1,1.34E2,1.19E2,1.8E1,2.8E1,1.52E2,2.3E1,3E0,3.07E2,1.47E2,7.02E2,3.78E2,2.26E2,1.77E3,2.34E2,1.45E2,9.2E1,2.6E2,3.2E1,1.09E2,4.27E2,2.475E3,2.47E2,1.92E2,1.92E2,1.984E3,2.98E2,3.62E2,2.79E2,5.2E1,3.46E2,4.19E2,7.55E2,1.44E2,2E0,3E0,6E0,4.7E1,3.8E1,2E1,2.56E2,6.31E2,3E1,7.8E1,7E0,8.4E1],"tree_param":{"num_deleted":"0","num_feature":"60","num_nodes":"117","size_leaf_vector":"1"}},{"base_weights":[5.5653235E-4,-1.3559413E-1,8.6225145E-2,-7.316557E-2,-1.7300607E-1,1.1211802E-1,3.466791E-2,1.1181785E-3,-9.463399E-2,-3.218467E-2,-1.7787524E-1,7.542888E-2,1.1769235E-1,5.0575726E-2,-3.196972E-2,8.512064E-2,-1.4687032E-2,-6.1955992E-2,-1.16933025E-1,-1.2351528E-1,1.8576877E-2,-1.663127E-1,-2.2086583E-1,2.7879735E-2,8.152689E-2,1.0267205E-1,1.317215E-1,1.2191496E-2,6.2162325E-2,-4.9289193E-2,2.8165335E-2,4.777277E-2,9.507218E-2,-4.4532005E-2,1.6898965E-2,-5.5063255E-2,-1.642001E-1,-1.3965642E-1,-7.1407095E-2,-2.2376906E-2,-1.5348518E-1,-3.1394206E-2,5.220449E-2,-1.9453876E-1,-1.4975452E-1,-2.360387E-1,-1.6259836E-1,-2.8479565E-2,4.2938724E-2,5.5108454E-2,8.844757E-2,9.524599E-2,1.22560136E-1,1.2359924E-1,1.4718093E-1,7.263861E-2,-7.797344E-3,2.3772217E-2,6.903294E-2,-2.177762E-2,-7.4717894E-2,1.9000363E-2,9.285105E-2,3.1162696E-3,1.0895658E-3,-6.743371E-5,5.0130836E-3,-6.1860676E-3,-1.4173592E-3,-4.4979956E-3,1.3745485E-3,-3.7801452E-3,-1.3350779E-3,-6.2294276E-3,-1.26423305E-2,-1.2059332E-2,-6.2844665E-3,-8.843388E-3,-2.5936698E-3,-2.8534052E-3,4.4577825E-3,-1.6397582E-3,-8.693285E-3,-5.3234454E-3,-6.774097E-4,-1.8730098E-3,3.3119905E-3,-1.0121683E-2,-5.0657922E-3,-6.3431463E-3,-8.861602E-3,-1.1049972E-2,-1.53780645E-2,-1.0283677E-2,-5.1350584E-3,-2.4752792E-3,3.4000457E-3,1.6582673E-3,5.0597233E-3,3.2693823E-3,-3.384728E-3,4.126686E-3,6.0849055E-3,5.1898775E-3,3.4949705E-3,6.3455165E-3,4.679874E-3,5.7475558E-3,6.9787996E-3,6.765514E-3,8.26017E-3,4.2358483E-3,9.2517183E-4,-1.8386984E-3,2.690423E-3,-1.7574215E-3,1.7901527E-3,1.699823E-3,3.8851711E-3,-3.3597236E-5,-4.950056E-3,-5.0909366E-3,-1.1455E-3,2.2492802E-3,-1.787148E-4,-2.0963268E-3,5.2315663E-3],"categories":[],"categories_nodes":[],"categories_segments":[],"categories_sizes":[],"default_left":[0,0,0,0,0,0,0,0,0,0,0,0,0,0,0,0,0,0,0,0,0,0,0,0,0,0,0,0,0,0,0,0,0,0,0,0,0,0,0,0,0,0,0,0,0,0,0,0,0,0,0,0,0,0,0,0,0,0,0,0,0,0,0,0,0,0,0,0,0,0,0,0,0,0,0,0,0,0,0,0,0,0,0,0,0,0,0,0,0,0,0,0,0,0,0,0,0,0,0,0,0,0,0,0,0,0,0,0,0,0,0,0,0,0,0,0,0,0,0,0,0,0,0,0,0,0,0],"id":11,"left_children":[1,3,5,7,9,11,13,15,17,19,21,23,25,27,29,31,33,35,37,39,41,43,45,47,49,51,53,55,57,59,61,63,65,67,69,71,73,75,77,79,81,83,85,87,89,91,93,95,97,99,101,103,105,107,109,111,113,115,117,119,121,123,125,-1,-1,-1,-1,-1,-1,-1,-1,-1,-1,-1,-1,-1,-1,-1,-1,-1,-1,-1,-1,-1,-1,-1,-1,-1,-1,-1,-1,-1,-1,-1,-1,-1,-1,-1,-1,-1,-1,-1,-1,-1,-1,-1,-1,-1,-1,-1,-1,-1,-1,-1,-1,-1,-1,-1,-1,-1,-1,-1,-1,-1,-1,-1,-1],"loss_changes":[1.7169173E2,1.3265068E1,1.2057518E1,3.4001217E0,2.4311981E0,1.2210846E0,3.2051156E0,6.3720727E-1,1.1980047E0,5.5862445E-1,1.6707306E0,2.2853088E-1,1.086235E0,1.0844145E0,6.0858715E-1,2.3705006E-2,3.815966E-1,4.652493E-1,1.0059099E0,1.2690306E-1,1.3271075E-1,1.237915E0,6.02581E-1,7.930458E-2,1.2402344E-1,3.612461E-1,3.202095E-1,6.856541E-1,4.9265194E-1,3.1528413E-1,7.589821E-2,5.447615E-3,2.9657304E-2,2.630793E-1,2.2544746E-1,3.661462E-1,1.1597812E-1,8.9711094E-1,6.6857743E-1,4.7649123E-2,7.546908E-2,4.143063E-2,6.1629593E-2,7.1473694E-1,1.0550041E0,5.48378E-1,3.7362957E-1,4.3938436E-2,3.8206786E-2,1.9251135E-1,9.948349E-2,3.9221954E-1,7.417488E-2,2.2892952E-1,1.7511177E-1,9.062731E-2,7.6422846E-1,2.0399375E-1,4.800701E-1,3.568715E-1,3.276161E-1,6.820732E-2,2.9790312E-2,0E0,0E0,0E0,0E0,0E0,0E0,0E0,0E0,0E0,0E0,0E0,0E0,0E0,0E0,0E0,0E0,0E0,0E0,0E0,0E0,0E0,0E0,0E0,0E0,0E0,0E0,0E0,0E0,0E0,0E0,0E0,0E0,0E0,0E0,0E0,0E0,0E0,0E0,0E0,0E0,0E0,0E0,0E0,0E0,0E0,0E0,0E0,0E0,0E0,0E0,0E0,0E0,0E0,0E0,0E0,0E0,0E0,0E0,0E0,0E0,0E0,0E0,0E0,0E0],"parents":[2147483647,0,0,1,1,2,2,3,3,4,4,5,5,6,6,7,7,8,8,9,9,10,10,11,11,12,12,13,13,14,14,15,15,16,16,17,17,18,18,19,19,20,20,21,21,22,22,23,23,24,24,25,25,26,26,27,27,28,28,29,29,30,30,31,31,32,32,33,33,34,34,35,35,36,36,37,37,38,38,39,39,40,40,41,41,42,42,43,43,44,44,45,45,46,46,47,47,48,48,49,49,50,50,51,51,52,52,53,53,54,54,55,55,56,56,57,57,58,58,59,59,60,60,61,61,62,62],"right_children":[2,4,6,8,10,12,14,16,18,20,22,24,26,28,30,32,34,36,38,40,42,44,46,48,50,52,54,56,58,60,62,64,66,68,70,72,74,76,78,80,82,84,86,88,90,92,94,96,98,100,102,104,106,108,110,112,114,116,118,120,122,124,126,-1,-1,-1,-1,-1,-1,-1,-1,-1,-1,-1,-1,-1,-1,-1,-1,-1,-1,-1,-1,-1,-1,-1,-1,-1,-1,-1,-1,-1,-1,-1,-1,-1,-1,-1,-1,-1,-1,-1,-1,-1,-1,-1,-1,-1,-1,-1,-1,-1,-1,-1,-1,-1,-1,-1,-1,-1,-1,-1,-1,-1,-1,-1,-1],"split_conditions":[5.7004833E-1,7.307537E-1,6.157224E-1,6.138654E-1,7.2712326E-1,2.7178082E-1,7.70657E-1,3.7404272E-1,5.912329E-1,2.7009222E-1,9.3349457E-1,6.3299966E-1,7.048899E-1,3.0047235E-1,7.425063E-1,1.1561644E-1,3.3912903E-1,8.8449717E-1,4.5505846E-1,5.0602007E-1,7.4505806E-1,2.3753165E-1,8.015071E-1,5.4184306E-1,3.052055E-1,8.121974E-1,5.038876E-1,2.8901914E-1,2.0657535E-1,5.180602E-1,5.038876E-1,4.0519163E-1,2.2865294E-1,6.492908E-2,3.443127E-1,2.7045545E-1,7.1505016E-1,4.971492E-2,3.4738693E-1,7.917755E-1,4.5534247E-1,8.004837E-1,6.1538464E-1,5.062033E-1,4.561939E-1,3.5645336E-1,4.4498187E-1,8.783487E-1,8.354515E-1,8.525515E-1,9.030137E-1,4.943191E-1,8.6094314E-1,7.036365E-1,7.800153E-1,2.449315E-1,5.6761134E-1,1.1590836E-1,2.690411E-1,2.3013699E-1,4.5250836E-1,4.4876713E-1,5.154965E-1,3.1162696E-3,1.0895658E-3,-6.743371E-5,5.0130836E-3,-6.1860676E-3,-1.4173592E-3,-4.4979956E-3,1.3745485E-3,-3.7801452E-3,-1.3350779E-3,-6.2294276E-3,-1.26423305E-2,-1.2059332E-2,-6.2844665E-3,-8.843388E-3,-2.5936698E-3,-2.8534052E-3,4.4577825E-3,-1.6397582E-3,-8.693285E-3,-5.3234454E-3,-6.774097E-4,-1.8730098E-3,3.3119905E-3,-1.0121683E-2,-5.0657922E-3,-6.3431463E-3,-8.861602E-3,-1.1049972E-2,-1.53780645E-2,-1.0283677E-2,-5.1350584E-3,-2.4752792E-3,3.4000457E-3,1.6582673E-3,5.0597233E-3,3.2693823E-3,-3.384728E-3,4.126686E-3,6.0849055E-3,5.1898775E-3,3.4949705E-3,6.3455165E-3,4.679874E-3,5.7475558E-3,6.9787996E-3,6.765514E-3,8.26017E-3,4.2358483E-3,9.2517183E-4,-1.8386984E-3,2.690423E-3,-1.7574215E-3,1.7901527E-3,1.699823E-3,3.8851711E-3,-3.3597236E-5,-4.950056E-3,-5.0909366E-3,-1.1455E-3,2.2492802E-3,-1.787148E-4,-2.0963268E-3,5.2315663E-3],"split_indices":[2,44,32,39,36,51,34,39,41,7,39,0,10,5,5,51,50,17,9,58,50,0,40,25,56,50,40,20,56,58,40,50,50,45,2,54,3,50,2,30,56,49,48,5,10,0,19,2,58,10,16,30,9,50,10,21,25,45,11,51,48,41,0,0,0,0,0,0,0,0,0,0,0,0,0,0,0,0,0,0,0,0,0,0,0,0,0,0,0,0,0,0,0,0,0,0,0,0,0,0,0,0,0,0,0,0,0,0,0,0,0,0,0,0,0,0,0,0,0,0,0,0,0,0,0,0,0],"split_type":[0,0,0,0,0,0,0,0,0,0,0,0,0,0,0,0,0,0,0,0,0,0,0,0,0,0,0,0,0,0,0,0,0,0,0,0,0,0,0,0,0,0,0,0,0,0,0,0,0,0,0,0,0,0,0,0,0,0,0,0,0,0,0,0,0,0,0,0,0,0,0,0,0,0,0,0,0,0,0,0,0,0,0,0,0,0,0,0,0,0,0,0,0,0,0,0,0,0,0,0,0,0,0,0,0,0,0,0,0,0,0,0,0,0,0,0,0,0,0,0,0,0,0,0,0,0,0],"sum_hessian":[1.4718E4,5.684E3,9.034E3,2.131E3,3.553E3,6.013E3,3.021E3,4.78E2,1.653E3,1.19E2,3.434E3,7.95E2,5.218E3,2.439E3,5.82E2,7.5E1,4.03E2,6.72E2,9.81E2,4.2E1,7.7E1,2.71E3,7.24E2,9.1E1,7.04E2,2.524E3,2.694E3,5.66E2,1.873E3,4.52E2,1.3E2,1.7E1,5.8E1,2.07E2,1.96E2,6.31E2,4.1E1,6.53E2,3.28E2,1E1,3.2E1,3.1E1,4.6E1,9.98E2,1.712E3,5.72E2,1.52E2,1.9E1,7.2E1,1.48E2,5.56E2,1.842E3,6.82E2,1.772E3,9.22E2,1.4E2,4.26E2,2.85E2,1.588E3,2.18E2,2.34E2,1.15E2,1.5E1,1E1,7E0,3E0,5.5E1,3.4E1,1.73E2,1.7E1,1.79E2,3.65E2,2.66E2,3E1,1.1E1,7.7E1,5.76E2,5E1,2.78E2,8E0,2E0,5E0,2.7E1,5E0,2.6E1,6E0,4E1,9.19E2,7.9E1,9.37E2,7.75E2,4.76E2,9.6E1,8.7E1,6.5E1,1.6E1,3E0,6.3E1,9E0,1.37E2,1.1E1,4.75E2,8.1E1,1.375E3,4.67E2,5.9E2,9.2E1,1.155E3,6.17E2,5.61E2,3.61E2,1.14E2,2.6E1,2.9E2,1.36E2,4.8E1,2.37E2,3.16E2,1.272E3,1.72E2,4.6E1,1.53E2,8.1E1,5.3E1,6.2E1,1E0,1.4E1],"tree_param":{"num_deleted":"0","num_feature":"60","num_nodes":"127","size_leaf_vector":"1"}},{"base_weights":[1.6625038E-4,-1.2989315E-1,8.155945E-2,-7.0654936E-2,-1.6446769E-1,1.058311E-1,3.1660207E-2,-8.98372E-3,-9.250017E-2,-1.3403502E-1,-1.8443958E-1,7.069402E-2,1.11666985E-1,4.8184004E-2,-3.0909091E-2,-5.252702E-2,3.2422137E-2,-1.2338123E-1,-6.718442E-2,-9.661147E-3,-1.4019138E-1,-1.7318338E-1,-2.3506688E-1,4.652013E-2,7.9477035E-2,9.6012205E-2,1.2191056E-1,2.734128E-2,6.816665E-2,-2.4379145E-2,-2.1569613E-1,-1.887264E-2,-1.01137295E-1,-1.4867577E-1,3.759134E-2,-2.1958235E-1,-1.1187388E-1,-1.0783241E-1,-5.208688E-2,-1.2252779E-1,5.4687202E-2,-1.70611E-1,-1.150283E-1,-1.7872193E-1,-7.709144E-2,-2.6836097E-1,-1.9450755E-1,1.13281645E-2,5.8863375E-2,4.557688E-2,9.0306446E-2,8.648139E-2,1.1558184E-1,1.13772474E-1,1.3509767E-1,-1.1817635E-2,3.6223233E-2,4.497892E-2,8.938398E-2,-4.1545477E-2,2.8212482E-2,-1.1096579E-2,-2.2746802E-3,-2.5785451E-3,7.872207E-4,-1.1927171E-2,-3.8336546E-3,-8.60713E-3,3.897965E-4,8.183126E-4,3.606441E-3,-5.6636473E-3,-1.3799088E-2,-6.5944046E-3,-3.9775893E-3,-7.711522E-3,-3.80595E-3,-4.1558133E-3,-1.6999295E-3,-9.064398E-3,-2.1881824E-3,-1.5780757E-3,3.2050554E-3,-6.4112837E-3,-1.0321136E-2,-6.99908E-3,-3.3362794E-3,-1.2967023E-2,-8.612641E-3,-1.316047E-2,-1.5962393E-3,-8.903141E-3,-1.5279779E-2,-1.11244E-2,-2.4060865E-3,-2.3346017E-3,2.109233E-3,2.1295024E-3,3.9299545E-3,4.051489E-3,1.2173064E-3,3.8731326E-3,5.5218907E-3,4.8266263E-3,3.1350427E-3,1.039113E-3,5.8489125E-3,5.304424E-3,6.3406373E-3,6.303124E-3,7.820172E-3,2.376596E-3,-1.7166255E-3,7.630207E-4,2.839921E-3,-3.536064E-4,2.9318917E-3,3.942741E-3,6.3253934E-3,-1.4569568E-3,-4.8584975E-3,-1.8112177E-3,1.760751E-3],"categories":[],"categories_nodes":[],"categories_segments":[],"categories_sizes":[],"default_left":[0,0,0,0,0,0,0,0,0,0,0,0,0,0,0,0,0,0,0,0,0,0,0,0,0,0,0,0,0,0,0,0,0,0,0,0,0,0,0,0,0,0,0,0,0,0,0,0,0,0,0,0,0,0,0,0,0,0,0,0,0,0,0,0,0,0,0,0,0,0,0,0,0,0,0,0,0,0,0,0,0,0,0,0,0,0,0,0,0,0,0,0,0,0,0,0,0,0,0,0,0,0,0,0,0,0,0,0,0,0,0,0,0,0,0,0,0,0,0,0,0,0,0],"id":12,"left_children":[1,3,5,7,9,11,13,15,17,19,21,23,25,27,29,31,33,35,37,39,41,43,45,47,49,51,53,55,57,59,61,63,65,67,69,71,73,75,77,79,81,83,85,87,89,91,93,95,97,99,101,103,105,107,109,111,113,115,117,119,121,-1,-1,-1,-1,-1,-1,-1,-1,-1,-1,-1,-1,-1,-1,-1,-1,-1,-1,-1,-1,-1,-1,-1,-1,-1,-1,-1,-1,-1,-1,-1,-1,-1,-1,-1,-1,-1,-1,-1,-1,-1,-1,-1,-1,-1,-1,-1,-1,-1,-1,-1,-1,-1,-1,-1,-1,-1,-1,-1,-1,-1,-1],"loss_changes":[1.5560289E2,1.1576721E1,1.0946541E1,2.8108215E0,2.1463318E0,1.2392654E0,3.0617814E0,9.8791546E-1,1.1964283E0,1.0851612E0,1.1867981E0,1.8080854E-1,8.244095E-1,9.7356224E-1,7.416573E-1,4.348895E-1,2.6864186E-1,7.425995E-1,5.154016E-1,5.0056994E-1,1.0152626E0,9.261093E-1,4.7310066E-1,1.0097885E-1,2.2937202E-1,3.7553024E-1,3.22464E-1,3.9971125E-1,5.8389807E-1,5.419525E-1,1.219064E-2,1.8078685E-1,3.481171E-1,3.0717134E-2,1.9967821E-1,4.064312E-1,3.9123344E-1,3.2521987E-1,3.4572196E-1,1.0777098E-1,3.774838E-2,8.994446E-1,8.862066E-1,8.257637E-1,8.1541705E-1,6.550131E-1,7.2246647E-1,1.12968266E-1,5.2214086E-2,1.15447134E-1,1.1581373E-1,3.2714367E-1,8.679199E-2,1.8223953E-1,2.1051598E-1,2.8625268E-1,4.0284312E-1,4.077952E-1,2.3354435E-1,3.090921E-1,6.805641E-2,0E0,0E0,0E0,0E0,0E0,0E0,0E0,0E0,0E0,0E0,0E0,0E0,0E0,0E0,0E0,0E0,0E0,0E0,0E0,0E0,0E0,0E0,0E0,0E0,0E0,0E0,0E0,0E0,0E0,0E0,0E0,0E0,0E0,0E0,0E0,0E0,0E0,0E0,0E0,0E0,0E0,0E0,0E0,0E0,0E0,0E0,0E0,0E0,0E0,0E0,0E0,0E0,0E0,0E0,0E0,0E0,0E0,0E0,0E0,0E0,0E0,0E0],"parents":[2147483647,0,0,1,1,2,2,3,3,4,4,5,5,6,6,7,7,8,8,9,9,10,10,11,11,12,12,13,13,14,14,15,15,16,16,17,17,18,18,19,19,20,20,21,21,22,22,23,23,24,24,25,25,26,26,27,27,28,28,29,29,30,30,31,31,32,32,33,33,34,34,35,35,36,36,37,37,38,38,39,39,40,40,41,41,42,42,43,43,44,44,45,45,46,46,47,47,48,48,49,49,50,50,51,51,52,52,53,53,54,54,55,55,56,56,57,57,58,58,59,59,60,60],"right_children":[2,4,6,8,10,12,14,16,18,20,22,24,26,28,30,32,34,36,38,40,42,44,46,48,50,52,54,56,58,60,62,64,66,68,70,72,74,76,78,80,82,84,86,88,90,92,94,96,98,100,102,104,106,108,110,112,114,116,118,120,122,-1,-1,-1,-1,-1,-1,-1,-1,-1,-1,-1,-1,-1,-1,-1,-1,-1,-1,-1,-1,-1,-1,-1,-1,-1,-1,-1,-1,-1,-1,-1,-1,-1,-1,-1,-1,-1,-1,-1,-1,-1,-1,-1,-1,-1,-1,-1,-1,-1,-1,-1,-1,-1,-1,-1,-1,-1,-1,-1,-1,-1,-1],"split_conditions":[5.7004833E-1,7.307537E-1,6.227492E-1,6.279726E-1,6.0164386E-1,2.690411E-1,7.6420796E-1,3.543411E-1,7.2868544E-1,6.948811E-1,9.209996E-1,3.052055E-1,6.777948E-1,5.3150684E-1,8.710197E-1,8.629585E-1,2.0821919E-1,3.888089E-2,1.1590836E-1,3.732366E-1,6.6302305E-1,3.3260274E-1,5.89372E-1,1.7388114E-1,7.198469E-1,8.0880105E-1,5.038876E-1,1.9835617E-1,3.1173208E-1,5.69863E-1,4.624506E-1,3.4179765E-1,3.0904108E-1,5.940049E-1,6.4657533E-1,7.646824E-1,4.135187E-1,6.9632107E-1,3.9758343E-1,3.2675585E-1,7.170973E-1,5.979933E-1,3.127771E-1,3.9068493E-1,3.5792708E-1,4.931928E-1,3.358904E-1,1.855536E-1,6.829882E-1,1.1178082E-1,8.191781E-1,4.943191E-1,4.38296E-1,7.005918E-1,7.800153E-1,4.9431437E-1,7.843797E-1,4.971492E-2,8.356164E-1,9.351068E-1,3.715415E-1,-1.1096579E-2,-2.2746802E-3,-2.5785451E-3,7.872207E-4,-1.1927171E-2,-3.8336546E-3,-8.60713E-3,3.897965E-4,8.183126E-4,3.606441E-3,-5.6636473E-3,-1.3799088E-2,-6.5944046E-3,-3.9775893E-3,-7.711522E-3,-3.80595E-3,-4.1558133E-3,-1.6999295E-3,-9.064398E-3,-2.1881824E-3,-1.5780757E-3,3.2050554E-3,-6.4112837E-3,-1.0321136E-2,-6.99908E-3,-3.3362794E-3,-1.2967023E-2,-8.612641E-3,-1.316047E-2,-1.5962393E-3,-8.903141E-3,-1.5279779E-2,-1.11244E-2,-2.4060865E-3,-2.3346017E-3,2.109233E-3,2.1295024E-3,3.9299545E-3,4.051489E-3,1.2173064E-3,3.8731326E-3,5.5218907E-3,4.8266263E-3,3.1350427E-3,1.039113E-3,5.8489125E-3,5.304424E-3,6.3406373E-3,6.303124E-3,7.820172E-3,2.376596E-3,-1.7166255E-3,7.630207E-4,2.839921E-3,-3.536064E-4,2.9318917E-3,3.942741E-3,6.3253934E-3,-1.4569568E-3,-4.8584975E-3,-1.8112177E-3,1.760751E-3],"split_indices":[2,44,32,39,26,51,34,50,15,39,44,56,10,6,39,24,6,50,50,4,25,1,17,40,15,50,40,11,45,6,7,4,6,0,11,25,0,23,0,18,50,58,9,21,17,57,1,45,0,41,21,30,7,50,10,8,45,40,26,19,57,0,0,0,0,0,0,0,0,0,0,0,0,0,0,0,0,0,0,0,0,0,0,0,0,0,0,0,0,0,0,0,0,0,0,0,0,0,0,0,0,0,0,0,0,0,0,0,0,0,0,0,0,0,0,0,0,0,0,0,0,0,0],"split_type":[0,0,0,0,0,0,0,0,0,0,0,0,0,0,0,0,0,0,0,0,0,0,0,0,0,0,0,0,0,0,0,0,0,0,0,0,0,0,0,0,0,0,0,0,0,0,0,0,0,0,0,0,0,0,0,0,0,0,0,0,0,0,0,0,0,0,0,0,0,0,0,0,0,0,0,0,0,0,0,0,0,0,0,0,0,0,0,0,0,0,0,0,0,0,0,0,0,0,0,0,0,0,0,0,0,0,0,0,0,0,0,0,0,0,0,0,0,0,0,0,0,0,0],"sum_hessian":[1.4697E4,5.657E3,9.04E3,2.086E3,3.571E3,6.081E3,2.959E3,5.46E2,1.54E3,1.418E3,2.153E3,8.68E2,5.213E3,2.341E3,6.18E2,2.66E2,2.8E2,6.92E2,8.48E2,6.7E1,1.351E3,1.765E3,3.88E2,2.33E2,6.35E2,2.066E3,3.147E3,1.147E3,1.194E3,5.98E2,2E1,1.58E2,1.08E2,7E0,2.73E2,7.2E1,6.2E2,2.28E2,6.2E2,2.4E1,4.3E1,6.09E2,7.42E2,1.668E3,9.7E1,2.1E2,1.78E2,6.1E1,1.72E2,1.55E2,4.8E2,1.393E3,6.73E2,1.952E3,1.195E3,2.12E2,9.35E2,5.72E2,6.22E2,4.51E2,1.47E2,1.9E1,1E0,8.1E1,7.7E1,1.5E1,9.3E1,6E0,1E0,1.7E2,1.03E2,2.6E1,4.6E1,3.81E2,2.39E2,9.1E1,1.37E2,2.27E2,3.93E2,1.3E1,1.1E1,4E0,3.9E1,2.81E2,3.28E2,4.88E2,2.54E2,1.21E2,1.547E3,1.8E1,7.9E1,6.3E1,1.47E2,1.49E2,2.9E1,2.1E1,4E1,9.6E1,7.6E1,5.7E1,9.8E1,2.96E2,1.84E2,9.77E2,4.16E2,1E1,6.63E2,1.234E3,7.18E2,8.44E2,3.51E2,5.8E1,1.54E2,4.64E2,4.71E2,1.19E2,4.53E2,4.87E2,1.35E2,3.7E2,8.1E1,1.4E1,1.33E2],"tree_param":{"num_deleted":"0","num_feature":"60","num_nodes":"123","size_leaf_vector":"1"}},{"base_weights":[-2.2685011E-4,-1.2331934E-1,7.76652E-2,-3.9167576E-2,-1.4631037E-1,9.904349E-2,2.7853444E-2,-1.2717749E-1,-2.3692848E-2,-1.306044E-1,-1.9843255E-1,6.7230485E-2,1.0498728E-1,4.531448E-2,-3.1944793E-2,-1.4154224E-1,-6.1980642E-2,4.2481683E-2,-4.0306833E-2,-1.3992858E-1,-6.466437E-2,-2.1491241E-1,-1.5309584E-1,4.7242783E-2,9.0824544E-2,9.232917E-2,1.1799038E-1,3.1167358E-2,7.808226E-2,-9.8098256E-2,-1.590785E-2,-1.707487E-1,-1.0072227E-1,1.428327E-2,-8.155674E-2,7.129751E-2,2.3978764E-2,-7.2063275E-2,-1.6289331E-2,-1.6821201E-1,-1.2587813E-1,-1.421855E-1,-4.631752E-2,-2.5477734E-1,-1.9272465E-1,-1.2967308E-1,-2.4091661E-1,-5.830625E-2,5.0758228E-2,1.874011E-2,9.711524E-2,8.554348E-2,1.12157516E-1,1.00396775E-1,1.2608552E-1,-1.25445565E-2,3.7762944E-2,6.9494665E-2,1.306723E-1,-4.2361856E-2,-1.495555E-1,-4.185422E-2,1.8883811E-2,-6.0238834E-3,-1.0401833E-2,-4.326579E-3,-1.1292108E-2,1.5990615E-3,-2.7400614E-3,-6.686516E-3,-1.9965435E-3,-3.5186291E-3,3.7859462E-3,-3.7062727E-4,3.036275E-3,-2.9510483E-3,-8.004583E-3,7.6056414E-5,-3.2832865E-3,-7.41904E-3,-1.1204894E-2,-9.267054E-3,-5.850258E-3,-5.7705822E-3,-1.188836E-2,-3.0589155E-3,8.105359E-4,-2.300293E-3,-1.3302945E-2,-6.140443E-3,-1.116174E-2,-9.7360015E-3,-4.6794135E-3,-8.951556E-3,-1.577221E-2,-6.025238E-3,8.640839E-4,2.265213E-3,4.584014E-3,-4.477432E-3,3.9316104E-3,3.5314073E-3,5.4617976E-3,4.667138E-3,3.2468252E-3,3.8418944E-3,5.843801E-3,4.540208E-3,5.693188E-3,6.157592E-3,7.958856E-3,2.4086102E-3,-2.1055972E-3,1.2398182E-3,2.9356661E-3,3.822035E-3,8.85084E-5,2.131334E-3,6.9472017E-3,1.5637452E-4,-5.950441E-3,-9.452858E-3,1.5394724E-3,-5.33753E-4,-4.141634E-3,1.3668732E-3,-2.2890584E-3],"categories":[],"categories_nodes":[],"categories_segments":[],"categories_sizes":[],"default_left":[0,0,0,0,0,0,0,0,0,0,0,0,0,0,0,0,0,0,0,0,0,0,0,0,0,0,0,0,0,0,0,0,0,0,0,0,0,0,0,0,0,0,0,0,0,0,0,0,0,0,0,0,0,0,0,0,0,0,0,0,0,0,0,0,0,0,0,0,0,0,0,0,0,0,0,0,0,0,0,0,0,0,0,0,0,0,0,0,0,0,0,0,0,0,0,0,0,0,0,0,0,0,0,0,0,0,0,0,0,0,0,0,0,0,0,0,0,0,0,0,0,0,0,0,0,0,0],"id":13,"left_children":[1,3,5,7,9,11,13,15,17,19,21,23,25,27,29,31,33,35,37,39,41,43,45,47,49,51,53,55,57,59,61,63,65,67,69,71,73,75,77,79,81,83,85,87,89,91,93,95,97,99,101,103,105,107,109,111,113,115,117,119,121,123,125,-1,-1,-1,-1,-1,-1,-1,-1,-1,-1,-1,-1,-1,-1,-1,-1,-1,-1,-1,-1,-1,-1,-1,-1,-1,-1,-1,-1,-1,-1,-1,-1,-1,-1,-1,-1,-1,-1,-1,-1,-1,-1,-1,-1,-1,-1,-1,-1,-1,-1,-1,-1,-1,-1,-1,-1,-1,-1,-1,-1,-1,-1,-1,-1],"loss_changes":[1.4188213E2,1.1089981E1,9.648342E0,1.6748841E0,3.6611862E0,1.1919632E0,2.8446383E0,1.6354966E-1,1.1550066E0,2.1207466E0,7.4487686E-1,4.67772E-1,8.682022E-1,9.74771E-1,6.5195346E-1,1.6163278E-1,5.341813E-2,1.1079076E-1,6.3874006E-1,1.1845245E0,6.0641193E-1,6.240082E-1,5.467777E-1,2.0481169E-1,2.0586514E-1,3.551693E-1,3.6205673E-1,4.2543614E-1,2.776997E-1,3.378296E-1,4.494409E-1,1.3614345E-1,9.5867515E-2,1.1533848E-2,5.5469617E-2,5.6691796E-2,1.504088E-1,4.050132E-1,4.213403E-1,1.0794659E0,1.0498962E0,1.824044E-1,3.262183E-1,6.2132645E-1,1.0242271E0,5.0755095E-1,2.1103191E-1,8.670874E-2,1.1346626E-1,2.5349572E-1,1.2744379E-1,3.1923485E-1,1.0567856E-1,9.739971E-2,1.5494537E-1,3.503044E-1,3.4653378E-1,2.57653E-1,5.8166742E-2,2.0608279E-1,4.4750416E-1,3.6325276E-1,1.17689125E-1,0E0,0E0,0E0,0E0,0E0,0E0,0E0,0E0,0E0,0E0,0E0,0E0,0E0,0E0,0E0,0E0,0E0,0E0,0E0,