{"learner":{"attributes":{"scikit_learn":"{\"_estimator_type\": \"regressor\"}"},"feature_names":[],"feature_types":[],"gradient_booster":{"model":{"gbtree_model_param":{"num_parallel_tree":"1","num_trees":"300"},"iteration_indptr":[0,1,2,3,4,5,6,7,8,9,10,11,12,13,14,15,16,17,18,19,20,21,22,23,24,25,26,27,28,29,30,31,32,33,34,35,36,37,38,39,40,41,42,43,44,45,46,47,48,49,50,51,52,53,54,55,56,57,58,59,60,61,62,63,64,65,66,67,68,69,70,71,72,73,74,75,76,77,78,79,80,81,82,83,84,85,86,87,88,89,90,91,92,93,94,95,96,97,98,99,100,101,102,103,104,105,106,107,108,109,110,111,112,113,114,115,116,117,118,119,120,121,122,123,124,125,126,127,128,129,130,131,132,133,134,135,136,137,138,139,140,141,142,143,144,145,146,147,148,149,150,151,152,153,154,155,156,157,158,159,160,161,162,163,164,165,166,167,168,169,170,171,172,173,174,175,176,177,178,179,180,181,182,183,184,185,186,187,188,189,190,191,192,193,194,195,196,197,198,199,200,201,202,203,204,205,206,207,208,209,210,211,212,213,214,215,216,217,218,219,220,221,222,223,224,225,226,227,228,229,230,231,232,233,234,235,236,237,238,239,240,241,242,243,244,245,246,247,248,249,250,251,252,253,254,255,256,257,258,259,260,261,262,263,264,265,266,267,268,269,270,271,272,273,274,275,276,277,278,279,280,281,282,283,284,285,286,287,288,289,290,291,292,293,294,295,296,297,298,299,300],"tree_info":[0,0,0,0,0,0,0,0,0,0,0,0,0,0,0,0,0,0,0,0,0,0,0,0,0,0,0,0,0,0,0,0,0,0,0,0,0,0,0,0,0,0,0,0,0,0,0,0,0,0,0,0,0,0,0,0,0,0,0,0,0,0,0,0,0,0,0,0,0,0,0,0,0,0,0,0,0,0,0,0,0,0,0,0,0,0,0,0,0,0,0,0,0,0,0,0,0,0,0,0,0,0,0,0,0,0,0,0,0,0,0,0,0,0,0,0,0,0,0,0,0,0,0,0,0,0,0,0,0,0,0,0,0,0,0,0,0,0,0,0,0,0,0,0,0,0,0,0,0,0,0,0,0,0,0,0,0,0,0,0,0,0,0,0,0,0,0,0,0,0,0,0,0,0,0,0,0,0,0,0,0,0,0,0,0,0,0,0,0,0,0,0,0,0,0,0,0,0,0,0,0,0,0,0,0,0,0,0,0,0,0,0,0,0,0,0,0,0,0,0,0,0,0,0,0,0,0,0,0,0,0,0,0,0,0,0,0,0,0,0,0,0,0,0,0,0,0,0,0,0,0,0,0,0,0,0,0,0,0,0,0,0,0,0,0,0,0,0,0,0,0,0,0,0,0,0,0,0,0,0,0,0,0,0,0,0,0,0,0,0,0,0,0,0,0,0,0,0,0,0],"trees":[{"base_weights":[-3.9748644E-4,-2.4861605E-1,2.4151191E-1,-3.2150248E-1,-1.278804E-1,1.05905764E-1,3.1932965E-1,-3.570729E-1,-2.7500603E-1,-1.6028808E-1,-6.541375E-2,6.099435E-2,1.5282662E-1,2.6693863E-1,3.5718483E-1,-3.7700176E-1,-3.3634436E-1,-2.8479886E-1,-2.1648513E-1,-1.3839656E-1,-2.1002875E-1,-1.5314245E-1,-5.4185145E-2,-5.453123E-3,7.658199E-2,1.2813118E-1,1.7804122E-1,2.3457019E-1,2.8812492E-1,3.3616745E-1,3.8306695E-1,-3.840109E-1,-1.5270828E-2,-3.4202504E-1,-2.9598346E-1,-3.55022E-1,-2.7622792E-1,-1.8047465E-1,-2.4728078E-1,-1.4194773E-1,-1.7467344E-2,-2.2586961E-1,-1.6628066E-1,-1.0809318E-1,-1.8719706E-1,-2.9748878E-2,-9.217249E-2,-1.8770592E-2,4.8422195E-2,9.673092E-3,8.371558E-2,7.852989E-2,1.3751148E-1,2.1001099E-1,1.5839507E-1,2.4790668E-1,1.7652239E-1,2.4478768E-1,2.9209295E-1,1.4323564E-2,3.3878753E-1,1.8473756E-2,1.999784E-2,-1.9873016E-2,-1.740413E-2,-1.8307826E-2,-1.6258163E-2,-1.5763668E-2,-1.2601107E-2,-9.668495E-3,-1.7926784E-2,-1.433955E-2,-1.1184703E-2,-1.0502514E-2,-7.3440545E-3,-1.4732678E-2,-1.1501938E-2,-7.4314736E-3,-4.1350313E-3,-9.111417E-3,6.9855986E-4,-1.1561404E-2,-6.8014483E-3,-9.352821E-3,-6.85023E-3,-6.026196E-3,-1.5437009E-3,-2.042303E-3,-9.854906E-3,-2.687198E-3,1.0528145E-3,-6.763266E-3,-3.3537638E-3,-1.5017679E-3,9.887373E-4,3.3763547E-3,-4.810978E-4,-1.9641032E-3,1.5130438E-3,3.735425E-3,6.434101E-3,2.7555022E-3,6.0727024E-3,5.057561E-3,7.776011E-3,9.674938E-3,1.2335911E-2,7.233159E-3,1.035767E-2,9.154425E-3,1.2527788E-2,5.202726E-4,8.989859E-3,2.8734228E-3,1.2390417E-2,1.3160623E-2,1.4916206E-2,1.6127326E-2,1.722609E-2],"categories":[],"categories_nodes":[],"categories_segments":[],"categories_sizes":[],"default_left":[0,0,0,0,0,0,0,0,0,0,0,0,0,0,0,0,0,0,0,0,0,0,0,0,0,0,0,0,0,0,0,0,0,0,0,0,0,0,0,0,0,0,0,0,0,0,0,0,0,0,0,0,0,0,0,0,0,0,0,0,0,0,0,0,0,0,0,0,0,0,0,0,0,0,0,0,0,0,0,0,0,0,0,0,0,0,0,0,0,0,0,0,0,0,0,0,0,0,0,0,0,0,0,0,0,0,0,0,0,0,0,0,0,0,0,0,0,0,0],"id":0,"left_children":[1,3,5,7,9,11,13,15,17,19,21,23,25,27,29,31,33,35,37,39,41,43,45,47,49,51,53,55,57,59,61,63,-1,65,67,69,71,73,75,77,79,81,83,85,87,89,91,93,95,97,99,101,103,105,107,109,111,113,115,-1,117,-1,-1,-1,-1,-1,-1,-1,-1,-1,-1,-1,-1,-1,-1,-1,-1,-1,-1,-1,-1,-1,-1,-1,-1,-1,-1,-1,-1,-1,-1,-1,-1,-1,-1,-1,-1,-1,-1,-1,-1,-1,-1,-1,-1,-1,-1,-1,-1,-1,-1,-1,-1,-1,-1,-1,-1,-1,-1],"loss_changes":[8.862849E2,6.406677E1,7.884659E1,7.413788E0,5.544468E0,5.737238E0,9.323212E0,9.348755E-1,1.069046E0,1.9374809E0,9.166837E-1,1.4453015E0,8.072281E-1,1.3012085E0,1.3693542E0,5.359802E-1,1.8972778E-1,9.1729736E-1,2.7364445E-1,5.373287E-1,3.435974E-1,1.4238358E-1,7.714343E-1,1.9175938E-1,5.385399E-1,3.041935E-1,3.793869E-1,5.716896E-1,1.3519287E-1,1.0191345E-1,1.3389587E-1,4.328003E-1,0E0,3.3096313E-1,5.9617996E-2,3.2907486E-2,7.7267456E-1,1.0427046E-1,5.6372643E-2,4.7106934E-1,1.9420023E-1,1.6159058E-1,6.560707E-2,4.235369E-2,7.744193E-2,6.2164044E-1,3.4349942E-1,9.351364E-2,5.9422895E-2,1.120553E-1,4.0390825E-1,1.0388714E-1,3.561964E-1,1.0197067E-1,2.4521542E-1,6.470871E-2,8.081722E-2,4.630232E-2,1.1872101E-1,0E0,2.3544312E-2,0E0,0E0,0E0,0E0,0E0,0E0,0E0,0E0,0E0,0E0,0E0,0E0,0E0,0E0,0E0,0E0,0E0,0E0,0E0,0E0,0E0,0E0,0E0,0E0,0E0,0E0,0E0,0E0,0E0,0E0,0E0,0E0,0E0,0E0,0E0,0E0,0E0,0E0,0E0,0E0,0E0,0E0,0E0,0E0,0E0,0E0,0E0,0E0,0E0,0E0,0E0,0E0,0E0,0E0,0E0,0E0,0E0,0E0],"parents":[2147483647,0,0,1,1,2,2,3,3,4,4,5,5,6,6,7,7,8,8,9,9,10,10,11,11,12,12,13,13,14,14,15,15,16,16,17,17,18,18,19,19,20,20,21,21,22,22,23,23,24,24,25,25,26,26,27,27,28,28,29,29,30,30,31,31,33,33,34,34,35,35,36,36,37,37,38,38,39,39,40,40,41,41,42,42,43,43,44,44,45,45,46,46,47,47,48,48,49,49,50,50,51,51,52,52,53,53,54,54,55,55,56,56,57,57,58,58,60,60],"right_children":[2,4,6,8,10,12,14,16,18,20,22,24,26,28,30,32,34,36,38,40,42,44,46,48,50,52,54,56,58,60,62,64,-1,66,68,70,72,74,76,78,80,82,84,86,88,90,92,94,96,98,100,102,104,106,108,110,112,114,116,-1,118,-1,-1,-1,-1,-1,-1,-1,-1,-1,-1,-1,-1,-1,-1,-1,-1,-1,-1,-1,-1,-1,-1,-1,-1,-1,-1,-1,-1,-1,-1,-1,-1,-1,-1,-1,-1,-1,-1,-1,-1,-1,-1,-1,-1,-1,-1,-1,-1,-1,-1,-1,-1,-1,-1,-1,-1,-1,-1],"split_conditions":[5.260274E-1,3.1342465E-1,7.430137E-1,2.2136986E-1,4.350685E-1,6.4657533E-1,8.438356E-1,1.6712329E-1,5.103206E-1,7.7863014E-1,2.1589041E-1,6.1176986E-1,6.920548E-1,7.950685E-1,8.991781E-1,3.1342465E-1,5.8465755E-1,1.5506849E-1,6.9369864E-1,9.413699E-1,5.4136986E-1,7.06339E-1,6.6136986E-1,4.1095892E-1,4.1677645E-1,4.0657535E-1,5.1295567E-1,5.4677206E-1,6.1205477E-1,3.8630137E-1,9.282192E-1,2.3013699E-1,-1.5270828E-2,2.3013699E-1,3.353368E-1,6.482214E-1,4.350685E-1,5.8465755E-1,2.5863013E-1,6.630137E-1,6.759197E-1,7.430137E-1,2.7178082E-1,3.383334E-1,8.0383563E-1,6.3372856E-1,8.6630136E-1,6.739218E-1,4.5937636E-1,5.297659E-1,8.30137E-1,8.438356E-1,4.8810962E-1,3.935002E-1,9.1172916E-1,6.387836E-1,1.0684931E-1,1.9886549E-1,2.4986301E-1,1.4323564E-2,7.3958784E-1,1.8473756E-2,1.999784E-2,-1.9873016E-2,-1.740413E-2,-1.8307826E-2,-1.6258163E-2,-1.5763668E-2,-1.2601107E-2,-9.668495E-3,-1.7926784E-2,-1.433955E-2,-1.1184703E-2,-1.0502514E-2,-7.3440545E-3,-1.4732678E-2,-1.1501938E-2,-7.4314736E-3,-4.1350313E-3,-9.111417E-3,6.9855986E-4,-1.1561404E-2,-6.8014483E-3,-9.352821E-3,-6.85023E-3,-6.026196E-3,-1.5437009E-3,-2.042303E-3,-9.854906E-3,-2.687198E-3,1.0528145E-3,-6.763266E-3,-3.3537638E-3,-1.5017679E-3,9.887373E-4,3.3763547E-3,-4.810978E-4,-1.9641032E-3,1.5130438E-3,3.735425E-3,6.434101E-3,2.7555022E-3,6.0727024E-3,5.057561E-3,7.776011E-3,9.674938E-3,1.2335911E-2,7.233159E-3,1.035767E-2,9.154425E-3,1.2527788E-2,5.202726E-4,8.989859E-3,2.8734228E-3,1.2390417E-2,1.3160623E-2,1.4916206E-2,1.6127326E-2,1.722609E-2],"split_indices":[1,1,1,1,1,1,1,1,57,31,56,57,1,1,1,6,11,56,31,16,6,0,36,56,7,56,27,27,56,51,1,56,0,56,50,22,6,31,1,56,18,51,56,45,16,57,36,34,32,3,56,6,9,27,9,55,46,45,16,0,55,0,0,0,0,0,0,0,0,0,0,0,0,0,0,0,0,0,0,0,0,0,0,0,0,0,0,0,0,0,0,0,0,0,0,0,0,0,0,0,0,0,0,0,0,0,0,0,0,0,0,0,0,0,0,0,0,0,0],"split_type":[0,0,0,0,0,0,0,0,0,0,0,0,0,0,0,0,0,0,0,0,0,0,0,0,0,0,0,0,0,0,0,0,0,0,0,0,0,0,0,0,0,0,0,0,0,0,0,0,0,0,0,0,0,0,0,0,0,0,0,0,0,0,0,0,0,0,0,0,0,0,0,0,0,0,0,0,0,0,0,0,0,0,0,0,0,0,0,0,0,0,0,0,0,0,0,0,0,0,0,0,0,0,0,0,0,0,0,0,0,0,0,0,0,0,0,0,0,0,0],"sum_hessian":[1.4758E4,7.284E3,7.474E3,4.541E3,2.743E3,2.726E3,4.748E3,2.569E3,1.972E3,1.805E3,9.38E2,1.394E3,1.332E3,1.995E3,2.753E3,1.301E3,1.268E3,1.686E3,2.86E2,1.256E3,5.49E2,1.05E2,8.33E2,2.65E2,1.129E3,6.76E2,6.56E2,7.94E2,1.201E3,1.527E3,1.226E3,1.181E3,1.2E2,1.105E3,1.63E2,1.79E2,1.507E3,1.35E2,1.51E2,1.22E3,3.6E1,4E2,1.49E2,4.7E1,5.8E1,5.08E2,3.25E2,2.13E2,5.2E1,1.09E2,1.02E3,1.09E2,5.67E2,2.46E2,4.1E2,6.43E2,1.51E2,1.06E2,1.095E3,8.2E1,1.445E3,6.92E2,5.34E2,8.52E2,3.29E2,4.46E2,6.59E2,1.09E2,5.4E1,5E0,1.74E2,1.251E3,2.56E2,6.9E1,6.6E1,3.6E1,1.15E2,1.095E3,1.25E2,5E0,3.1E1,3.76E2,2.4E1,8.4E1,6.5E1,4E1,7E0,4E0,5.4E1,3.45E2,1.63E2,1.18E2,2.07E2,1.65E2,4.8E1,3.9E1,1.3E1,3.2E1,7.7E1,8.52E2,1.68E2,7.2E1,3.7E1,1.9E2,3.77E2,1.74E2,7.2E1,3.23E2,8.7E1,2.8E1,6.15E2,3E0,1.48E2,2E0,1.04E2,2.02E2,8.93E2,3.92E2,1.053E3],"tree_param":{"num_deleted":"0","num_feature":"60","num_nodes":"119","size_leaf_vector":"1"}},{"base_weights":[3.5823378E-4,-2.3694666E-1,2.3021178E-1,-3.0916697E-1,-1.2624869E-1,1.0000625E-1,3.0356872E-1,-3.41831E-1,-2.6854494E-1,-1.6226584E-1,-6.90515E-2,5.8298722E-2,1.437519E-1,2.52644E-1,3.3856896E-1,-3.702367E-1,-3.271796E-1,-2.8885886E-1,-2.4772848E-1,-1.3505879E-1,-2.0670275E-1,-1.4596635E-1,-5.783459E-2,-3.843661E-3,7.254538E-2,7.684187E-2,1.5237881E-1,2.2297019E-1,2.72498E-1,3.211665E-1,3.673696E-1,-3.864282E-1,-3.0586448E-1,-3.350938E-1,-2.7512884E-1,-3.4110984E-1,-2.8293154E-1,-3.4731424E-1,-2.425586E-1,-1.3906807E-1,-1.5754988E-3,-1.4408871E-2,-1.9606757E-1,-2.8984705E-2,-1.5278491E-1,-3.040115E-2,-9.418665E-2,-1.4404828E-2,5.291976E-2,3.0737579E-2,8.233547E-2,4.606564E-2,1.15658134E-1,1.0757087E-1,1.6933915E-1,2.3589359E-1,1.6745415E-1,2.5382748E-1,2.8083917E-1,3.109204E-1,1.6670557E-2,1.7747592E-2,1.896174E-2,-2.0613106E-2,-1.8742781E-2,-1.274766E-2,-1.6003462E-2,-1.7836405E-2,-1.5706843E-2,-1.330702E-2,-1.7007729E-2,-1.766629E-2,-1.0036013E-2,-1.4564717E-2,-1.23173185E-2,-1.7883236E-2,-3.986797E-3,-1.2489748E-2,-9.15234E-3,-7.917361E-3,-6.0600326E-3,-6.4283623E-3,1.0186979E-3,-1.0518203E-2,-7.943506E-3,-6.7588093E-4,-1.7232656E-3,-8.350525E-3,-4.2324974E-3,-2.6148518E-3,1.1127123E-3,-6.0804607E-3,-2.8979774E-3,-1.4837853E-3,4.419357E-4,3.4434616E-3,-1.0740235E-3,5.9596315E-4,3.6204685E-3,3.7131489E-3,6.2172837E-3,3.0440093E-5,3.119609E-3,5.116783E-3,7.7510173E-3,4.456803E-3,6.3671093E-3,6.828259E-3,9.3859425E-3,7.7532507E-3,1.189917E-2,5.0216382E-3,9.083174E-3,8.524697E-3,1.2830505E-2,1.3814069E-2,1.5728815E-2,1.248662E-2,1.5638953E-2],"categories":[],"categories_nodes":[],"categories_segments":[],"categories_sizes":[],"default_left":[0,0,0,0,0,0,0,0,0,0,0,0,0,0,0,0,0,0,0,0,0,0,0,0,0,0,0,0,0,0,0,0,0,0,0,0,0,0,0,0,0,0,0,0,0,0,0,0,0,0,0,0,0,0,0,0,0,0,0,0,0,0,0,0,0,0,0,0,0,0,0,0,0,0,0,0,0,0,0,0,0,0,0,0,0,0,0,0,0,0,0,0,0,0,0,0,0,0,0,0,0,0,0,0,0,0,0,0,0,0,0,0,0,0,0,0,0,0,0],"id":1,"left_children":[1,3,5,7,9,11,13,15,17,19,21,23,25,27,29,31,33,35,37,39,41,43,45,47,49,51,53,55,57,59,61,63,65,67,69,71,73,75,77,79,81,-1,83,85,87,89,91,93,95,97,99,101,103,105,107,109,111,113,115,117,-1,-1,-1,-1,-1,-1,-1,-1,-1,-1,-1,-1,-1,-1,-1,-1,-1,-1,-1,-1,-1,-1,-1,-1,-1,-1,-1,-1,-1,-1,-1,-1,-1,-1,-1,-1,-1,-1,-1,-1,-1,-1,-1,-1,-1,-1,-1,-1,-1,-1,-1,-1,-1,-1,-1,-1,-1,-1,-1],"loss_changes":[8.0705334E2,5.8161957E1,7.1758545E1,5.753113E0,5.9135857E0,4.936077E0,8.482361E0,8.9352417E-1,7.606354E-1,2.1047554E0,9.517946E-1,1.2299905E0,7.5138474E-1,1.0951385E0,1.3084412E0,7.3856354E-1,5.738983E-1,2.1009827E-1,4.1979218E-1,5.868645E-1,5.223179E-1,1.0803962E-1,9.6747255E-1,1.5662916E-1,4.5998096E-1,1.7744875E-1,8.7093544E-1,5.287247E-1,1.11076355E-1,1.19903564E-1,2.230835E-2,4.068756E-2,4.1337013E-2,5.222473E-1,3.747177E-2,9.371948E-2,2.0207214E-1,9.888172E-2,3.5650635E-1,3.476677E-1,9.460361E-2,0E0,2.8246498E-1,2.9703276E-4,1.1477423E-1,6.421965E-1,4.0820956E-1,7.8351155E-2,5.013176E-2,1.6852261E-1,3.0106735E-1,6.4529315E-2,1.9270778E-2,1.0674071E-1,4.8457718E-1,7.120514E-2,1.2746143E-1,4.2510986E-2,3.6102295E-2,3.391266E-2,0E0,0E0,0E0,0E0,0E0,0E0,0E0,0E0,0E0,0E0,0E0,0E0,0E0,0E0,0E0,0E0,0E0,0E0,0E0,0E0,0E0,0E0,0E0,0E0,0E0,0E0,0E0,0E0,0E0,0E0,0E0,0E0,0E0,0E0,0E0,0E0,0E0,0E0,0E0,0E0,0E0,0E0,0E0,0E0,0E0,0E0,0E0,0E0,0E0,0E0,0E0,0E0,0E0,0E0,0E0,0E0,0E0,0E0,0E0],"parents":[2147483647,0,0,1,1,2,2,3,3,4,4,5,5,6,6,7,7,8,8,9,9,10,10,11,11,12,12,13,13,14,14,15,15,16,16,17,17,18,18,19,19,20,20,21,21,22,22,23,23,24,24,25,25,26,26,27,27,28,28,29,29,30,30,31,31,32,32,33,33,34,34,35,35,36,36,37,37,38,38,39,39,40,40,42,42,43,43,44,44,45,45,46,46,47,47,48,48,49,49,50,50,51,51,52,52,53,53,54,54,55,55,56,56,57,57,58,58,59,59],"right_children":[2,4,6,8,10,12,14,16,18,20,22,24,26,28,30,32,34,36,38,40,42,44,46,48,50,52,54,56,58,60,62,64,66,68,70,72,74,76,78,80,82,-1,84,86,88,90,92,94,96,98,100,102,104,106,108,110,112,114,116,118,-1,-1,-1,-1,-1,-1,-1,-1,-1,-1,-1,-1,-1,-1,-1,-1,-1,-1,-1,-1,-1,-1,-1,-1,-1,-1,-1,-1,-1,-1,-1,-1,-1,-1,-1,-1,-1,-1,-1,-1,-1,-1,-1,-1,-1,-1,-1,-1,-1,-1,-1,-1,-1,-1,-1,-1,-1,-1,-1],"split_conditions":[5.260274E-1,3.030137E-1,7.430137E-1,2.1534246E-1,4.208219E-1,6.4657533E-1,8.416438E-1,1.6164383E-1,2.558904E-1,7.6E-1,2.2246575E-1,6.1176986E-1,4.1095892E-1,7.950685E-1,9.052055E-1,3.249315E-1,4.8109588E-1,1.4684932E-1,1.1178082E-1,9.194521E-1,1.9178082E-1,3.383334E-1,6.6136986E-1,4.1863012E-1,3.539726E-1,8.438356E-1,4.712329E-1,3.9068493E-1,8.109589E-1,8.778082E-1,9.282192E-1,3.249315E-1,1.1590836E-1,2.5205478E-1,5.8579296E-1,5.106849E-1,5.69863E-1,9.121651E-1,4.9972603E-1,4.6432889E-1,1.9671233E-1,-1.4408871E-2,7.1590173E-1,7.6420796E-1,2.9732102E-1,6.3372856E-1,8.860274E-1,4.354331E-1,3.7863013E-1,7.8958905E-1,8.109589E-1,7.350803E-1,8.735178E-1,8.30137E-1,5.271233E-1,5.068493E-1,8.2391575E-2,5.271233E-1,9.056832E-1,3.3260274E-1,1.6670557E-2,1.7747592E-2,1.896174E-2,-2.0613106E-2,-1.8742781E-2,-1.274766E-2,-1.6003462E-2,-1.7836405E-2,-1.5706843E-2,-1.330702E-2,-1.7007729E-2,-1.766629E-2,-1.0036013E-2,-1.4564717E-2,-1.23173185E-2,-1.7883236E-2,-3.986797E-3,-1.2489748E-2,-9.15234E-3,-7.917361E-3,-6.0600326E-3,-6.4283623E-3,1.0186979E-3,-1.0518203E-2,-7.943506E-3,-6.7588093E-4,-1.7232656E-3,-8.350525E-3,-4.2324974E-3,-2.6148518E-3,1.1127123E-3,-6.0804607E-3,-2.8979774E-3,-1.4837853E-3,4.419357E-4,3.4434616E-3,-1.0740235E-3,5.9596315E-4,3.6204685E-3,3.7131489E-3,6.2172837E-3,3.0440093E-5,3.119609E-3,5.116783E-3,7.7510173E-3,4.456803E-3,6.3671093E-3,6.828259E-3,9.3859425E-3,7.7532507E-3,1.189917E-2,5.0216382E-3,9.083174E-3,8.524697E-3,1.2830505E-2,1.3814069E-2,1.5728815E-2,1.248662E-2,1.5638953E-2],"split_indices":[1,1,1,1,1,1,1,56,1,31,56,57,56,1,1,6,11,56,56,21,56,30,36,56,6,6,6,31,1,1,1,11,40,56,0,6,11,12,6,4,51,0,5,14,47,57,36,50,36,56,6,15,7,56,56,56,30,56,4,51,0,0,0,0,0,0,0,0,0,0,0,0,0,0,0,0,0,0,0,0,0,0,0,0,0,0,0,0,0,0,0,0,0,0,0,0,0,0,0,0,0,0,0,0,0,0,0,0,0,0,0,0,0,0,0,0,0,0,0],"split_type":[0,0,0,0,0,0,0,0,0,0,0,0,0,0,0,0,0,0,0,0,0,0,0,0,0,0,0,0,0,0,0,0,0,0,0,0,0,0,0,0,0,0,0,0,0,0,0,0,0,0,0,0,0,0,0,0,0,0,0,0,0,0,0,0,0,0,0,0,0,0,0,0,0,0,0,0,0,0,0,0,0,0,0,0,0,0,0,0,0,0,0,0,0,0,0,0,0,0,0,0,0,0,0,0,0,0,0,0,0,0,0,0,0,0,0,0,0,0,0],"sum_hessian":[1.4794E4,7.279E3,7.515E3,4.404E3,2.875E3,2.709E3,4.806E3,2.437E3,1.967E3,1.763E3,1.112E3,1.388E3,1.321E3,1.961E3,2.845E3,8.21E2,1.616E3,9.89E2,9.78E2,1.096E3,6.67E2,1.4E2,9.72E2,2.59E2,1.129E3,1.52E2,1.169E3,7.91E2,1.17E3,1.781E3,1.064E3,6.52E2,1.69E2,1.398E3,2.18E2,9.5E1,8.94E2,4.5E1,9.33E2,1.064E3,3.2E1,7.4E1,5.93E2,8E0,1.32E2,5.55E2,4.17E2,2.19E2,4E1,2.15E2,9.14E2,8.6E1,6.6E1,3.23E2,8.46E2,6.39E2,1.52E2,3.71E2,7.99E2,9.84E2,7.97E2,5.35E2,5.29E2,1.91E2,4.61E2,4.1E1,1.28E2,6.8E2,7.18E2,1.96E2,2.2E1,8.6E1,9E0,7.22E2,1.72E2,4.3E1,2E0,8.29E2,1.04E2,5.08E2,5.56E2,4E0,2.8E1,4.25E2,1.68E2,3E0,5E0,1.08E2,2.4E1,3.92E2,1.63E2,2.36E2,1.81E2,1.32E2,8.7E1,3.3E1,7E0,1.49E2,6.6E1,7.69E2,1.45E2,2.3E1,6.3E1,5.2E1,1.4E1,1.7E2,1.53E2,3.07E2,5.39E2,1.8E1,6.21E2,2.8E1,1.24E2,1.4E1,3.57E2,7.12E2,8.7E1,3.3E1,9.51E2],"tree_param":{"num_deleted":"0","num_feature":"60","num_nodes":"119","size_leaf_vector":"1"}},{"base_weights":[-1.0572797E-4,-2.256642E-1,2.1842088E-1,-2.9385236E-1,-1.2108121E-1,9.922327E-2,2.8988802E-1,-3.2535973E-1,-2.5471804E-1,-1.5565206E-1,-6.4789474E-2,5.6428395E-2,1.4110956E-1,2.4229503E-1,3.208971E-1,-3.6425745E-1,-3.1586963E-1,-2.6351866E-1,-2.0711765E-1,-1.9636735E-1,-1.3172738E-1,-1.3020296E-1,-5.3504746E-2,-4.57034E-4,6.84954E-2,1.13203116E-1,1.6647013E-1,2.1866141E-1,2.6103157E-1,3.0245125E-1,3.4511924E-1,-3.7800565E-1,-2.9090574E-1,-3.240018E-1,-2.7203742E-1,-2.7056438E-1,-1.9606337E-1,-2.0948718E-1,-7.3608555E-2,-2.1973826E-1,-1.5799454E-1,-1.770177E-1,-1.2159662E-1,-1.6544683E-2,-1.4350607E-1,-2.8567871E-2,-8.838157E-2,-1.9299645E-2,2.1891346E-2,7.193992E-3,7.539816E-2,5.4650683E-2,1.20335974E-1,1.0593143E-1,1.7556965E-1,1.3728881E-1,2.2539596E-1,1.1187198E-2,2.6487234E-1,1.3471196E-2,3.0632517E-1,1.6658003E-2,1.8053407E-2,-1.9304272E-2,-1.6509274E-2,-1.4970719E-2,-9.572966E-3,-1.712885E-2,-1.4959017E-2,-1.5156417E-2,-1.2951883E-2,-1.7515747E-2,-1.3246934E-2,-1.1465385E-2,-8.4645E-3,-1.0744566E-2,-8.832361E-3,-1.634399E-3,-4.1719596E-3,-1.1876613E-2,-9.24292E-3,-8.858538E-3,-5.8652298E-3,-9.360356E-3,-5.8199717E-3,-6.2585673E-3,-7.234169E-4,-1.3414436E-3,7.779992E-4,-7.914423E-3,-5.191861E-3,-3.5423206E-3,2.9955487E-4,-5.7616765E-3,-2.7290059E-3,-1.6539524E-3,1.2827956E-3,5.168311E-4,3.600991E-3,-2.2182132E-3,1.3447161E-3,3.3902097E-3,6.0303225E-3,3.4025721E-3,-1.5361052E-3,4.822727E-3,6.793145E-3,6.248204E-3,2.9768667E-3,6.165596E-3,9.343657E-3,7.823418E-3,4.2676213E-3,1.1448436E-2,6.960366E-3,1.2883059E-2,1.480662E-2,1.3915191E-2,1.5474657E-2],"categories":[],"categories_nodes":[],"categories_segments":[],"categories_sizes":[],"default_left":[0,0,0,0,0,0,0,0,0,0,0,0,0,0,0,0,0,0,0,0,0,0,0,0,0,0,0,0,0,0,0,0,0,0,0,0,0,0,0,0,0,0,0,0,0,0,0,0,0,0,0,0,0,0,0,0,0,0,0,0,0,0,0,0,0,0,0,0,0,0,0,0,0,0,0,0,0,0,0,0,0,0,0,0,0,0,0,0,0,0,0,0,0,0,0,0,0,0,0,0,0,0,0,0,0,0,0,0,0,0,0,0,0,0,0,0,0,0,0],"id":2,"left_children":[1,3,5,7,9,11,13,15,17,19,21,23,25,27,29,31,33,35,37,39,41,43,45,47,49,51,53,55,57,59,61,63,65,67,69,71,73,75,77,79,81,83,85,87,89,91,93,95,97,99,101,103,105,107,109,111,113,-1,115,-1,117,-1,-1,-1,-1,-1,-1,-1,-1,-1,-1,-1,-1,-1,-1,-1,-1,-1,-1,-1,-1,-1,-1,-1,-1,-1,-1,-1,-1,-1,-1,-1,-1,-1,-1,-1,-1,-1,-1,-1,-1,-1,-1,-1,-1,-1,-1,-1,-1,-1,-1,-1,-1,-1,-1,-1,-1,-1,-1],"loss_changes":[7.315207E2,5.2044434E1,6.418533E1,5.3670654E0,5.602333E0,5.0594845E0,6.8762817E0,7.875061E-1,7.7319336E-1,1.7138748E0,8.042865E-1,9.610424E-1,9.9178505E-1,7.678833E-1,1.1690063E0,3.670311E-1,6.151428E-1,7.378006E-1,8.359909E-2,5.5628014E-1,4.960308E-1,2.4105883E-1,8.141415E-1,1.04013555E-1,4.8819494E-1,2.7867508E-1,3.9235306E-1,4.2390442E-1,8.881378E-2,1.255188E-1,1.13342285E-1,2.5146484E-2,9.520054E-3,6.623993E-1,4.8793793E-2,5.819626E-1,1.0448074E-1,1.6523361E-2,8.846447E-5,2.0869637E-1,1.7662764E-1,1.0421276E-1,3.524227E-1,6.360525E-3,6.800532E-2,8.0256987E-1,3.4859562E-1,8.3856404E-2,6.470749E-2,1.2104747E-1,3.4817886E-1,8.903925E-2,2.1234608E-1,8.086014E-2,3.5913658E-1,5.2388668E-2,2.0369339E-1,0E0,1.3379669E-1,0E0,4.2404175E-2,0E0,0E0,0E0,0E0,0E0,0E0,0E0,0E0,0E0,0E0,0E0,0E0,0E0,0E0,0E0,0E0,0E0,0E0,0E0,0E0,0E0,0E0,0E0,0E0,0E0,0E0,0E0,0E0,0E0,0E0,0E0,0E0,0E0,0E0,0E0,0E0,0E0,0E0,0E0,0E0,0E0,0E0,0E0,0E0,0E0,0E0,0E0,0E0,0E0,0E0,0E0,0E0,0E0,0E0,0E0,0E0,0E0,0E0],"parents":[2147483647,0,0,1,1,2,2,3,3,4,4,5,5,6,6,7,7,8,8,9,9,10,10,11,11,12,12,13,13,14,14,15,15,16,16,17,17,18,18,19,19,20,20,21,21,22,22,23,23,24,24,25,25,26,26,27,27,28,28,29,29,30,30,31,31,32,32,33,33,34,34,35,35,36,36,37,37,38,38,39,39,40,40,41,41,42,42,43,43,44,44,45,45,46,46,47,47,48,48,49,49,50,50,51,51,52,52,53,53,54,54,55,55,56,56,58,58,60,60],"right_children":[2,4,6,8,10,12,14,16,18,20,22,24,26,28,30,32,34,36,38,40,42,44,46,48,50,52,54,56,58,60,62,64,66,68,70,72,74,76,78,80,82,84,86,88,90,92,94,96,98,100,102,104,106,108,110,112,114,-1,116,-1,118,-1,-1,-1,-1,-1,-1,-1,-1,-1,-1,-1,-1,-1,-1,-1,-1,-1,-1,-1,-1,-1,-1,-1,-1,-1,-1,-1,-1,-1,-1,-1,-1,-1,-1,-1,-1,-1,-1,-1,-1,-1,-1,-1,-1,-1,-1,-1,-1,-1,-1,-1,-1,-1,-1,-1,-1,-1,-1],"split_conditions":[5.260274E-1,3.030137E-1,7.517808E-1,2.1534246E-1,4.208219E-1,6.4657533E-1,8.416438E-1,1.3205479E-1,6.5534246E-1,4.9714535E-1,4.059574E-1,4.5234957E-1,6.920548E-1,8.021918E-1,8.991781E-1,6.10411E-1,4.860274E-1,7.019178E-1,5.961644E-1,7.1402323E-1,4.2160738E-1,3.383334E-1,6.6136986E-1,3.194095E-1,4.1677645E-1,3.7150684E-1,4.6684933E-1,5.139726E-1,6.1917806E-1,4.8273972E-1,9.282192E-1,4.101948E-1,4.9431437E-1,2.5205478E-1,1.6401152E-1,1.2E-1,2.9911122E-1,5.271233E-1,3.888089E-2,4.562419E-1,2.7178082E-1,5.961644E-1,9.342466E-1,3.644014E-1,7.648829E-1,3.0904108E-1,8.860274E-1,4.5269158E-1,6.882943E-1,5.297659E-1,8.345205E-1,8.366911E-1,5.059289E-1,7.2742474E-1,5.397453E-1,8.496574E-1,6.1808217E-1,1.1187198E-2,8.353096E-1,1.3471196E-2,4.9934125E-1,1.6658003E-2,1.8053407E-2,-1.9304272E-2,-1.6509274E-2,-1.4970719E-2,-9.572966E-3,-1.712885E-2,-1.4959017E-2,-1.5156417E-2,-1.2951883E-2,-1.7515747E-2,-1.3246934E-2,-1.1465385E-2,-8.4645E-3,-1.0744566E-2,-8.832361E-3,-1.634399E-3,-4.1719596E-3,-1.1876613E-2,-9.24292E-3,-8.858538E-3,-5.8652298E-3,-9.360356E-3,-5.8199717E-3,-6.2585673E-3,-7.234169E-4,-1.3414436E-3,7.779992E-4,-7.914423E-3,-5.191861E-3,-3.5423206E-3,2.9955487E-4,-5.7616765E-3,-2.7290059E-3,-1.6539524E-3,1.2827956E-3,5.168311E-4,3.600991E-3,-2.2182132E-3,1.3447161E-3,3.3902097E-3,6.0303225E-3,3.4025721E-3,-1.5361052E-3,4.822727E-3,6.793145E-3,6.248204E-3,2.9768667E-3,6.165596E-3,9.343657E-3,7.823418E-3,4.2676213E-3,1.1448436E-2,6.960366E-3,1.2883059E-2,1.480662E-2,1.3915191E-2,1.5474657E-2],"split_indices":[1,1,1,1,1,1,1,56,51,57,55,52,1,1,1,11,11,11,56,5,2,30,36,40,7,56,56,56,56,51,1,55,53,56,50,56,50,56,5,55,56,56,16,45,13,56,36,50,58,3,56,5,7,13,7,24,36,0,2,0,12,0,0,0,0,0,0,0,0,0,0,0,0,0,0,0,0,0,0,0,0,0,0,0,0,0,0,0,0,0,0,0,0,0,0,0,0,0,0,0,0,0,0,0,0,0,0,0,0,0,0,0,0,0,0,0,0,0,0],"split_type":[0,0,0,0,0,0,0,0,0,0,0,0,0,0,0,0,0,0,0,0,0,0,0,0,0,0,0,0,0,0,0,0,0,0,0,0,0,0,0,0,0,0,0,0,0,0,0,0,0,0,0,0,0,0,0,0,0,0,0,0,0,0,0,0,0,0,0,0,0,0,0,0,0,0,0,0,0,0,0,0,0,0,0,0,0,0,0,0,0,0,0,0,0,0,0,0,0,0,0,0,0,0,0,0,0,0,0,0,0,0,0,0,0,0,0,0,0,0,0],"sum_hessian":[1.4839E4,7.302E3,7.537E3,4.419E3,2.883E3,2.826E3,4.711E3,2.444E3,1.975E3,1.785E3,1.098E3,1.399E3,1.427E3,1.862E3,2.849E3,4.72E2,1.972E3,1.663E3,3.12E2,6.58E2,1.127E3,1.6E2,9.38E2,2.45E2,1.154E3,6.82E2,7.45E2,8.29E2,1.033E3,1.625E3,1.224E3,3.94E2,7.8E1,1.658E3,3.14E2,1.503E3,1.6E2,3.06E2,6E0,4.06E2,2.52E2,2.03E2,9.24E2,1.7E1,1.43E2,5.48E2,3.9E2,1.33E2,1.12E2,1.17E2,1.037E3,7.5E1,6.07E2,9.9E1,6.46E2,6.5E1,7.64E2,1.02E2,9.31E2,1.78E2,1.447E3,7.12E2,5.12E2,3.31E2,6.3E1,7E1,8E0,9.41E2,7.17E2,8.6E1,2.28E2,9.5E1,1.408E3,6.8E1,9.2E1,2.58E2,4.8E1,2E0,4E0,2.65E2,1.41E2,1.69E2,8.3E1,1.72E2,3.1E1,8.94E2,3E1,1.3E1,4E0,1.02E2,4.1E1,2.46E2,3.02E2,2.16E2,1.74E2,1.02E2,3.1E1,9.2E1,2E1,3.2E1,8.5E1,8.9E2,1.47E2,6.5E1,1E1,2.42E2,3.65E2,6.9E1,3E1,1.17E2,5.29E2,4.6E1,1.9E1,7.32E2,3.2E1,7.64E2,1.67E2,1.56E2,1.291E3],"tree_param":{"num_deleted":"0","num_feature":"60","num_nodes":"119","size_leaf_vector":"1"}},{"base_weights":[2.4945944E-4,-2.1406275E-1,2.0675914E-1,-2.763661E-1,-1.0935452E-1,8.998471E-2,2.7321124E-1,-3.0681798E-1,-2.3592329E-1,-1.418523E-1,-6.2255777E-2,4.7155805E-2,1.2745702E-1,2.3030932E-1,3.0628985E-1,-3.308115E-1,-2.919836E-1,-2.4169342E-1,-1.6214958E-1,-1.2153358E-1,-1.8121818E-1,-1.356972E-1,-5.113297E-2,-4.8203445E-3,5.9951514E-2,1.0673237E-1,1.529914E-1,2.0575126E-1,2.4993926E-1,2.9140744E-1,3.3265147E-1,-3.4588873E-1,-2.716156E-1,-3.024203E-1,-2.6200655E-1,-3.3496037E-1,-2.3593761E-1,-1.656881E-1,4.005693E-3,-1.2544541E-1,3.8902145E-3,-2.3563518E-1,-1.6825043E-1,-1.5811364E-1,-9.8315455E-2,-2.6738672E-2,-8.554812E-2,-1.7304255E-2,3.744977E-2,5.2858077E-2,1.14489056E-1,8.2288824E-2,1.2462428E-1,1.8228418E-1,1.3662481E-1,2.1556543E-1,1.5612352E-1,2.4051647E-1,2.631247E-1,1.2273791E-2,2.9350588E-1,1.6008897E-2,1.7110646E-2,-1.8663665E-2,-1.6779477E-2,-1.6393768E-2,-1.3020948E-2,-1.5700936E-2,-1.2971985E-2,-1.3350873E-2,-1.0125688E-2,-8.925022E-3,-1.6973948E-2,-1.2301744E-2,-9.881516E-3,-6.3558617E-3,-8.787655E-3,6.426295E-4,-5.633749E-4,-7.1332934E-3,-5.3751008E-3,8.9817727E-4,-7.1415477E-3,-1.2080384E-2,-7.826364E-3,-9.252075E-3,-6.904328E-3,-8.802039E-3,-4.373151E-3,-1.6077291E-3,-5.423051E-3,-2.391137E-3,1.2332028E-3,-7.2071077E-3,-3.4850885E-3,-1.1144032E-3,2.0078304E-3,2.6487818E-3,-1.5555866E-4,1.9135246E-3,4.7846674E-3,4.341172E-3,7.491226E-3,4.369275E-3,-1.0443846E-3,5.1624565E-3,7.233094E-3,8.334715E-3,1.0742446E-2,6.32447E-3,9.199831E-3,1.043757E-2,1.1917967E-2,3.4183406E-3,8.242534E-3,8.649447E-3,1.2114096E-2,8.509355E-3,1.32180145E-2,1.4266552E-2,1.5188123E-2],"categories":[],"categories_nodes":[],"categories_segments":[],"categories_sizes":[],"default_left":[0,0,0,0,0,0,0,0,0,0,0,0,0,0,0,0,0,0,0,0,0,0,0,0,0,0,0,0,0,0,0,0,0,0,0,0,0,0,0,0,0,0,0,0,0,0,0,0,0,0,0,0,0,0,0,0,0,0,0,0,0,0,0,0,0,0,0,0,0,0,0,0,0,0,0,0,0,0,0,0,0,0,0,0,0,0,0,0,0,0,0,0,0,0,0,0,0,0,0,0,0,0,0,0,0,0,0,0,0,0,0,0,0,0,0,0,0,0,0,0,0],"id":3,"left_children":[1,3,5,7,9,11,13,15,17,19,21,23,25,27,29,31,33,35,37,39,41,43,45,47,49,51,53,55,57,59,61,63,65,67,69,71,73,75,77,79,81,83,85,87,89,91,93,95,97,99,101,103,105,107,109,111,113,115,117,-1,119,-1,-1,-1,-1,-1,-1,-1,-1,-1,-1,-1,-1,-1,-1,-1,-1,-1,-1,-1,-1,-1,-1,-1,-1,-1,-1,-1,-1,-1,-1,-1,-1,-1,-1,-1,-1,-1,-1,-1,-1,-1,-1,-1,-1,-1,-1,-1,-1,-1,-1,-1,-1,-1,-1,-1,-1,-1,-1,-1,-1],"loss_changes":[6.54038E2,4.727945E1,5.8376465E1,5.5262756E0,4.1345177E0,4.3769665E0,6.7356567E0,8.2525635E-1,7.9387665E-1,1.2585564E0,8.973417E-1,8.489206E-1,7.541733E-1,9.5706177E-1,9.642792E-1,7.825012E-1,4.2416382E-1,8.9424133E-1,8.591604E-2,5.2007294E-1,3.4353065E-1,1.0595989E-1,8.0618334E-1,1.341552E-1,3.900919E-1,3.4267998E-1,2.8671932E-1,4.217453E-1,8.0589294E-2,9.538269E-2,5.9890747E-3,9.4436646E-2,4.311943E-2,5.102539E-1,7.20253E-2,1.2221336E-2,6.1318207E-1,3.2785416E-2,6.852979E-4,3.0199814E-1,7.070598E-2,1.0374069E-2,1.9831371E-1,9.732723E-2,3.477311E-2,6.135144E-1,3.60425E-1,5.7024315E-2,3.6689937E-2,5.637133E-1,1.0136831E-1,1.8272042E-1,1.8379831E-1,8.0952644E-2,1.7886162E-1,7.1079254E-2,1.0973644E-1,3.9993286E-2,9.212494E-3,0E0,5.218506E-2,0E0,0E0,0E0,0E0,0E0,0E0,0E0,0E0,0E0,0E0,0E0,0E0,0E0,0E0,0E0,0E0,0E0,0E0,0E0,0E0,0E0,0E0,0E0,0E0,0E0,0E0,0E0,0E0,0E0,0E0,0E0,0E0,0E0,0E0,0E0,0E0,0E0,0E0,0E0,0E0,0E0,0E0,0E0,0E0,0E0,0E0,0E0,0E0,0E0,0E0,0E0,0E0,0E0,0E0,0E0,0E0,0E0,0E0,0E0,0E0],"parents":[2147483647,0,0,1,1,2,2,3,3,4,4,5,5,6,6,7,7,8,8,9,9,10,10,11,11,12,12,13,13,14,14,15,15,16,16,17,17,18,18,19,19,20,20,21,21,22,22,23,23,24,24,25,25,26,26,27,27,28,28,29,29,30,30,31,31,32,32,33,33,34,34,35,35,36,36,37,37,38,38,39,39,40,40,41,41,42,42,43,43,44,44,45,45,46,46,47,47,48,48,49,49,50,50,51,51,52,52,53,53,54,54,55,55,56,56,57,57,58,58,60,60],"right_children":[2,4,6,8,10,12,14,16,18,20,22,24,26,28,30,32,34,36,38,40,42,44,46,48,50,52,54,56,58,60,62,64,66,68,70,72,74,76,78,80,82,84,86,88,90,92,94,96,98,100,102,104,106,108,110,112,114,116,118,-1,120,-1,-1,-1,-1,-1,-1,-1,-1,-1,-1,-1,-1,-1,-1,-1,-1,-1,-1,-1,-1,-1,-1,-1,-1,-1,-1,-1,-1,-1,-1,-1,-1,-1,-1,-1,-1,-1,-1,-1,-1,-1,-1,-1,-1,-1,-1,-1,-1,-1,-1,-1,-1,-1,-1,-1,-1,-1,-1,-1,-1],"split_conditions":[5.260274E-1,3.1342465E-1,7.430137E-1,2.2136986E-1,4.208219E-1,6.3835615E-1,8.460274E-1,1.7369863E-1,5.260274E-1,7.6E-1,2.2246575E-1,6.1176986E-1,6.920548E-1,8.021918E-1,9.079452E-1,3.249315E-1,7.550685E-1,1.23835616E-1,8.7945205E-1,9.194521E-1,2.2246575E-1,1.5506849E-1,6.6136986E-1,4.0164384E-1,8.109589E-1,6.9678026E-1,3.1342465E-1,5.529205E-1,8.290411E-1,3.819178E-1,9.282192E-1,1.1178082E-1,2.4897616E-1,3.479452E-1,8.269717E-1,1.437434E-1,6.5534246E-1,3.083004E-1,4.540643E-1,6.2630135E-1,7.057638E-1,5.4349846E-1,7.1402323E-1,2.8853756E-1,4.742492E-1,6.3724196E-1,8.3178085E-1,3.8427755E-1,5.632107E-1,8.1150687E-1,4.0493152E-1,8.7354535E-1,4.7616437E-1,3.935002E-1,8.9260274E-1,8.6246574E-1,2.470778E-1,5.479452E-1,2.1886337E-1,1.2273791E-2,8.810959E-1,1.6008897E-2,1.7110646E-2,-1.8663665E-2,-1.6779477E-2,-1.6393768E-2,-1.3020948E-2,-1.5700936E-2,-1.2971985E-2,-1.3350873E-2,-1.0125688E-2,-8.925022E-3,-1.6973948E-2,-1.2301744E-2,-9.881516E-3,-6.3558617E-3,-8.787655E-3,6.426295E-4,-5.633749E-4,-7.1332934E-3,-5.3751008E-3,8.9817727E-4,-7.1415477E-3,-1.2080384E-2,-7.826364E-3,-9.252075E-3,-6.904328E-3,-8.802039E-3,-4.373151E-3,-1.6077291E-3,-5.423051E-3,-2.391137E-3,1.2332028E-3,-7.2071077E-3,-3.4850885E-3,-1.1144032E-3,2.0078304E-3,2.6487818E-3,-1.5555866E-4,1.9135246E-3,4.7846674E-3,4.341172E-3,7.491226E-3,4.369275E-3,-1.0443846E-3,5.1624565E-3,7.233094E-3,8.334715E-3,1.0742446E-2,6.32447E-3,9.199831E-3,1.043757E-2,1.1917967E-2,3.4183406E-3,8.242534E-3,8.649447E-3,1.2114096E-2,8.509355E-3,1.32180145E-2,1.4266552E-2,1.5188123E-2],"split_indices":[1,1,1,1,1,1,1,56,6,31,56,57,1,1,1,6,21,56,11,21,56,51,36,56,6,55,31,27,1,51,1,56,55,56,15,55,51,42,0,31,4,55,5,47,30,57,36,42,33,56,31,10,6,27,6,56,19,56,19,0,1,0,0,0,0,0,0,0,0,0,0,0,0,0,0,0,0,0,0,0,0,0,0,0,0,0,0,0,0,0,0,0,0,0,0,0,0,0,0,0,0,0,0,0,0,0,0,0,0,0,0,0,0,0,0,0,0,0,0,0,0],"split_type":[0,0,0,0,0,0,0,0,0,0,0,0,0,0,0,0,0,0,0,0,0,0,0,0,0,0,0,0,0,0,0,0,0,0,0,0,0,0,0,0,0,0,0,0,0,0,0,0,0,0,0,0,0,0,0,0,0,0,0,0,0,0,0,0,0,0,0,0,0,0,0,0,0,0,0,0,0,0,0,0,0,0,0,0,0,0,0,0,0,0,0,0,0,0,0,0,0,0,0,0,0,0,0,0,0,0,0,0,0,0,0,0,0,0,0,0,0,0,0,0,0],"sum_hessian":[1.4776E4,7.251E3,7.525E3,4.545E3,2.706E3,2.73E3,4.795E3,2.589E3,1.956E3,1.6E3,1.106E3,1.275E3,1.455E3,2.091E3,2.704E3,9.81E2,1.608E3,1.812E3,1.44E2,1.058E3,5.42E2,1.44E2,9.62E2,2.52E2,1.023E3,8.06E2,6.49E2,9.34E2,1.157E3,1.736E3,9.68E2,7.78E2,2.03E2,1.186E3,4.22E2,1.02E2,1.71E3,1.41E2,3E0,1.026E3,3.2E1,1.01E2,4.41E2,8.8E1,5.6E1,5.64E2,3.98E2,1.95E2,5.7E1,9.07E2,1.16E2,3.43E2,4.63E2,2.29E2,4.2E2,7.77E2,1.57E2,6.86E2,4.71E2,8.1E1,1.655E3,4.35E2,5.33E2,2.03E2,5.75E2,2.9E1,1.74E2,9.29E2,2.57E2,3.86E2,3.6E1,4E0,9.8E1,1.349E3,3.61E2,3.2E1,1.09E2,2E0,1E0,5.2E2,5.06E2,3E1,2E0,9.2E1,9E0,2.8E2,1.61E2,6.9E1,1.9E1,8E0,4.8E1,4E2,1.64E2,8.3E1,3.15E2,1.8E2,1.5E1,4.1E1,1.6E1,6.78E2,2.29E2,6.7E1,4.9E1,3.27E2,1.6E1,2.27E2,2.36E2,1.59E2,7E1,3.49E2,7.1E1,6.06E2,1.71E2,1.5E1,1.42E2,2E1,6.66E2,8E0,4.63E2,9.37E2,7.18E2],"tree_param":{"num_deleted":"0","num_feature":"60","num_nodes":"121","size_leaf_vector":"1"}},{"base_weights":[-9.3303365E-4,-2.0373528E-1,1.9644508E-1,-2.6262325E-1,-1.0446939E-1,8.515452E-2,2.5970334E-1,-2.918675E-1,-2.2389227E-1,-1.3078448E-1,-5.378618E-2,4.941034E-2,1.2499533E-1,2.1905714E-1,2.9226637E-1,-3.1430757E-1,-2.7831015E-1,-1.6534424E-1,-2.3100895E-1,-1.12730175E-1,-1.7213838E-1,-1.2418419E-1,-4.4516485E-2,-4.6823506E-4,6.2449183E-2,6.279831E-2,1.3283065E-1,1.9971634E-1,2.423881E-1,2.7743596E-1,3.150942E-1,-3.2944697E-1,-2.6231143E-1,-2.8831276E-1,-2.4854526E-1,-1.9921152E-1,-1.2834911E-1,-2.992362E-1,-2.2339249E-1,-1.3046612E-1,-9.369819E-2,-2.2163989E-1,-1.5876062E-1,-8.61673E-2,-1.5547173E-1,-6.826386E-2,-1.3281748E-2,-1.6779479E-2,2.9388834E-2,5.5885017E-2,1.1991316E-1,3.7257887E-2,9.680051E-2,9.7739264E-2,1.4990577E-1,1.3271016E-1,2.0604244E-1,1.002318E-2,2.4514973E-1,2.6170722E-1,2.82922E-1,1.53710265E-2,1.6481973E-2,-1.7137129E-2,-1.5413622E-2,-1.0913905E-2,-1.3546846E-2,-1.4902751E-2,-1.2135957E-2,-1.2766922E-2,-1.0265571E-2,-1.0862922E-2,-8.133029E-3,-6.60993E-3,1.9126051E-4,-1.2780286E-2,-1.5623736E-2,-1.1601272E-2,-9.358539E-3,-7.7679763E-3,-5.786118E-3,-5.181381E-3,-8.0224127E-4,-1.1443806E-2,-6.21096E-3,-8.615116E-3,-6.4380257E-3,1.1951551E-4,-5.015517E-3,-6.654695E-4,-8.149202E-3,-4.154047E-3,-1.7291186E-3,-1.7924904E-3,1.2814548E-3,-1.2580157E-3,2.673038E-3,7.0216326E-4,3.9273375E-3,2.1415928E-3,5.0035375E-3,-2.2017157E-3,6.3080797E-3,8.321881E-4,3.3115551E-3,3.2351788E-3,6.066512E-3,3.191514E-3,5.210539E-3,6.223036E-3,8.696492E-3,2.843716E-3,7.2426223E-3,1.0447227E-2,6.086454E-3,1.1077835E-2,1.2533354E-2,3.5214887E-3,1.309938E-2,1.3744955E-2,1.4811349E-2],"categories":[],"categories_nodes":[],"categories_segments":[],"categories_sizes":[],"default_left":[0,0,0,0,0,0,0,0,0,0,0,0,0,0,0,0,0,0,0,0,0,0,0,0,0,0,0,0,0,0,0,0,0,0,0,0,0,0,0,0,0,0,0,0,0,0,0,0,0,0,0,0,0,0,0,0,0,0,0,0,0,0,0,0,0,0,0,0,0,0,0,0,0,0,0,0,0,0,0,0,0,0,0,0,0,0,0,0,0,0,0,0,0,0,0,0,0,0,0,0,0,0,0,0,0,0,0,0,0,0,0,0,0,0,0,0,0,0,0,0,0],"id":4,"left_children":[1,3,5,7,9,11,13,15,17,19,21,23,25,27,29,31,33,35,37,39,41,43,45,47,49,51,53,55,57,59,61,63,65,67,69,71,73,75,77,79,81,83,85,87,89,91,93,95,97,99,101,103,105,107,109,111,113,-1,115,117,119,-1,-1,-1,-1,-1,-1,-1,-1,-1,-1,-1,-1,-1,-1,-1,-1,-1,-1,-1,-1,-1,-1,-1,-1,-1,-1,-1,-1,-1,-1,-1,-1,-1,-1,-1,-1,-1,-1,-1,-1,-1,-1,-1,-1,-1,-1,-1,-1,-1,-1,-1,-1,-1,-1,-1,-1,-1,-1,-1,-1],"loss_changes":[5.93586E2,4.272705E1,5.288385E1,5.1335754E0,3.62739E0,3.8744316E0,6.2771606E0,7.071686E-1,7.863922E-1,1.3192768E0,6.03318E-1,9.352455E-1,6.193466E-1,9.149933E-1,8.12088E-1,6.8188477E-1,4.157257E-1,2.475686E-1,8.4877014E-1,4.100504E-1,3.2439804E-1,1.150645E-1,6.1177313E-1,1.461079E-1,4.233098E-1,1.2318432E-1,6.702194E-1,4.6987534E-1,6.2351227E-2,6.56662E-2,1.4633179E-2,1.06048584E-1,2.6316643E-2,4.691162E-1,7.063484E-2,3.8538933E-2,5.4947972E-2,2.0632744E-2,4.5345306E-1,2.1875095E-1,4.6636724E-1,5.1229477E-2,1.5290833E-1,6.411591E-2,5.977297E-2,2.3118663E-1,3.1529373E-1,1.1554744E-1,7.8858696E-2,5.868962E-1,1.243875E-1,4.9664557E-2,4.096389E-2,7.607794E-2,4.4721603E-1,8.752692E-2,2.3638153E-1,0E0,6.1489105E-2,4.7187805E-3,4.537964E-2,0E0,0E0,0E0,0E0,0E0,0E0,0E0,0E0,0E0,0E0,0E0,0E0,0E0,0E0,0E0,0E0,0E0,0E0,0E0,0E0,0E0,0E0,0E0,0E0,0E0,0E0,0E0,0E0,0E0,0E0,0E0,0E0,0E0,0E0,0E0,0E0,0E0,0E0,0E0,0E0,0E0,0E0,0E0,0E0,0E0,0E0,0E0,0E0,0E0,0E0,0E0,0E0,0E0,0E0,0E0,0E0,0E0,0E0,0E0,0E0],"parents":[2147483647,0,0,1,1,2,2,3,3,4,4,5,5,6,6,7,7,8,8,9,9,10,10,11,11,12,12,13,13,14,14,15,15,16,16,17,17,18,18,19,19,20,20,21,21,22,22,23,23,24,24,25,25,26,26,27,27,28,28,29,29,30,30,31,31,32,32,33,33,34,34,35,35,36,36,37,37,38,38,39,39,40,40,41,41,42,42,43,43,44,44,45,45,46,46,47,47,48,48,49,49,50,50,51,51,52,52,53,53,54,54,55,55,56,56,58,58,59,59,60,60],"right_children":[2,4,6,8,10,12,14,16,18,20,22,24,26,28,30,32,34,36,38,40,42,44,46,48,50,52,54,56,58,60,62,64,66,68,70,72,74,76,78,80,82,84,86,88,90,92,94,96,98,100,102,104,106,108,110,112,114,-1,116,118,120,-1,-1,-1,-1,-1,-1,-1,-1,-1,-1,-1,-1,-1,-1,-1,-1,-1,-1,-1,-1,-1,-1,-1,-1,-1,-1,-1,-1,-1,-1,-1,-1,-1,-1,-1,-1,-1,-1,-1,-1,-1,-1,-1,-1,-1,-1,-1,-1,-1,-1,-1,-1,-1,-1,-1,-1,-1,-1,-1,-1],"split_conditions":[5.260274E-1,3.1342465E-1,7.430137E-1,2.2136986E-1,4.350685E-1,6.4931506E-1,8.4821916E-1,1.7369863E-1,6.893151E-1,7.819178E-1,2.1589041E-1,4.6640316E-1,4.1095892E-1,8.109589E-1,9.052055E-1,3.0904108E-1,7.550685E-1,3.9580813E-1,1.5506849E-1,6.328767E-1,2.2246575E-1,7.06339E-1,5.727529E-1,3.419333E-1,8.991781E-1,8.438356E-1,5.3052264E-1,5.210959E-1,3.8630137E-1,7.3958784E-1,9.375343E-1,4.0931508E-1,1.04362786E-1,3.5780823E-1,5.5248135E-1,5.03426E-1,8.7945205E-1,7.39726E-1,6.10411E-1,3.572603E-1,6.2958485E-1,5.603588E-1,7.2164387E-1,8.2386136E-1,8.0383563E-1,6.942466E-1,5.294596E-1,4.2849314E-1,6.882943E-1,8.1972605E-1,1.9835617E-1,3.7150684E-1,1.528767E-1,4.554238E-1,6.7553407E-1,4.0300046E-3,7.39726E-1,1.002318E-2,4.675534E-1,5.951362E-1,8.984281E-1,1.53710265E-2,1.6481973E-2,-1.7137129E-2,-1.5413622E-2,-1.0913905E-2,-1.3546846E-2,-1.4902751E-2,-1.2135957E-2,-1.2766922E-2,-1.0265571E-2,-1.0862922E-2,-8.133029E-3,-6.60993E-3,1.9126051E-4,-1.2780286E-2,-1.5623736E-2,-1.1601272E-2,-9.358539E-3,-7.7679763E-3,-5.786118E-3,-5.181381E-3,-8.0224127E-4,-1.1443806E-2,-6.21096E-3,-8.615116E-3,-6.4380257E-3,1.1951551E-4,-5.015517E-3,-6.654695E-4,-8.149202E-3,-4.154047E-3,-1.7291186E-3,-1.7924904E-3,1.2814548E-3,-1.2580157E-3,2.673038E-3,7.0216326E-4,3.9273375E-3,2.1415928E-3,5.0035375E-3,-2.2017157E-3,6.3080797E-3,8.321881E-4,3.3115551E-3,3.2351788E-3,6.066512E-3,3.191514E-3,5.210539E-3,6.223036E-3,8.696492E-3,2.843716E-3,7.2426223E-3,1.0447227E-2,6.086454E-3,1.1077835E-2,1.2533354E-2,3.5214887E-3,1.309938E-2,1.3744955E-2,1.4811349E-2],"split_indices":[1,1,1,1,1,1,1,56,31,31,56,52,56,1,1,6,21,4,56,31,56,0,4,40,11,6,7,56,51,55,1,11,40,56,2,59,11,16,11,1,4,55,11,24,16,56,50,56,58,56,56,56,46,7,59,40,41,0,14,55,59,0,0,0,0,0,0,0,0,0,0,0,0,0,0,0,0,0,0,0,0,0,0,0,0,0,0,0,0,0,0,0,0,0,0,0,0,0,0,0,0,0,0,0,0,0,0,0,0,0,0,0,0,0,0,0,0,0,0,0,0],"split_type":[0,0,0,0,0,0,0,0,0,0,0,0,0,0,0,0,0,0,0,0,0,0,0,0,0,0,0,0,0,0,0,0,0,0,0,0,0,0,0,0,0,0,0,0,0,0,0,0,0,0,0,0,0,0,0,0,0,0,0,0,0,0,0,0,0,0,0,0,0,0,0,0,0,0,0,0,0,0,0,0,0,0,0,0,0,0,0,0,0,0,0,0,0,0,0,0,0,0,0,0,0,0,0,0,0,0,0,0,0,0,0,0,0,0,0,0,0,0,0,0,0],"sum_hessian":[1.4827E4,7.313E3,7.514E3,4.589E3,2.724E3,2.724E3,4.79E3,2.611E3,1.978E3,1.792E3,9.32E2,1.437E3,1.287E3,2.134E3,2.656E3,9.75E2,1.636E3,2.17E2,1.761E3,1.25E3,5.42E2,1.07E2,8.25E2,2.98E2,1.139E3,1.45E2,1.142E3,1.172E3,9.62E2,1.618E3,1.038E3,7.51E2,2.24E2,1.218E3,4.18E2,1.11E2,1.06E2,1.73E2,1.588E3,6.44E2,6.06E2,1.12E2,4.3E2,5E1,5.7E1,4.68E2,3.57E2,1.93E2,1.05E2,1.024E3,1.15E2,8.4E1,6.1E1,3.76E2,7.66E2,1.03E2,1.069E3,6.4E1,8.98E2,4.31E2,1.187E3,6.94E2,3.44E2,4.52E2,2.99E2,4.1E1,1.83E2,9.99E2,2.19E2,3.57E2,6.1E1,7.1E1,4E1,1.03E2,3E0,4.5E1,1.28E2,1.278E3,3.1E2,2.36E2,4.08E2,5.37E2,6.9E1,1.03E2,9E0,2.93E2,1.37E2,7E0,4.3E1,3E0,5.4E1,3.24E2,1.44E2,2.26E2,1.31E2,1.73E2,2E1,8.1E1,2.4E1,7.92E2,2.32E2,4E0,1.11E2,5E1,3.4E1,2.8E1,3.3E1,6.2E1,3.14E2,3.75E2,3.91E2,1.5E1,8.8E1,1.032E3,3.7E1,1.78E2,7.2E2,1E0,4.3E2,7.54E2,4.33E2],"tree_param":{"num_deleted":"0","num_feature":"60","num_nodes":"121","size_leaf_vector":"1"}},{"base_weights":[9.7617245E-4,-1.9963083E-1,1.7141545E-1,-2.395993E-1,-9.267363E-2,5.8231696E-2,2.3959085E-1,-2.5648287E-1,-1.5811403E-1,-1.19982325E-1,-8.252163E-3,-5.4428708E-2,9.780122E-2,1.0577764E-1,2.532919E-1,-2.961309E-1,-2.4155703E-1,-8.771304E-2,-1.8610701E-1,-1.7664823E-1,-1.04652844E-1,3.5304073E-2,-5.3733222E-2,-1.2585436E-1,-2.7642585E-2,1.648829E-1,7.9352506E-2,7.5984165E-2,1.435233E-1,2.2907804E-1,2.8120703E-1,-3.258166E-1,-2.7470747E-1,-2.5171262E-1,-1.9542994E-1,-1.1831741E-1,-3.8467064E-2,-2.3646468E-1,-1.5714867E-1,-2.608305E-1,-1.5971088E-1,6.091748E-3,-1.0882975E-1,-1.2061066E-2,6.079174E-2,-7.409437E-2,-3.4488596E-2,-9.3432575E-2,-1.651421E-1,-3.9325945E-2,4.8816696E-2,1.4926419E-1,1.0651079E-2,6.904726E-2,1.2963581E-1,3.9780248E-2,1.11884415E-1,1.323018E-1,8.649887E-3,1.9490878E-1,2.3572142E-1,2.674428E-1,2.9855937E-1,-1.6440598E-2,-1.2717398E-2,-1.513433E-2,-1.2951109E-2,-1.3166303E-2,-1.038645E-2,-1.0278417E-2,-8.703671E-3,-7.87151E-3,-4.561428E-3,-3.1639845E-3,-2.8246152E-4,-1.3329446E-2,-1.0137815E-2,-8.772667E-3,-6.4926767E-3,-1.4260489E-2,-9.409102E-3,-9.078447E-3,-7.2161215E-3,-2.44587E-3,2.5634614E-3,-5.8614616E-3,-3.769453E-3,-1.1955631E-3,2.2676175E-4,-1.4783766E-3,3.2044377E-3,-4.486404E-3,-2.1672794E-3,-2.2777915E-3,-5.286401E-4,-5.7040825E-3,-3.183179E-3,-9.281871E-3,-5.473492E-3,-3.5356395E-3,-1.3123915E-3,2.8530105E-3,-1.4192852E-3,4.5802905E-3,7.938256E-3,2.749861E-3,5.462616E-3,5.67399E-3,8.591927E-3,-3.6603372E-4,3.42948E-3,2.6065109E-3,6.274279E-3,6.7341253E-3,1.7686272E-3,7.853949E-3,1.039847E-2,1.088277E-2,1.28077315E-2,1.2382823E-2,1.3759936E-2,1.3712621E-2,1.5778525E-2],"categories":[],"categories_nodes":[],"categories_segments":[],"categories_sizes":[],"default_left":[0,0,0,0,0,0,0,0,0,0,0,0,0,0,0,0,0,0,0,0,0,0,0,0,0,0,0,0,0,0,0,0,0,0,0,0,0,0,0,0,0,0,0,0,0,0,0,0,0,0,0,0,0,0,0,0,0,0,0,0,0,0,0,0,0,0,0,0,0,0,0,0,0,0,0,0,0,0,0,0,0,0,0,0,0,0,0,0,0,0,0,0,0,0,0,0,0,0,0,0,0,0,0,0,0,0,0,0,0,0,0,0,0,0,0,0,0,0,0,0,0,0,0],"id":5,"left_children":[1,3,5,7,9,11,13,15,17,19,21,23,25,27,29,31,33,35,37,39,41,43,45,47,49,51,53,55,57,59,61,63,65,67,69,71,73,75,77,79,81,83,85,87,89,91,93,95,97,99,101,103,-1,105,107,109,111,113,-1,115,117,119,121,-1,-1,-1,-1,-1,-1,-1,-1,-1,-1,-1,-1,-1,-1,-1,-1,-1,-1,-1,-1,-1,-1,-1,-1,-1,-1,-1,-1,-1,-1,-1,-1,-1,-1,-1,-1,-1,-1,-1,-1,-1,-1,-1,-1,-1,-1,-1,-1,-1,-1,-1,-1,-1,-1,-1,-1,-1,-1,-1,-1],"loss_changes":[5.0548438E2,2.9008759E1,6.1662827E1,6.7598267E0,4.2617683E0,1.34058275E1,9.118134E0,2.350647E0,1.6607704E0,1.1950283E0,8.992826E-1,1.492656E0,2.7405128E0,5.1202154E-1,2.9934998E0,6.19606E-1,1.3463135E0,3.6319137E-1,8.4947014E-1,3.803873E-1,5.1041603E-1,2.8080988E-1,8.4433675E-2,2.5588536E-1,5.111015E-1,3.283472E-1,8.963127E-1,3.360784E-1,4.458475E-2,5.052109E-1,4.2099E-1,1.5270233E-2,2.0861053E-1,1.190628E0,8.156967E-2,1.4456606E-1,7.700069E-2,1.693449E-1,1.7157269E-1,3.134203E-2,5.7549E-2,1.0440013E-1,2.8946114E-1,1.6235337E-2,4.6880186E-2,4.754752E-2,3.0221432E-2,6.588662E-2,8.807516E-2,2.0133197E-1,4.998754E-2,1.8540573E-1,0E0,8.1420135E-1,1.823206E-1,1.796191E-1,9.992552E-2,3.0311346E-2,0E0,1.6545868E-1,6.928711E-1,1.1277771E-1,2.934494E-1,0E0,0E0,0E0,0E0,0E0,0E0,0E0,0E0,0E0,0E0,0E0,0E0,0E0,0E0,0E0,0E0,0E0,0E0,0E0,0E0,0E0,0E0,0E0,0E0,0E0,0E0,0E0,0E0,0E0,0E0,0E0,0E0,0E0,0E0,0E0,0E0,0E0,0E0,0E0,0E0,0E0,0E0,0E0,0E0,0E0,0E0,0E0,0E0,0E0,0E0,0E0,0E0,0E0,0E0,0E0,0E0,0E0,0E0,0E0,0E0],"parents":[2147483647,0,0,1,1,2,2,3,3,4,4,5,5,6,6,7,7,8,8,9,9,10,10,11,11,12,12,13,13,14,14,15,15,16,16,17,17,18,18,19,19,20,20,21,21,22,22,23,23,24,24,25,25,26,26,27,27,28,28,29,29,30,30,31,31,32,32,33,33,34,34,35,35,36,36,37,37,38,38,39,39,40,40,41,41,42,42,43,43,44,44,45,45,46,46,47,47,48,48,49,49,50,50,51,51,53,53,54,54,55,55,56,56,57,57,59,59,60,60,61,61,62,62],"right_children":[2,4,6,8,10,12,14,16,18,20,22,24,26,28,30,32,34,36,38,40,42,44,46,48,50,52,54,56,58,60,62,64,66,68,70,72,74,76,78,80,82,84,86,88,90,92,94,96,98,100,102,104,-1,106,108,110,112,114,-1,116,118,120,122,-1,-1,-1,-1,-1,-1,-1,-1,-1,-1,-1,-1,-1,-1,-1,-1,-1,-1,-1,-1,-1,-1,-1,-1,-1,-1,-1,-1,-1,-1,-1,-1,-1,-1,-1,-1,-1,-1,-1,-1,-1,-1,-1,-1,-1,-1,-1,-1,-1,-1,-1,-1,-1,-1,-1,-1,-1,-1,-1,-1],"split_conditions":[5.824264E-1,5.1910406E-1,7.70657E-1,6.6136986E-1,6.772603E-1,3.5780823E-1,5.419178E-1,1.7369863E-1,6.157224E-1,4.1062802E-1,7.7260274E-1,2.1972603E-1,4.6640316E-1,4.6191782E-1,8.8754535E-1,4.0931508E-1,3.9232877E-1,3.0215195E-1,1.890411E-1,4.2356163E-1,4.0623626E-1,7.4849313E-1,5.019178E-1,9.2301494E-1,6.7896354E-1,8.2684934E-1,8.515068E-1,3.8630137E-1,8.403869E-1,3.90137E-1,8.860274E-1,5.062033E-1,1.23835616E-1,4.9972603E-1,8.427397E-1,2.2520548E-1,2.9972604E-1,2.041518E-1,2.558904E-1,4.7400242E-1,7.0356166E-1,7.852055E-1,8.345205E-1,7.221918E-1,6.7553407E-1,9.3107617E-1,8.081419E-1,2.1808219E-1,1.4958905E-1,7.120891E-1,8.456117E-1,3.3091494E-1,1.0651079E-2,8.403869E-1,5.397453E-1,1.9886549E-1,8.6094314E-1,8.866221E-1,8.649887E-3,8.49863E-1,8.30137E-1,7.2712326E-1,2.8219178E-1,-1.6440598E-2,-1.2717398E-2,-1.513433E-2,-1.2951109E-2,-1.3166303E-2,-1.038645E-2,-1.0278417E-2,-8.703671E-3,-7.87151E-3,-4.561428E-3,-3.1639845E-3,-2.8246152E-4,-1.3329446E-2,-1.0137815E-2,-8.772667E-3,-6.4926767E-3,-1.4260489E-2,-9.409102E-3,-9.078447E-3,-7.2161215E-3,-2.44587E-3,2.5634614E-3,-5.8614616E-3,-3.769453E-3,-1.1955631E-3,2.2676175E-4,-1.4783766E-3,3.2044377E-3,-4.486404E-3,-2.1672794E-3,-2.2777915E-3,-5.286401E-4,-5.7040825E-3,-3.183179E-3,-9.281871E-3,-5.473492E-3,-3.5356395E-3,-1.3123915E-3,2.8530105E-3,-1.4192852E-3,4.5802905E-3,7.938256E-3,2.749861E-3,5.462616E-3,5.67399E-3,8.591927E-3,-3.6603372E-4,3.42948E-3,2.6065109E-3,6.274279E-3,6.7341253E-3,1.7686272E-3,7.853949E-3,1.039847E-2,1.088277E-2,1.28077315E-2,1.2382823E-2,1.3759936E-2,1.3712621E-2,1.5778525E-2],"split_indices":[4,57,4,11,56,56,56,56,37,2,36,56,27,56,4,11,56,52,51,56,37,56,26,19,57,56,56,31,4,11,56,55,56,11,46,56,56,45,56,19,51,11,51,56,59,39,34,41,51,5,5,14,0,9,7,30,9,8,0,56,56,56,21,0,0,0,0,0,0,0,0,0,0,0,0,0,0,0,0,0,0,0,0,0,0,0,0,0,0,0,0,0,0,0,0,0,0,0,0,0,0,0,0,0,0,0,0,0,0,0,0,0,0,0,0,0,0,0,0,0,0,0,0],"split_type":[0,0,0,0,0,0,0,0,0,0,0,0,0,0,0,0,0,0,0,0,0,0,0,0,0,0,0,0,0,0,0,0,0,0,0,0,0,0,0,0,0,0,0,0,0,0,0,0,0,0,0,0,0,0,0,0,0,0,0,0,0,0,0,0,0,0,0,0,0,0,0,0,0,0,0,0,0,0,0,0,0,0,0,0,0,0,0,0,0,0,0,0,0,0,0,0,0,0,0,0,0,0,0,0,0,0,0,0,0,0,0,0,0,0,0,0,0,0,0,0,0,0,0],"sum_hessian":[1.4782E4,6.79E3,7.992E3,4.942E3,1.848E3,3.005E3,4.987E3,4.092E3,8.5E2,1.396E3,4.52E2,7.81E2,2.224E3,4.64E2,4.523E3,1.114E3,2.978E3,2.43E2,6.07E2,2.95E2,1.101E3,2.31E2,2.21E2,2.12E2,5.69E2,4.78E2,1.746E3,2.61E2,2.03E2,2.427E3,2.096E3,4.61E2,6.53E2,2.437E3,5.41E2,1.49E2,9.4E1,2.19E2,3.88E2,4.7E1,2.48E2,4E1,1.061E3,8.1E1,1.5E2,1.06E2,1.15E2,1.18E2,9.4E1,4.94E2,7.5E1,3.64E2,1.14E2,1.451E3,2.95E2,1.31E2,1.3E2,1.51E2,5.2E1,4E2,2.027E3,1.178E3,9.18E2,4.39E2,2.2E1,2.28E2,4.25E2,1.924E3,5.13E2,3.61E2,1.8E2,5.9E1,9E1,5.3E1,4.1E1,1.12E2,1.07E2,2.29E2,1.59E2,3.3E1,1.4E1,9.8E1,1.5E2,1.8E1,2.2E1,8.46E2,2.15E2,4.7E1,3.4E1,5E0,1.45E2,6.9E1,3.7E1,7.8E1,3.7E1,6.8E1,5E1,6.7E1,2.7E1,1.44E2,3.5E2,6.8E1,7E0,5.3E1,3.11E2,1.077E3,3.74E2,2.16E2,7.9E1,5E1,8.1E1,2.5E1,1.05E2,1.47E2,4E0,1.06E2,2.94E2,1.082E3,9.45E2,3.41E2,8.37E2,3.85E2,5.33E2],"tree_param":{"num_deleted":"0","num_feature":"60","num_nodes":"123","size_leaf_vector":"1"}},{"base_weights":[1.4880623E-4,-1.841883E-1,1.7825039E-1,-2.3738842E-1,-9.349317E-2,8.26014E-2,2.3765473E-1,-2.6227653E-1,-2.0080772E-1,-1.18063435E-1,-4.6471346E-2,5.0894085E-2,1.22214496E-1,2.0497037E-1,2.6690763E-1,-2.8493452E-1,-2.503751E-1,-2.1018064E-1,-1.5978989E-1,-1.0253765E-1,-1.5427262E-1,6.9143437E-3,-5.8079906E-2,-3.7919767E-3,6.198909E-2,1.549751E-1,1.0708426E-1,1.843869E-1,2.2199862E-1,2.5117397E-1,2.816927E-1,-2.9208803E-1,-2.2004911E-1,-2.8782263E-1,-2.4550001E-1,-2.8903553E-1,-2.045984E-1,-9.036874E-2,-1.671696E-1,-1.2033479E-1,-8.437419E-2,-2.0068924E-1,-1.4222355E-1,-1.2225273E-2,6.798826E-2,-1.1672788E-1,-4.977739E-2,-1.981506E-2,2.5485111E-2,3.5129588E-2,7.390487E-2,1.3347907E-1,1.7812705E-1,5.386721E-2,1.15041755E-1,1.2023973E-1,1.8876293E-1,2.1655487E-1,2.463094E-1,1.179195E-2,2.5649974E-1,1.3603076E-2,1.4720142E-2,-1.4939636E-2,-1.3328026E-2,-1.1749412E-2,-7.5392076E-3,-1.2647437E-2,-1.5762841E-2,-1.2575178E-2,-1.1007691E-2,-3.2375038E-3,-1.45340115E-2,-1.0816E-2,-8.935771E-3,9.7321224E-4,-4.870099E-3,-9.053583E-3,-7.0759864E-3,-7.5200404E-4,-6.162229E-3,-4.813641E-3,-1.8242715E-3,-1.0285218E-2,-5.6457086E-3,-1.1126267E-2,-6.853781E-3,-1.7530414E-3,1.3282209E-3,3.922903E-3,3.711181E-4,-4.2781844E-3,-7.746319E-3,-9.338028E-4,-3.6772657E-3,-1.3339943E-3,2.3182244E-3,6.699796E-4,3.7197054E-3,-1.5477029E-3,2.0656986E-3,1.2542526E-3,4.1792984E-3,3.8010504E-3,6.8109035E-3,6.307129E-3,9.188672E-3,3.0562298E-3,-2.63276E-3,5.1225517E-3,7.319757E-3,6.4950134E-3,2.1774792E-3,9.560077E-3,6.012228E-3,9.149681E-3,1.0939398E-2,8.30788E-3,1.2492578E-2,8.86149E-3,1.2864961E-2],"categories":[],"categories_nodes":[],"categories_segments":[],"categories_sizes":[],"default_left":[0,0,0,0,0,0,0,0,0,0,0,0,0,0,0,0,0,0,0,0,0,0,0,0,0,0,0,0,0,0,0,0,0,0,0,0,0,0,0,0,0,0,0,0,0,0,0,0,0,0,0,0,0,0,0,0,0,0,0,0,0,0,0,0,0,0,0,0,0,0,0,0,0,0,0,0,0,0,0,0,0,0,0,0,0,0,0,0,0,0,0,0,0,0,0,0,0,0,0,0,0,0,0,0,0,0,0,0,0,0,0,0,0,0,0,0,0,0,0,0,0],"id":6,"left_children":[1,3,5,7,9,11,13,15,17,19,21,23,25,27,29,31,33,35,37,39,41,43,45,47,49,51,53,55,57,59,61,63,65,67,69,71,73,75,77,79,81,83,85,87,89,91,93,95,97,99,101,103,105,107,109,111,113,115,117,-1,119,-1,-1,-1,-1,-1,-1,-1,-1,-1,-1,-1,-1,-1,-1,-1,-1,-1,-1,-1,-1,-1,-1,-1,-1,-1,-1,-1,-1,-1,-1,-1,-1,-1,-1,-1,-1,-1,-1,-1,-1,-1,-1,-1,-1,-1,-1,-1,-1,-1,-1,-1,-1,-1,-1,-1,-1,-1,-1,-1,-1],"loss_changes":[4.8852127E2,3.5258133E1,4.298149E1,4.142578E0,3.1197033E0,3.6375084E0,4.4084167E0,6.672516E-1,6.853485E-1,9.826088E-1,5.7675123E-1,9.789095E-1,6.223297E-1,7.3332214E-1,5.015106E-1,3.7017822E-1,2.5867462E-1,6.095123E-1,1.6522598E-1,3.926258E-1,2.6843262E-1,1.960427E-1,3.6620092E-1,1.285718E-1,4.2659378E-1,1.7778206E-1,3.68577E-1,2.5970078E-1,1.0599899E-1,3.7590027E-2,7.4150085E-2,6.413269E-2,6.493902E-2,1.1351776E-1,1.8856049E-1,1.7328262E-2,3.9275742E-1,2.9705197E-2,8.741188E-2,1.9024944E-1,3.4977007E-1,2.387476E-2,1.4518738E-1,1.1431173E-1,2.4782166E-2,9.86439E-2,4.9463904E-1,8.165007E-2,5.6338944E-2,1.7047513E-1,4.3650293E-1,2.3323298E-2,3.317547E-2,9.366819E-2,2.8857327E-1,4.3980956E-2,1.3407135E-1,3.4305573E-2,1.8957138E-2,0E0,1.0166168E-2,0E0,0E0,0E0,0E0,0E0,0E0,0E0,0E0,0E0,0E0,0E0,0E0,0E0,0E0,0E0,0E0,0E0,0E0,0E0,0E0,0E0,0E0,0E0,0E0,0E0,0E0,0E0,0E0,0E0,0E0,0E0,0E0,0E0,0E0,0E0,0E0,0E0,0E0,0E0,0E0,0E0,0E0,0E0,0E0,0E0,0E0,0E0,0E0,0E0,0E0,0E0,0E0,0E0,0E0,0E0,0E0,0E0,0E0,0E0,0E0],"parents":[2147483647,0,0,1,1,2,2,3,3,4,4,5,5,6,6,7,7,8,8,9,9,10,10,11,11,12,12,13,13,14,14,15,15,16,16,17,17,18,18,19,19,20,20,21,21,22,22,23,23,24,24,25,25,26,26,27,27,28,28,29,29,30,30,31,31,32,32,33,33,34,34,35,35,36,36,37,37,38,38,39,39,40,40,41,41,42,42,43,43,44,44,45,45,46,46,47,47,48,48,49,49,50,50,51,51,52,52,53,53,54,54,55,55,56,56,57,57,58,58,60,60],"right_children":[2,4,6,8,10,12,14,16,18,20,22,24,26,28,30,32,34,36,38,40,42,44,46,48,50,52,54,56,58,60,62,64,66,68,70,72,74,76,78,80,82,84,86,88,90,92,94,96,98,100,102,104,106,108,110,112,114,116,118,-1,120,-1,-1,-1,-1,-1,-1,-1,-1,-1,-1,-1,-1,-1,-1,-1,-1,-1,-1,-1,-1,-1,-1,-1,-1,-1,-1,-1,-1,-1,-1,-1,-1,-1,-1,-1,-1,-1,-1,-1,-1,-1,-1,-1,-1,-1,-1,-1,-1,-1,-1,-1,-1,-1,-1,-1,-1,-1,-1,-1,-1],"split_conditions":[5.260274E-1,3.1342465E-1,7.550685E-1,2.2684932E-1,4.350685E-1,6.6136986E-1,8.569863E-1,1.4630137E-1,4.9714535E-1,7.819178E-1,4.7726026E-1,4.5937636E-1,3.1342465E-1,8.109589E-1,8.991781E-1,5.7004833E-1,1.3205479E-1,1.2E-1,3.083004E-1,6.328767E-1,2.2246575E-1,7.4027395E-1,2.0657535E-1,3.419333E-1,4.5505846E-1,7.1585417E-1,4.1095892E-1,6.13437E-1,8.8956064E-1,7.3958784E-1,9.282192E-1,2.2246575E-1,5.1374453E-1,5.3184015E-1,7.0194465E-1,6.368028E-1,5.539726E-1,7.7646023E-1,4.5293775E-1,4.4400528E-1,7.649315E-1,5.603588E-1,2.753623E-1,6.701801E-1,6.6338074E-1,7.1870327E-1,5.114873E-1,4.2849314E-1,6.882943E-1,3.7110233E-1,1.3205479E-1,4.8821917E-1,5.271233E-1,7.262228E-1,8.334246E-1,3.3260274E-1,7.39726E-1,6.1205477E-1,2.8219178E-1,1.179195E-2,5.191455E-1,1.3603076E-2,1.4720142E-2,-1.4939636E-2,-1.3328026E-2,-1.1749412E-2,-7.5392076E-3,-1.2647437E-2,-1.5762841E-2,-1.2575178E-2,-1.1007691E-2,-3.2375038E-3,-1.45340115E-2,-1.0816E-2,-8.935771E-3,9.7321224E-4,-4.870099E-3,-9.053583E-3,-7.0759864E-3,-7.5200404E-4,-6.162229E-3,-4.813641E-3,-1.8242715E-3,-1.0285218E-2,-5.6457086E-3,-1.1126267E-2,-6.853781E-3,-1.7530414E-3,1.3282209E-3,3.922903E-3,3.711181E-4,-4.2781844E-3,-7.746319E-3,-9.338028E-4,-3.6772657E-3,-1.3339943E-3,2.3182244E-3,6.699796E-4,3.7197054E-3,-1.5477029E-3,2.0656986E-3,1.2542526E-3,4.1792984E-3,3.8010504E-3,6.8109035E-3,6.307129E-3,9.188672E-3,3.0562298E-3,-2.63276E-3,5.1225517E-3,7.319757E-3,6.4950134E-3,2.1774792E-3,9.560077E-3,6.012228E-3,9.149681E-3,1.0939398E-2,8.30788E-3,1.2492578E-2,8.86149E-3,1.2864961E-2],"split_indices":[1,1,1,1,1,1,1,1,57,31,31,52,31,1,1,2,56,56,42,31,56,56,56,40,9,2,56,55,4,55,1,56,40,42,10,22,11,12,55,27,11,55,7,22,0,0,39,56,58,7,46,56,56,30,21,36,41,56,16,0,54,0,0,0,0,0,0,0,0,0,0,0,0,0,0,0,0,0,0,0,0,0,0,0,0,0,0,0,0,0,0,0,0,0,0,0,0,0,0,0,0,0,0,0,0,0,0,0,0,0,0,0,0,0,0,0,0,0,0,0,0],"split_type":[0,0,0,0,0,0,0,0,0,0,0,0,0,0,0,0,0,0,0,0,0,0,0,0,0,0,0,0,0,0,0,0,0,0,0,0,0,0,0,0,0,0,0,0,0,0,0,0,0,0,0,0,0,0,0,0,0,0,0,0,0,0,0,0,0,0,0,0,0,0,0,0,0,0,0,0,0,0,0,0,0,0,0,0,0,0,0,0,0,0,0,0,0,0,0,0,0,0,0,0,0,0,0,0,0,0,0,0,0,0,0,0,0,0,0,0,0,0,0,0,0],"sum_hessian":[1.4878E4,7.311E3,7.567E3,4.607E3,2.704E3,2.9E3,4.667E3,2.738E3,1.869E3,1.775E3,9.29E2,1.612E3,1.288E3,2.208E3,2.459E3,9.35E2,1.803E3,1.518E3,3.51E2,1.245E3,5.3E2,1.66E2,7.63E2,2.72E2,1.34E3,4.04E2,8.84E2,1.005E3,1.203E3,1.2E3,1.259E3,8.39E2,9.6E1,2.01E2,1.602E3,9.7E1,1.421E3,3.5E1,3.16E2,6.26E2,6.19E2,1.06E2,4.24E2,1.27E2,3.9E1,9.3E1,6.7E2,1.76E2,9.6E1,4.13E2,9.27E2,2.13E2,1.91E2,1.16E2,7.68E2,6.6E1,9.39E2,9.91E2,2.12E2,3.21E2,8.79E2,7.29E2,5.3E2,6.56E2,1.83E2,7.7E1,1.9E1,9.3E1,1.08E2,1.288E3,3.14E2,1E0,9.6E1,9.73E2,4.48E2,2E0,3.3E1,2.01E2,1.15E2,1.7E1,6.09E2,4.95E2,1.24E2,9.9E1,7E0,2.3E1,4.01E2,8E1,4.7E1,3.3E1,6E0,5.3E1,4E1,2.91E2,3.79E2,1.6E2,1.6E1,7.8E1,1.8E1,3.5E1,3.78E2,1.54E2,7.73E2,1.1E1,2.02E2,2.1E1,1.7E2,1.09E2,7E0,5.51E2,2.17E2,5.8E1,8E0,9.05E2,3.4E1,6.7E1,9.24E2,1.1E1,2.01E2,1.1E1,8.68E2],"tree_param":{"num_deleted":"0","num_feature":"60","num_nodes":"121","size_leaf_vector":"1"}},{"base_weights":[-2.4259204E-4,-1.7537533E-1,1.6895743E-1,-2.2906922E-1,-9.346376E-2,7.786247E-2,2.2565562E-1,-2.5437224E-1,-1.9861592E-1,-1.2742901E-1,-6.2139593E-2,4.584499E-2,1.15041435E-1,1.9083616E-1,2.5148138E-1,-2.87142E-1,-2.472458E-1,-2.1484447E-1,-1.8083856E-1,-1.0484756E-1,-1.5455419E-1,-1.557314E-3,-7.095881E-2,1.8738466E-3,5.6022976E-2,1.4748597E-1,1.0089332E-1,1.7393401E-1,2.0815186E-1,2.392258E-1,2.7175665E-1,-2.9700434E-1,-2.0822044E-1,-2.5888032E-1,-2.2454207E-1,-2.2056703E-1,-1.8526003E-1,-2.5993124E-1,-1.7627905E-1,-1.220165E-1,-8.130809E-2,-2.1556118E-1,-1.4384839E-1,-1.8212352E-2,6.3821614E-2,-1.3102983E-1,-6.437133E-2,-1.5429848E-2,2.7520224E-2,1.7223094E-2,6.506827E-2,1.3223113E-1,1.7478587E-1,7.8887E-2,1.16993524E-1,1.270735E-1,1.7991233E-1,1.6815993E-1,2.1107876E-1,2.2446145E-1,2.4430162E-1,1.3234094E-2,2.848808E-1,-1.3978841E-2,-1.5565007E-2,-8.353589E-3,-1.1402558E-2,-1.3435057E-2,-1.0697328E-2,-1.1714375E-2,-9.814178E-3,-1.1374651E-2,-9.400862E-3,-9.346492E-3,-3.3780653E-3,-1.3370472E-2,-2.6818137E-3,-9.2063015E-3,-7.1202056E-3,-7.2290585E-3,-5.3540305E-3,-4.838063E-3,-2.1191228E-3,-1.0884679E-2,-4.0223156E-3,-1.1761105E-2,-6.96332E-3,-2.186015E-3,7.5908663E-4,3.9331983E-3,6.4561935E-4,-7.423387E-3,-4.2064684E-3,-1.4352571E-3,-4.1974983E-3,-1.9313369E-3,2.0308106E-4,8.622735E-4,4.182206E-3,-1.9342458E-3,1.5555196E-3,2.8514857E-3,5.0034053E-3,4.8802895E-3,6.9673206E-3,5.421751E-3,9.005873E-3,2.909485E-3,5.234611E-3,4.470429E-3,6.679546E-3,2.4597663E-3,6.775267E-3,9.134223E-3,5.6548524E-3,8.586465E-3,4.3349178E-3,9.388576E-3,1.0836654E-2,9.6704755E-3,1.1492859E-2,8.654427E-3,1.2261049E-2,1.2911505E-2,1.4704679E-2],"categories":[],"categories_nodes":[],"categories_segments":[],"categories_sizes":[],"default_left":[0,0,0,0,0,0,0,0,0,0,0,0,0,0,0,0,0,0,0,0,0,0,0,0,0,0,0,0,0,0,0,0,0,0,0,0,0,0,0,0,0,0,0,0,0,0,0,0,0,0,0,0,0,0,0,0,0,0,0,0,0,0,0,0,0,0,0,0,0,0,0,0,0,0,0,0,0,0,0,0,0,0,0,0,0,0,0,0,0,0,0,0,0,0,0,0,0,0,0,0,0,0,0,0,0,0,0,0,0,0,0,0,0,0,0,0,0,0,0,0,0,0,0,0,0],"id":7,"left_children":[1,3,5,7,9,11,13,15,17,19,21,23,25,27,29,31,33,35,37,39,41,43,45,47,49,51,53,55,57,59,61,63,65,67,69,71,73,75,77,79,81,83,85,87,89,91,93,95,97,99,101,103,105,107,109,111,113,115,117,119,121,-1,123,-1,-1,-1,-1,-1,-1,-1,-1,-1,-1,-1,-1,-1,-1,-1,-1,-1,-1,-1,-1,-1,-1,-1,-1,-1,-1,-1,-1,-1,-1,-1,-1,-1,-1,-1,-1,-1,-1,-1,-1,-1,-1,-1,-1,-1,-1,-1,-1,-1,-1,-1,-1,-1,-1,-1,-1,-1,-1,-1,-1,-1,-1],"loss_changes":[4.3684174E2,3.183879E1,3.8708984E1,3.320694E0,3.0455666E0,3.4206295E0,4.1074066E0,4.8620605E-1,5.3526306E-1,8.2663155E-1,7.9865074E-1,6.926832E-1,5.960884E-1,5.4093933E-1,5.9347534E-1,2.6506424E-1,4.614563E-1,1.3436127E-1,2.9893494E-1,2.9480743E-1,3.7589264E-1,2.0914006E-1,5.079751E-1,1.3000755E-1,4.400313E-1,1.4430332E-1,3.202753E-1,2.584076E-1,7.793045E-2,6.957245E-2,1.6609192E-2,5.4016113E-3,2.6996136E-3,5.1353455E-1,1.3962555E-1,1.5155411E-1,2.1567345E-2,6.279278E-2,2.1487427E-1,1.3078594E-1,1.8898821E-1,8.706093E-3,1.903944E-1,1.3099137E-1,2.8453156E-2,9.219384E-2,8.2018185E-1,7.9281636E-2,6.6603325E-2,1.8676579E-1,2.809863E-1,5.0947666E-2,3.0348778E-2,2.0541096E-1,2.329998E-1,7.0162654E-2,1.4381409E-1,5.755663E-3,7.777786E-2,2.8762817E-2,3.769684E-2,0E0,6.0596466E-3,0E0,0E0,0E0,0E0,0E0,0E0,0E0,0E0,0E0,0E0,0E0,0E0,0E0,0E0,0E0,0E0,0E0,0E0,0E0,0E0,0E0,0E0,0E0,0E0,0E0,0E0,0E0,0E0,0E0,0E0,0E0,0E0,0E0,0E0,0E0,0E0,0E0,0E0,0E0,0E0,0E0,0E0,0E0,0E0,0E0,0E0,0E0,0E0,0E0,0E0,0E0,0E0,0E0,0E0,0E0,0E0,0E0,0E0,0E0,0E0,0E0,0E0],"parents":[2147483647,0,0,1,1,2,2,3,3,4,4,5,5,6,6,7,7,8,8,9,9,10,10,11,11,12,12,13,13,14,14,15,15,16,16,17,17,18,18,19,19,20,20,21,21,22,22,23,23,24,24,25,25,26,26,27,27,28,28,29,29,30,30,31,31,32,32,33,33,34,34,35,35,36,36,37,37,38,38,39,39,40,40,41,41,42,42,43,43,44,44,45,45,46,46,47,47,48,48,49,49,50,50,51,51,52,52,53,53,54,54,55,55,56,56,57,57,58,58,59,59,60,60,62,62],"right_children":[2,4,6,8,10,12,14,16,18,20,22,24,26,28,30,32,34,36,38,40,42,44,46,48,50,52,54,56,58,60,62,64,66,68,70,72,74,76,78,80,82,84,86,88,90,92,94,96,98,100,102,104,106,108,110,112,114,116,118,120,122,-1,124,-1,-1,-1,-1,-1,-1,-1,-1,-1,-1,-1,-1,-1,-1,-1,-1,-1,-1,-1,-1,-1,-1,-1,-1,-1,-1,-1,-1,-1,-1,-1,-1,-1,-1,-1,-1,-1,-1,-1,-1,-1,-1,-1,-1,-1,-1,-1,-1,-1,-1,-1,-1,-1,-1,-1,-1,-1,-1,-1,-1,-1,-1],"split_conditions":[5.260274E-1,3.030137E-1,7.550685E-1,2.1205479E-1,3.90137E-1,6.569863E-1,8.4821916E-1,1.2712328E-1,2.558904E-1,7.315068E-1,4.6630138E-1,3.043478E-1,3.2164383E-1,8.109589E-1,9.079452E-1,3.6657533E-1,2.1972603E-1,3.7917808E-1,1.1178082E-1,6.290411E-1,1.9671233E-1,7.4027395E-1,1.9835617E-1,3.747945E-1,3.539726E-1,7.6811594E-1,6.9678026E-1,5.550685E-1,3.8630137E-1,7.3958784E-1,9.221918E-1,5.7591975E-1,1.04362786E-1,3.3260274E-1,5.7643837E-1,6.257534E-1,5.320548E-1,9.121651E-1,4.350685E-1,3.6495388E-1,6.230769E-1,5.8246726E-1,1.9835617E-1,7.430137E-1,8.03702E-1,3.266775E-1,5.114873E-1,2.8901914E-1,7.950685E-1,5.438127E-1,8.30137E-1,6.832877E-1,3.7041515E-1,8.460274E-1,5.397453E-1,4.0300046E-3,7.39726E-1,5.320995E-1,4.675534E-1,4.8273972E-1,5.388956E-1,1.3234094E-2,4.8488513E-1,-1.3978841E-2,-1.5565007E-2,-8.353589E-3,-1.1402558E-2,-1.3435057E-2,-1.0697328E-2,-1.1714375E-2,-9.814178E-3,-1.1374651E-2,-9.400862E-3,-9.346492E-3,-3.3780653E-3,-1.3370472E-2,-2.6818137E-3,-9.2063015E-3,-7.1202056E-3,-7.2290585E-3,-5.3540305E-3,-4.838063E-3,-2.1191228E-3,-1.0884679E-2,-4.0223156E-3,-1.1761105E-2,-6.96332E-3,-2.186015E-3,7.5908663E-4,3.9331983E-3,6.4561935E-4,-7.423387E-3,-4.2064684E-3,-1.4352571E-3,-4.1974983E-3,-1.9313369E-3,2.0308106E-4,8.622735E-4,4.182206E-3,-1.9342458E-3,1.5555196E-3,2.8514857E-3,5.0034053E-3,4.8802895E-3,6.9673206E-3,5.421751E-3,9.005873E-3,2.909485E-3,5.234611E-3,4.470429E-3,6.679546E-3,2.4597663E-3,6.775267E-3,9.134223E-3,5.6548524E-3,8.586465E-3,4.3349178E-3,9.388576E-3,1.0836654E-2,9.6704755E-3,1.1492859E-2,8.654427E-3,1.2261049E-2,1.2911505E-2,1.4704679E-2],"split_indices":[1,1,1,1,1,1,1,56,1,31,31,47,31,1,1,6,6,56,56,31,56,56,56,56,6,57,55,56,51,55,56,43,40,56,11,11,56,12,6,17,3,55,6,11,55,40,39,40,6,3,56,1,14,6,7,40,41,45,14,51,54,0,19,0,0,0,0,0,0,0,0,0,0,0,0,0,0,0,0,0,0,0,0,0,0,0,0,0,0,0,0,0,0,0,0,0,0,0,0,0,0,0,0,0,0,0,0,0,0,0,0,0,0,0,0,0,0,0,0,0,0,0,0,0,0],"split_type":[0,0,0,0,0,0,0,0,0,0,0,0,0,0,0,0,0,0,0,0,0,0,0,0,0,0,0,0,0,0,0,0,0,0,0,0,0,0,0,0,0,0,0,0,0,0,0,0,0,0,0,0,0,0,0,0,0,0,0,0,0,0,0,0,0,0,0,0,0,0,0,0,0,0,0,0,0,0,0,0,0,0,0,0,0,0,0,0,0,0,0,0,0,0,0,0,0,0,0,0,0,0,0,0,0,0,0,0,0,0,0,0,0,0,0,0,0,0,0,0,0,0,0,0,0],"sum_hessian":[1.474E4,7.243E3,7.497E3,4.374E3,2.869E3,2.877E3,4.62E3,2.385E3,1.989E3,1.375E3,1.494E3,1.547E3,1.33E3,1.971E3,2.649E3,4.19E2,1.966E3,1.034E3,9.55E2,7.53E2,6.22E2,1.9E2,1.304E3,2.91E2,1.256E3,4.01E2,9.29E2,1.003E3,9.68E2,1.659E3,9.9E2,3.7E2,4.9E1,1.293E3,6.73E2,8.61E2,1.73E2,4.9E1,9.06E2,4.33E2,3.2E2,9E1,5.32E2,1.52E2,3.8E1,1.27E2,1.177E3,1.74E2,1.17E2,2.38E2,1.018E3,2.61E2,1.4E2,3.95E2,5.34E2,1.16E2,8.87E2,7E1,8.98E2,4.36E2,1.223E3,6.57E2,3.33E2,1.76E2,1.94E2,1.9E1,3E1,1.057E3,2.36E2,4.95E2,1.78E2,7.05E2,1.56E2,1.7E2,3E0,4.7E1,2E0,7.32E2,1.74E2,1.69E2,2.64E2,2.28E2,9.2E1,8.8E1,2E0,2.3E1,5.09E2,8.6E1,6.6E1,2.9E1,9E0,9.1E1,3.6E1,4.18E2,7.59E2,7.9E1,9.5E1,1E2,1.7E1,4.7E1,1.91E2,8.3E2,1.88E2,4.7E1,2.14E2,1.2E1,1.28E2,2.21E2,1.74E2,2.03E2,3.31E2,1.2E1,1.04E2,8.5E2,3.7E1,6.6E1,4E0,1.82E2,7.16E2,7E1,3.66E2,1.8E1,1.205E3,9.3E1,2.4E2],"tree_param":{"num_deleted":"0","num_feature":"60","num_nodes":"125","size_leaf_vector":"1"}},{"base_weights":[2.8472842E-4,-1.6510992E-1,1.6049841E-1,-2.1364886E-1,-8.452286E-2,6.921182E-2,2.1236001E-1,-2.3814823E-1,-1.8204775E-1,-1.0944906E-1,-4.7708638E-2,3.483216E-2,9.7361155E-2,1.7894645E-1,2.3884177E-1,-2.48107E-1,-2.156196E-1,-1.8891579E-1,-1.4296575E-1,-1.386633E-1,-9.1531366E-2,-1.07741885E-1,-3.9980825E-2,-5.9181387E-3,4.522308E-2,8.188022E-2,1.183448E-1,1.5591295E-1,1.915507E-1,2.2449623E-1,2.5503907E-1,-2.6641202E-1,-2.1893196E-1,-2.2445372E-1,-1.9355668E-1,-2.4083585E-1,-1.8292028E-1,-1.20362215E-1,-1.6362612E-1,-1.6462761E-1,-1.07963875E-1,-9.930921E-2,-4.9868613E-2,-1.2288455E-1,-5.737295E-2,-5.650767E-2,-1.3177559E-2,-1.9333845E-2,2.6432047E-2,3.6939755E-2,8.066408E-2,6.327794E-2,9.66076E-2,7.635231E-2,1.2605114E-1,1.650494E-1,1.13669135E-1,1.8348144E-1,2.0404756E-1,2.086812E-1,2.2919007E-1,1.2291114E-2,1.3317995E-2,-1.4318391E-2,-1.2946305E-2,-1.2070932E-2,-1.0092058E-2,-1.1692607E-2,-1.0437592E-2,-1.0034735E-2,-7.859164E-3,-6.236381E-3,-1.2214058E-2,-9.578688E-3,-7.620696E-3,-7.1687833E-3,-4.8640002E-3,-1.0566658E-2,-7.4494765E-3,-8.713873E-3,-5.9291804E-3,-6.637531E-3,-4.3443204E-3,-5.8722696E-3,-3.907193E-3,-7.993291E-3,-1.6625116E-3,-7.502068E-3,-4.9956175E-3,-7.9250813E-4,-3.9708987E-3,-3.2293783E-3,7.792746E-6,-1.462035E-3,1.6112201E-3,-1.2273799E-3,2.1747476E-3,2.4121383E-3,4.7930592E-4,9.817284E-4,3.4323689E-3,1.5585597E-3,4.2906E-3,2.6007032E-3,5.2524568E-3,3.3042468E-3,5.458047E-3,3.0893416E-3,7.004138E-3,4.294378E-3,6.704472E-3,6.3564577E-3,8.455145E-3,3.7259422E-3,6.4724484E-3,9.262309E-3,6.3779573E-3,4.008488E-3,1.0230084E-2,1.04792975E-2,5.325358E-3,8.282598E-3,1.1508084E-2],"categories":[],"categories_nodes":[],"categories_segments":[],"categories_sizes":[],"default_left":[0,0,0,0,0,0,0,0,0,0,0,0,0,0,0,0,0,0,0,0,0,0,0,0,0,0,0,0,0,0,0,0,0,0,0,0,0,0,0,0,0,0,0,0,0,0,0,0,0,0,0,0,0,0,0,0,0,0,0,0,0,0,0,0,0,0,0,0,0,0,0,0,0,0,0,0,0,0,0,0,0,0,0,0,0,0,0,0,0,0,0,0,0,0,0,0,0,0,0,0,0,0,0,0,0,0,0,0,0,0,0,0,0,0,0,0,0,0,0,0,0,0,0],"id":8,"left_children":[1,3,5,7,9,11,13,15,17,19,21,23,25,27,29,31,33,35,37,39,41,43,45,47,49,51,53,55,57,59,61,63,65,67,69,71,73,75,77,79,81,83,85,87,89,91,93,95,97,99,101,103,105,107,109,111,113,115,117,119,121,-1,-1,-1,-1,-1,-1,-1,-1,-1,-1,-1,-1,-1,-1,-1,-1,-1,-1,-1,-1,-1,-1,-1,-1,-1,-1,-1,-1,-1,-1,-1,-1,-1,-1,-1,-1,-1,-1,-1,-1,-1,-1,-1,-1,-1,-1,-1,-1,-1,-1,-1,-1,-1,-1,-1,-1,-1,-1,-1,-1,-1,-1],"loss_changes":[3.9302554E2,2.8528885E1,3.565329E1,3.482376E0,2.5136967E0,2.639573E0,4.208069E0,5.213165E-1,5.079422E-1,8.436737E-1,5.106499E-1,5.2151394E-1,4.7790527E-1,5.879364E-1,5.6477356E-1,8.8694763E-1,1.1111832E-1,4.8264313E-1,1.21338844E-1,4.7642136E-1,3.2460308E-1,8.905256E-2,4.355842E-1,1.0944517E-1,2.8501153E-1,2.3141289E-1,1.9586849E-1,2.7379417E-1,1.0081482E-1,5.8181763E-2,6.4949036E-2,8.7631226E-2,2.1567917E-1,3.3823013E-2,2.9208183E-2,3.8336754E-2,3.7232208E-1,6.4670086E-2,7.674456E-2,1.2773514E-1,1.3840652E-1,3.194046E-1,2.9081646E-1,4.4898868E-2,2.7117714E-2,2.7883184E-1,2.7588767E-1,5.9375845E-2,2.6726753E-2,4.3597114E-1,4.4460416E-2,1.7615092E-1,1.7746973E-1,8.509946E-2,1.6120625E-1,7.3955536E-2,7.560778E-2,5.956459E-2,1.9908905E-2,8.921623E-3,2.9224396E-2,0E0,0E0,0E0,0E0,0E0,0E0,0E0,0E0,0E0,0E0,0E0,0E0,0E0,0E0,0E0,0E0,0E0,0E0,0E0,0E0,0E0,0E0,0E0,0E0,0E0,0E0,0E0,0E0,0E0,0E0,0E0,0E0,0E0,0E0,0E0,0E0,0E0,0E0,0E0,0E0,0E0,0E0,0E0,0E0,0E0,0E0,0E0,0E0,0E0,0E0,0E0,0E0,0E0,0E0,0E0,0E0,0E0,0E0,0E0,0E0,0E0,0E0],"parents":[2147483647,0,0,1,1,2,2,3,3,4,4,5,5,6,6,7,7,8,8,9,9,10,10,11,11,12,12,13,13,14,14,15,15,16,16,17,17,18,18,19,19,20,20,21,21,22,22,23,23,24,24,25,25,26,26,27,27,28,28,29,29,30,30,31,31,32,32,33,33,34,34,35,35,36,36,37,37,38,38,39,39,40,40,41,41,42,42,43,43,44,44,45,45,46,46,47,47,48,48,49,49,50,50,51,51,52,52,53,53,54,54,55,55,56,56,57,57,58,58,59,59,60,60],"right_children":[2,4,6,8,10,12,14,16,18,20,22,24,26,28,30,32,34,36,38,40,42,44,46,48,50,52,54,56,58,60,62,64,66,68,70,72,74,76,78,80,82,84,86,88,90,92,94,96,98,100,102,104,106,108,110,112,114,116,118,120,122,-1,-1,-1,-1,-1,-1,-1,-1,-1,-1,-1,-1,-1,-1,-1,-1,-1,-1,-1,-1,-1,-1,-1,-1,-1,-1,-1,-1,-1,-1,-1,-1,-1,-1,-1,-1,-1,-1,-1,-1,-1,-1,-1,-1,-1,-1,-1,-1,-1,-1,-1,-1,-1,-1,-1,-1,-1,-1,-1,-1,-1,-1],"split_conditions":[5.260274E-1,3.1342465E-1,7.430137E-1,2.2136986E-1,4.208219E-1,6.3232875E-1,8.4821916E-1,2.5205478E-1,5.103206E-1,5.2349585E-1,2.1808219E-1,6.1176986E-1,6.920548E-1,7.923288E-1,8.991781E-1,4.350685E-1,8.6630136E-1,1.5506849E-1,7.090411E-1,5.1835614E-1,7.0194465E-1,4.250836E-1,5.824264E-1,3.819178E-1,8.1972605E-1,7.005918E-1,4.7835615E-1,5.854194E-1,8.290411E-1,7.3147476E-1,9.282192E-1,1.3972603E-1,1.4684932E-1,2.6136985E-1,7.735958E-1,6.0166883E-1,6.10411E-1,5.8465755E-1,2.5863013E-1,8.6739725E-1,3.0315453E-1,6.1205477E-1,1.7041096E-1,5.8465755E-1,4.742492E-1,7.327691E-1,5.6560284E-1,3.8427755E-1,3.6889634E-1,8.39452E-1,1.2327981E-1,8.49863E-1,3.1093544E-1,8.947945E-1,5.0624746E-1,3.9218056E-1,6.828881E-1,8.0234116E-1,5.1511484E-1,7.963211E-1,5.35268E-1,1.2291114E-2,1.3317995E-2,-1.4318391E-2,-1.2946305E-2,-1.2070932E-2,-1.0092058E-2,-1.1692607E-2,-1.0437592E-2,-1.0034735E-2,-7.859164E-3,-6.236381E-3,-1.2214058E-2,-9.578688E-3,-7.620696E-3,-7.1687833E-3,-4.8640002E-3,-1.0566658E-2,-7.4494765E-3,-8.713873E-3,-5.9291804E-3,-6.637531E-3,-4.3443204E-3,-5.8722696E-3,-3.907193E-3,-7.993291E-3,-1.6625116E-3,-7.502068E-3,-4.9956175E-3,-7.9250813E-4,-3.9708987E-3,-3.2293783E-3,7.792746E-6,-1.462035E-3,1.6112201E-3,-1.2273799E-3,2.1747476E-3,2.4121383E-3,4.7930592E-4,9.817284E-4,3.4323689E-3,1.5585597E-3,4.2906E-3,2.6007032E-3,5.2524568E-3,3.3042468E-3,5.458047E-3,3.0893416E-3,7.004138E-3,4.294378E-3,6.704472E-3,6.3564577E-3,8.455145E-3,3.7259422E-3,6.4724484E-3,9.262309E-3,6.3779573E-3,4.008488E-3,1.0230084E-2,1.04792975E-2,5.325358E-3,8.282598E-3,1.1508084E-2],"split_indices":[1,1,1,1,1,1,1,56,57,57,56,57,1,1,1,11,41,56,31,6,5,43,4,56,56,55,56,27,1,55,1,56,56,11,20,27,11,31,1,16,50,56,56,31,30,59,50,42,38,11,5,6,12,6,9,14,20,33,54,33,54,0,0,0,0,0,0,0,0,0,0,0,0,0,0,0,0,0,0,0,0,0,0,0,0,0,0,0,0,0,0,0,0,0,0,0,0,0,0,0,0,0,0,0,0,0,0,0,0,0,0,0,0,0,0,0,0,0,0,0,0,0,0],"split_type":[0,0,0,0,0,0,0,0,0,0,0,0,0,0,0,0,0,0,0,0,0,0,0,0,0,0,0,0,0,0,0,0,0,0,0,0,0,0,0,0,0,0,0,0,0,0,0,0,0,0,0,0,0,0,0,0,0,0,0,0,0,0,0,0,0,0,0,0,0,0,0,0,0,0,0,0,0,0,0,0,0,0,0,0,0,0,0,0,0,0,0,0,0,0,0,0,0,0,0,0,0,0,0,0,0,0,0,0,0,0,0,0,0,0,0,0,0,0,0,0,0,0,0],"sum_hessian":[1.483E4,7.297E3,7.533E3,4.553E3,2.744E3,2.73E3,4.803E3,2.561E3,1.992E3,1.635E3,1.109E3,1.23E3,1.5E3,2.127E3,2.676E3,1.769E3,7.92E2,1.691E3,3.01E2,6.19E2,1.016E3,1.25E2,9.84E2,2.5E2,9.8E2,8.66E2,6.34E2,7.57E2,1.37E3,1.427E3,1.249E3,1.082E3,6.87E2,5.59E2,2.33E2,1.71E2,1.52E3,1.47E2,1.54E2,3.33E2,2.86E2,8.55E2,1.61E2,9.5E1,3E1,6.08E2,3.76E2,1.77E2,7.3E1,7.96E2,1.84E2,3.85E2,4.81E2,1E2,5.34E2,6.2E2,1.37E2,8.42E2,5.28E2,3.37E2,1.09E3,7.01E2,5.48E2,2.85E2,7.97E2,2.91E2,3.96E2,3.41E2,2.18E2,1.91E2,4.2E1,6E0,1.65E2,1.18E3,3.4E2,7.1E1,7.6E1,3.3E1,1.21E2,2.73E2,6E1,1.29E2,1.57E2,4.58E2,3.97E2,2E1,1.41E2,4.1E1,5.4E1,1.1E1,1.9E1,5.32E2,7.6E1,2.78E2,9.8E1,1.64E2,1.3E1,3.1E1,4.2E1,5.16E2,2.8E2,1.8E1,1.66E2,3.05E2,8E1,1.42E2,3.39E2,8.3E1,1.7E1,9.1E1,4.43E2,6.3E1,5.57E2,4.1E1,9.6E1,8.14E2,2.8E1,3E0,5.25E2,3.33E2,4E0,1.9E1,1.071E3],"tree_param":{"num_deleted":"0","num_feature":"60","num_nodes":"123","size_leaf_vector":"1"}},{"base_weights":[1.1609298E-3,-1.5766306E-1,1.5248853E-1,-2.0099278E-1,-7.469499E-2,6.6290766E-2,2.0152944E-1,-2.2147298E-1,-1.6248934E-1,-9.373857E-2,-3.572282E-2,3.270195E-2,9.274335E-2,1.6698937E-1,2.2476552E-1,-2.368083E-1,-2.0489193E-1,-1.7267062E-1,-1.2649632E-1,-8.1964895E-2,-1.2697175E-1,-9.8166294E-2,-2.7359022E-2,-7.0176617E-4,4.420722E-2,7.7459626E-2,1.13863654E-1,1.2456528E-1,1.728494E-1,2.0882602E-1,2.399037E-1,-2.4088073E-1,-1.8963143E-1,-2.0999312E-1,-1.751652E-1,-2.2256185E-1,-1.6413061E-1,-1.2930872E-1,-3.2285813E-2,-1.5037447E-1,-7.77805E-2,-1.3132216E-1,-4.3522432E-2,-2.5862257E-3,-1.1050506E-1,-6.2354174E-2,-1.6281571E-2,2.4488162E-2,-2.0820722E-2,-1.1838514E-3,5.1031843E-2,7.120916E-2,1.2705973E-1,7.922165E-2,1.2306826E-1,9.921251E-2,1.4258535E-1,1.3332798E-1,1.768456E-1,1.7147185E-1,2.1090804E-1,1.1605481E-2,1.2653562E-2,-1.23189865E-2,-9.823355E-3,-9.9219745E-3,-7.575247E-3,-1.1519297E-2,-9.909097E-3,-9.340901E-3,-6.640229E-3,-8.8229105E-3,-1.1784866E-2,-8.668828E-3,-6.4278827E-3,-6.9923885E-3,-5.250295E-3,2.9810966E-4,-2.2848807E-3,-7.949934E-3,-3.712751E-3,-4.4742594E-3,-1.9808516E-3,-7.214961E-3,-4.7853813E-3,-2.665963E-3,1.2050004E-4,-2.2325234E-3,8.198176E-4,-3.8126712E-3,-7.187832E-3,-4.804185E-3,-2.3930909E-3,1.2376957E-3,-1.3606034E-3,7.3876686E-4,4.2527337E-3,-1.982386E-3,-7.6900134E-5,5.0573563E-4,-2.5730005E-3,-3.2883766E-4,2.7230736E-3,3.1964257E-3,5.98576E-3,5.343498E-3,8.721922E-3,1.9426635E-3,4.7086547E-3,4.334632E-3,6.6581443E-3,-9.4875816E-4,5.2089724E-3,7.901764E-3,6.4523183E-3,6.9602355E-3,1.5334502E-3,8.6753005E-3,1.0675109E-2,7.3906607E-3,9.419589E-3,1.0387664E-2,1.1572241E-2],"categories":[],"categories_nodes":[],"categories_segments":[],"categories_sizes":[],"default_left":[0,0,0,0,0,0,0,0,0,0,0,0,0,0,0,0,0,0,0,0,0,0,0,0,0,0,0,0,0,0,0,0,0,0,0,0,0,0,0,0,0,0,0,0,0,0,0,0,0,0,0,0,0,0,0,0,0,0,0,0,0,0,0,0,0,0,0,0,0,0,0,0,0,0,0,0,0,0,0,0,0,0,0,0,0,0,0,0,0,0,0,0,0,0,0,0,0,0,0,0,0,0,0,0,0,0,0,0,0,0,0,0,0,0,0,0,0,0,0,0,0,0,0],"id":9,"left_children":[1,3,5,7,9,11,13,15,17,19,21,23,25,27,29,31,33,35,37,39,41,43,45,47,49,51,53,55,57,59,61,63,65,67,69,71,73,75,77,79,81,83,85,87,89,91,93,95,97,99,101,103,105,107,109,111,113,115,117,119,121,-1,-1,-1,-1,-1,-1,-1,-1,-1,-1,-1,-1,-1,-1,-1,-1,-1,-1,-1,-1,-1,-1,-1,-1,-1,-1,-1,-1,-1,-1,-1,-1,-1,-1,-1,-1,-1,-1,-1,-1,-1,-1,-1,-1,-1,-1,-1,-1,-1,-1,-1,-1,-1,-1,-1,-1,-1,-1,-1,-1,-1,-1],"loss_changes":[3.5599835E2,2.5965927E1,3.205008E1,3.7072906E0,1.8379755E0,2.4421492E0,3.8421326E0,7.3872375E-1,5.8354187E-1,6.4145947E-1,4.2348218E-1,4.6659398E-1,4.8796463E-1,4.6274948E-1,6.465149E-1,2.6210022E-1,1.8992615E-1,5.109749E-1,9.332943E-2,3.4125328E-1,1.5184307E-1,1.12930834E-1,2.7848548E-1,1.5862991E-1,2.797892E-1,2.6873302E-1,1.9560051E-1,9.5499754E-2,2.4633789E-1,7.380676E-2,9.2536926E-2,3.1085968E-1,1.426363E-2,2.6047516E-1,8.625412E-2,7.044506E-2,3.3983612E-1,7.675314E-2,6.428154E-3,3.4146428E-2,5.164037E-1,1.7660427E-1,1.0478318E-2,1.0313957E-2,8.5846305E-2,7.99672E-2,2.4692105E-1,8.05131E-2,6.310724E-2,6.811826E-2,1.5545559E-1,2.7416468E-1,7.605767E-2,7.963306E-2,1.746254E-1,6.2440872E-2,8.472443E-3,9.2861414E-2,1.5258026E-1,4.1775703E-3,3.8410187E-2,0E0,0E0,0E0,0E0,0E0,0E0,0E0,0E0,0E0,0E0,0E0,0E0,0E0,0E0,0E0,0E0,0E0,0E0,0E0,0E0,0E0,0E0,0E0,0E0,0E0,0E0,0E0,0E0,0E0,0E0,0E0,0E0,0E0,0E0,0E0,0E0,0E0,0E0,0E0,0E0,0E0,0E0,0E0,0E0,0E0,0E0,0E0,0E0,0E0,0E0,0E0,0E0,0E0,0E0,0E0,0E0,0E0,0E0,0E0,0E0,0E0,0E0],"parents":[2147483647,0,0,1,1,2,2,3,3,4,4,5,5,6,6,7,7,8,8,9,9,10,10,11,11,12,12,13,13,14,14,15,15,16,16,17,17,18,18,19,19,20,20,21,21,22,22,23,23,24,24,25,25,26,26,27,27,28,28,29,29,30,30,31,31,32,32,33,33,34,34,35,35,36,36,37,37,38,38,39,39,40,40,41,41,42,42,43,43,44,44,45,45,46,46,47,47,48,48,49,49,50,50,51,51,52,52,53,53,54,54,55,55,56,56,57,57,58,58,59,59,60,60],"right_children":[2,4,6,8,10,12,14,16,18,20,22,24,26,28,30,32,34,36,38,40,42,44,46,48,50,52,54,56,58,60,62,64,66,68,70,72,74,76,78,80,82,84,86,88,90,92,94,96,98,100,102,104,106,108,110,112,114,116,118,120,122,-1,-1,-1,-1,-1,-1,-1,-1,-1,-1,-1,-1,-1,-1,-1,-1,-1,-1,-1,-1,-1,-1,-1,-1,-1,-1,-1,-1,-1,-1,-1,-1,-1,-1,-1,-1,-1,-1,-1,-1,-1,-1,-1,-1,-1,-1,-1,-1,-1,-1,-1,-1,-1,-1,-1,-1,-1,-1,-1,-1,-1,-1],"split_conditions":[5.260274E-1,3.2876712E-1,7.430137E-1,2.4438356E-1,4.4219178E-1,6.3232875E-1,8.416438E-1,1.8136986E-1,5.103206E-1,7.7863014E-1,2.1589041E-1,3.205973E-1,6.920548E-1,5.8575344E-1,8.9260274E-1,8.509589E-1,6.10411E-1,1.7041096E-1,6.246575E-1,1.7041096E-1,7.561644E-1,8.2386136E-1,3.5177866E-1,5.770941E-1,4.2160738E-1,8.580822E-1,6.2837565E-1,6.6827893E-1,4.3039086E-1,3.819178E-1,9.282192E-1,3.0904108E-1,8.9041096E-1,2.3013699E-1,3.473745E-1,7.6460254E-1,4.350685E-1,5.570335E-1,8.8767126E-2,8.140468E-1,7.649315E-1,5.7643837E-1,6.723096E-1,5.8465755E-1,7.1707606E-1,6.520548E-1,4.7726026E-1,7.923288E-1,7.120401E-1,7.090411E-1,1.1561644E-1,8.569863E-1,4.9972603E-1,4.449315E-1,5.349144E-1,3.043478E-1,3.0315453E-1,9.1671234E-1,9.028618E-1,3.9565217E-1,9.282192E-1,1.1605481E-2,1.2653562E-2,-1.23189865E-2,-9.823355E-3,-9.9219745E-3,-7.575247E-3,-1.1519297E-2,-9.909097E-3,-9.340901E-3,-6.640229E-3,-8.8229105E-3,-1.1784866E-2,-8.668828E-3,-6.4278827E-3,-6.9923885E-3,-5.250295E-3,2.9810966E-4,-2.2848807E-3,-7.949934E-3,-3.712751E-3,-4.4742594E-3,-1.9808516E-3,-7.214961E-3,-4.7853813E-3,-2.665963E-3,1.2050004E-4,-2.2325234E-3,8.198176E-4,-3.8126712E-3,-7.187832E-3,-4.804185E-3,-2.3930909E-3,1.2376957E-3,-1.3606034E-3,7.3876686E-4,4.2527337E-3,-1.982386E-3,-7.6900134E-5,5.0573563E-4,-2.5730005E-3,-3.2883766E-4,2.7230736E-3,3.1964257E-3,5.98576E-3,5.343498E-3,8.721922E-3,1.9426635E-3,4.7086547E-3,4.334632E-3,6.6581443E-3,-9.4875816E-4,5.2089724E-3,7.901764E-3,6.4523183E-3,6.9602355E-3,1.5334502E-3,8.6753005E-3,1.0675109E-2,7.3906607E-3,9.419589E-3,1.0387664E-2,1.1572241E-2],"split_indices":[1,1,1,1,1,1,1,1,57,31,56,47,1,56,1,41,11,56,56,56,51,24,7,30,7,56,59,59,12,51,1,6,41,56,50,17,6,19,6,13,11,6,59,6,0,56,31,6,13,36,51,6,6,56,7,47,30,41,4,33,56,0,0,0,0,0,0,0,0,0,0,0,0,0,0,0,0,0,0,0,0,0,0,0,0,0,0,0,0,0,0,0,0,0,0,0,0,0,0,0,0,0,0,0,0,0,0,0,0,0,0,0,0,0,0,0,0,0,0,0,0,0,0],"split_type":[0,0,0,0,0,0,0,0,0,0,0,0,0,0,0,0,0,0,0,0,0,0,0,0,0,0,0,0,0,0,0,0,0,0,0,0,0,0,0,0,0,0,0,0,0,0,0,0,0,0,0,0,0,0,0,0,0,0,0,0,0,0,0,0,0,0,0,0,0,0,0,0,0,0,0,0,0,0,0,0,0,0,0,0,0,0,0,0,0,0,0,0,0,0,0,0,0,0,0,0,0,0,0,0,0,0,0,0,0,0,0,0,0,0,0,0,0,0,0,0,0,0,0],"sum_hessian":[1.481E4,7.226E3,7.584E3,4.746E3,2.48E3,2.751E3,4.833E3,3.095E3,1.651E3,1.665E3,8.15E2,1.213E3,1.538E3,1.947E3,2.886E3,1.601E3,1.494E3,1.284E3,3.67E2,1.232E3,4.33E2,9.5E1,7.2E2,3.11E2,9.02E2,8.95E2,6.43E2,2.39E2,1.708E3,1.413E3,1.473E3,1.47E3,1.31E2,1.27E3,2.24E2,1.84E2,1.1E3,3.56E2,1.1E1,6.9E1,1.163E3,4.11E2,2.2E1,1.1E1,8.4E1,1.72E2,5.48E2,1.38E2,1.73E2,1.18E2,7.84E2,7.97E2,9.8E1,1.37E2,5.06E2,1.02E2,1.37E2,1.6E2,1.548E3,7.9E1,1.334E3,9.37E2,5.36E2,1.304E3,1.66E2,1.03E2,2.8E1,4.59E2,8.11E2,1.73E2,5.1E1,4.4E1,1.4E2,8.7E2,2.3E2,2.45E2,1.11E2,3E0,8E0,6.1E1,8E0,8.89E2,2.74E2,2.99E2,1.12E2,1.8E1,4E0,3E0,8E0,4.3E1,4.1E1,5E1,1.22E2,1.15E2,4.33E2,1.2E2,1.8E1,8.7E1,8.6E1,9.7E1,2.1E1,4.4E1,7.4E2,6.95E2,1.02E2,7.1E1,2.7E1,3.8E1,9.9E1,1.12E2,3.94E2,4E0,9.8E1,5.9E1,7.8E1,1.51E2,9E0,1.424E3,1.24E2,3.7E1,4.2E1,1.166E3,1.68E2],"tree_param":{"num_deleted":"0","num_feature":"60","num_nodes":"123","size_leaf_vector":"1"}},{"base_weights":[-2.673789E-4,-1.5032187E-1,1.4430562E-1,-1.955709E-1,-8.13494E-2,6.628112E-2,1.9392775E-1,-2.1709199E-1,-1.690218E-1,-1.09844744E-1,-5.3848874E-2,3.369015E-2,9.261087E-2,1.6268896E-1,2.1468714E-1,-2.3641883E-1,-2.071545E-1,-1.775444E-1,-1.4435919E-1,-9.0665676E-2,-1.333413E-1,-2.2640529E-3,-6.0754377E-2,4.2856853E-2,-5.3480947E-3,7.96566E-2,1.1960557E-1,1.2948234E-1,1.6831358E-1,2.0200828E-1,2.3037367E-1,-2.4779111E-1,-1.9094408E-1,-2.1718651E-1,-1.852912E-1,-1.8363899E-1,-1.1752679E-1,-1.5422657E-1,-1.22982025E-1,-1.04788125E-1,-7.109026E-2,-1.7372209E-1,-1.2052462E-1,-1.5719803E-2,5.7937086E-2,-3.7825685E-2,-7.435167E-2,3.4603063E-2,8.02715E-2,-2.6960228E-2,3.0197596E-2,6.0479272E-2,9.325592E-2,9.205215E-2,1.2983154E-1,4.9445167E-2,1.3267836E-1,1.4571655E-1,1.7714253E-1,1.8839243E-1,2.0727296E-1,2.1944559E-1,2.38423E-1,-1.3470533E-2,-1.19003495E-2,-7.6142135E-3,-1.00766765E-2,-1.1303942E-2,-8.866349E-3,-9.360772E-3,-4.8588603E-3,-1.2101251E-2,-8.95082E-3,-7.824081E-3,-5.4356926E-3,-7.7484683E-3,2.5323243E-3,-6.3153887E-3,-1.4698104E-3,-6.2742713E-3,-4.4120727E-3,-1.0028327E-3,-4.2376467E-3,-1.1078755E-2,-8.165556E-3,-1.0503378E-2,-5.7485304E-3,-1.5771451E-3,4.3535137E-4,3.4381018E-3,4.7266996E-4,-4.987573E-3,-7.608265E-4,-5.0815255E-3,-2.4452438E-3,7.000538E-4,3.0907642E-3,2.4540888E-3,5.139614E-3,-4.132456E-3,-8.3541975E-4,7.569878E-4,4.4816067E-3,2.4491067E-3,4.6227346E-3,3.4172763E-3,5.334463E-3,-6.343701E-5,5.0626225E-3,3.9295875E-3,6.9328933E-3,5.0252243E-3,1.7833321E-3,7.864991E-3,6.280721E-3,7.4974294E-3,4.738425E-3,8.081372E-3,9.327254E-3,8.309879E-3,9.726646E-3,1.0038066E-2,1.0953963E-2,1.1117143E-2,8.79269E-3,1.0818132E-2,1.2282821E-2],"categories":[],"categories_nodes":[],"categories_segments":[],"categories_sizes":[],"default_left":[0,0,0,0,0,0,0,0,0,0,0,0,0,0,0,0,0,0,0,0,0,0,0,0,0,0,0,0,0,0,0,0,0,0,0,0,0,0,0,0,0,0,0,0,0,0,0,0,0,0,0,0,0,0,0,0,0,0,0,0,0,0,0,0,0,0,0,0,0,0,0,0,0,0,0,0,0,0,0,0,0,0,0,0,0,0,0,0,0,0,0,0,0,0,0,0,0,0,0,0,0,0,0,0,0,0,0,0,0,0,0,0,0,0,0,0,0,0,0,0,0,0,0,0,0,0,0],"id":10,"left_children":[1,3,5,7,9,11,13,15,17,19,21,23,25,27,29,31,33,35,37,39,41,43,45,47,49,51,53,55,57,59,61,63,65,67,69,71,73,75,77,79,81,83,85,87,89,91,93,95,97,99,101,103,105,107,109,111,113,115,117,119,121,123,125,-1,-1,-1,-1,-1,-1,-1,-1,-1,-1,-1,-1,-1,-1,-1,-1,-1,-1,-1,-1,-1,-1,-1,-1,-1,-1,-1,-1,-1,-1,-1,-1,-1,-1,-1,-1,-1,-1,-1,-1,-1,-1,-1,-1,-1,-1,-1,-1,-1,-1,-1,-1,-1,-1,-1,-1,-1,-1,-1,-1,-1,-1,-1,-1],"loss_changes":[3.2065646E2,2.262024E1,2.9133621E1,2.4653168E0,2.2470398E0,2.5094328E0,2.9488068E0,4.1484833E-1,3.8739014E-1,6.2376785E-1,5.217233E-1,4.6901536E-1,5.566311E-1,3.2205963E-1,5.02594E-1,3.731308E-1,3.1134796E-1,5.109978E-1,8.86116E-2,2.0818377E-1,3.061514E-1,1.4185973E-1,3.99992E-1,3.2487273E-1,1.9286868E-1,2.8045607E-1,1.3540936E-1,6.276083E-2,2.8761673E-1,7.098389E-2,5.5610657E-2,7.273865E-2,3.7677765E-2,3.4731674E-1,6.844902E-2,3.1293488E-1,3.002131E-2,6.0349464E-2,4.795313E-2,1.433816E-1,2.2839451E-1,3.8544178E-2,2.160554E-1,5.5545304E-2,1.614464E-2,6.747251E-1,5.5729914E-1,4.8743975E-1,1.291163E-1,8.768151E-2,8.3663784E-2,1.6384399E-1,2.0687151E-1,1.246227E-1,1.6050911E-1,4.857609E-3,2.5461674E-2,8.2167625E-2,1.3396454E-1,2.7498245E-2,4.0355682E-2,2.8217316E-2,5.7746887E-2,0E0,0E0,0E0,0E0,0E0,0E0,0E0,0E0,0E0,0E0,0E0,0E0,0E0,0E0,0E0,0E0,0E0,0E0,0E0,0E0,0E0,0E0,0E0,0E0,0E0,0E0,0E0,0E0,0E0,0E0,0E0,0E0,0E0,0E0,0E0,0E0,0E0,0E0,0E0,0E0,0E0,0E0,0E0,0E0,0E0,0E0,0E0,0E0,0E0,0E0,0E0,0E0,0E0,0E0,0E0,0E0,0E0,0E0,0E0,0E0,0E0,0E0,0E0,0E0],"parents":[2147483647,0,0,1,1,2,2,3,3,4,4,5,5,6,6,7,7,8,8,9,9,10,10,11,11,12,12,13,13,14,14,15,15,16,16,17,17,18,18,19,19,20,20,21,21,22,22,23,23,24,24,25,25,26,26,27,27,28,28,29,29,30,30,31,31,32,32,33,33,34,34,35,35,36,36,37,37,38,38,39,39,40,40,41,41,42,42,43,43,44,44,45,45,46,46,47,47,48,48,49,49,50,50,51,51,52,52,53,53,54,54,55,55,56,56,57,57,58,58,59,59,60,60,61,61,62,62],"right_children":[2,4,6,8,10,12,14,16,18,20,22,24,26,28,30,32,34,36,38,40,42,44,46,48,50,52,54,56,58,60,62,64,66,68,70,72,74,76,78,80,82,84,86,88,90,92,94,96,98,100,102,104,106,108,110,112,114,116,118,120,122,124,126,-1,-1,-1,-1,-1,-1,-1,-1,-1,-1,-1,-1,-1,-1,-1,-1,-1,-1,-1,-1,-1,-1,-1,-1,-1,-1,-1,-1,-1,-1,-1,-1,-1,-1,-1,-1,-1,-1,-1,-1,-1,-1,-1,-1,-1,-1,-1,-1,-1,-1,-1,-1,-1,-1,-1,-1,-1,-1,-1,-1,-1,-1,-1,-1],"split_conditions":[5.260274E-1,3.030137E-1,7.550685E-1,2.1534246E-1,3.90137E-1,6.3835615E-1,8.438356E-1,1.6164383E-1,3.819178E-1,7.221918E-1,4.6027398E-1,7.1780825E-1,7.1671236E-1,6.1205477E-1,8.991781E-1,3.249315E-1,2.2246575E-1,5.1835614E-1,5.078597E-1,6.290411E-1,2.2794521E-1,7.4027395E-1,5.026199E-1,8.569863E-1,3.194095E-1,6.9847214E-1,6.5900844E-1,4.0300046E-3,4.675534E-1,7.3958784E-1,8.860274E-1,3.249315E-1,1.1590836E-1,3.5780823E-1,8.331318E-1,1.23835616E-1,1.3389517E-1,5.779264E-1,5.961644E-1,3.935002E-1,3.7741297E-1,1.1561644E-1,1.939726E-1,7.02679E-1,7.9727226E-1,2.1972603E-1,6.3123286E-1,7.8958905E-1,3.7424657E-1,7.5988597E-1,5.465538E-1,8.49863E-1,5.059289E-1,3.888089E-2,5.397453E-1,7.4873084E-1,1.4231075E-1,5.2700925E-1,7.7953446E-1,2.689539E-1,8.984281E-1,8.0234116E-1,2.8219178E-1,-1.3470533E-2,-1.19003495E-2,-7.6142135E-3,-1.00766765E-2,-1.1303942E-2,-8.866349E-3,-9.360772E-3,-4.8588603E-3,-1.2101251E-2,-8.95082E-3,-7.824081E-3,-5.4356926E-3,-7.7484683E-3,2.5323243E-3,-6.3153887E-3,-1.4698104E-3,-6.2742713E-3,-4.4120727E-3,-1.0028327E-3,-4.2376467E-3,-1.1078755E-2,-8.165556E-3,-1.0503378E-2,-5.7485304E-3,-1.5771451E-3,4.3535137E-4,3.4381018E-3,4.7266996E-4,-4.987573E-3,-7.608265E-4,-5.0815255E-3,-2.4452438E-3,7.000538E-4,3.0907642E-3,2.4540888E-3,5.139614E-3,-4.132456E-3,-8.3541975E-4,7.569878E-4,4.4816067E-3,2.4491067E-3,4.6227346E-3,3.4172763E-3,5.334463E-3,-6.343701E-5,5.0626225E-3,3.9295875E-3,6.9328933E-3,5.0252243E-3,1.7833321E-3,7.864991E-3,6.280721E-3,7.4974294E-3,4.738425E-3,8.081372E-3,9.327254E-3,8.309879E-3,9.726646E-3,1.0038066E-2,1.0953963E-2,1.1117143E-2,8.79269E-3,1.0818132E-2,1.2282821E-2],"split_indices":[1,1,1,1,1,1,1,56,56,31,31,26,1,56,1,6,6,6,59,31,56,56,39,11,40,55,59,40,14,55,56,11,40,56,14,56,50,3,56,17,35,56,6,12,55,56,56,56,31,15,59,6,7,30,7,0,25,27,57,35,59,43,21,0,0,0,0,0,0,0,0,0,0,0,0,0,0,0,0,0,0,0,0,0,0,0,0,0,0,0,0,0,0,0,0,0,0,0,0,0,0,0,0,0,0,0,0,0,0,0,0,0,0,0,0,0,0,0,0,0,0,0,0,0,0,0,0],"split_type":[0,0,0,0,0,0,0,0,0,0,0,0,0,0,0,0,0,0,0,0,0,0,0,0,0,0,0,0,0,0,0,0,0,0,0,0,0,0,0,0,0,0,0,0,0,0,0,0,0,0,0,0,0,0,0,0,0,0,0,0,0,0,0,0,0,0,0,0,0,0,0,0,0,0,0,0,0,0,0,0,0,0,0,0,0,0,0,0,0,0,0,0,0,0,0,0,0,0,0,0,0,0,0,0,0,0,0,0,0,0,0,0,0,0,0,0,0,0,0,0,0,0,0,0,0,0,0],"sum_hessian":[1.4779E4,7.252E3,7.527E3,4.378E3,2.874E3,2.927E3,4.6E3,2.414E3,1.964E3,1.41E3,1.464E3,1.309E3,1.618E3,1.84E3,2.76E3,8.12E2,1.602E3,1.455E3,5.09E2,7.79E2,6.31E2,1.73E2,1.291E3,1.06E3,2.49E2,1.096E3,5.22E2,2.7E2,1.57E3,1.534E3,1.226E3,6.46E2,1.66E2,1.092E3,5.1E2,1.319E3,1.36E2,3.44E2,1.65E2,4.5E2,3.29E2,1.49E2,4.82E2,1.42E2,3.1E1,4.82E2,8.09E2,8.7E2,1.9E2,1.55E2,9.4E1,4.57E2,6.39E2,1.44E2,3.78E2,1.1E1,2.59E2,4.46E2,1.124E3,4.38E2,1.096E3,5.32E2,6.94E2,1.93E2,4.53E2,3.9E1,1.27E2,8.89E2,2.03E2,4.98E2,1.2E1,9.3E1,1.226E3,2.2E1,1.14E2,3.43E2,1E0,1.59E2,6E0,1.97E2,2.53E2,7E1,2.59E2,2.3E1,1.26E2,2.6E1,4.56E2,8.6E1,5.6E1,2.5E1,6E0,1.28E2,3.54E2,3.89E2,4.2E2,4.96E2,3.74E2,8.1E1,1.09E2,2.3E1,1.32E2,7.6E1,1.8E1,3.38E2,1.19E2,2.26E2,4.13E2,1.3E1,1.31E2,5.7E1,3.21E2,1E0,1E1,5.3E1,2.06E2,4.1E2,3.6E1,4.31E2,6.93E2,1.01E2,3.37E2,7.18E2,3.78E2,4.95E2,3.7E1,1.79E2,5.15E2],"tree_param":{"num_deleted":"0","num_feature":"60","num_nodes":"127","size_leaf_vector":"1"}},{"base_weights":[3.2423387E-4,-1.4651349E-1,1.271572E-1,-1.6913036E-1,-4.7889147E-2,4.378839E-2,1.7605095E-1,-1.8067524E-1,-7.821392E-2,-6.7435816E-2,2.972331E-2,-3.8370866E-2,7.2958246E-2,6.771685E-2,1.8575962E-1,-1.9047657E-1,-1.3473153E-1,-4.2721383E-2,-1.1023233E-1,-8.737218E-2,-4.4908457E-2,4.308825E-2,-2.646929E-2,-9.510018E-2,-1.7747154E-2,1.2190081E-1,5.905603E-2,4.5946777E-2,8.894946E-2,1.6484237E-1,2.046858E-1,-2.0492816E-1,-1.6178353E-1,-1.4445496E-1,-1.1502306E-1,-9.776515E-2,-2.0038148E-2,-1.340192E-1,-7.034001E-2,-1.019671E-1,-7.234394E-2,-8.688066E-2,-3.9272334E-2,2.149938E-2,6.0025115E-2,-1.0092618E-2,-5.5022676E-2,-7.048697E-2,-1.3086022E-1,-2.6146682E-2,2.2874773E-2,1.0879843E-1,7.993229E-3,5.3846236E-2,1.1387251E-1,2.2250947E-2,1.0708243E-1,9.1211855E-2,-4.8670277E-2,1.5481122E-1,1.7942819E-1,1.953778E-1,2.1981141E-1,-1.1210657E-2,-9.331743E-3,-1.0369873E-2,-7.287898E-3,-7.844808E-3,-6.659663E-3,-6.1475867E-3,-3.93111E-3,-4.1739624E-3,-6.6943835E-3,-1.5455093E-3,6.6831557E-4,-7.725195E-3,-5.671484E-3,-1.2863973E-3,-3.7867483E-3,-5.6306096E-3,-3.3248935E-3,-3.9357566E-3,-1.8017488E-3,-5.4786704E-3,-2.0277528E-3,-2.3207217E-3,-9.199002E-4,-1.1717128E-4,1.672929E-3,3.152281E-3,-9.819615E-4,-9.0506853E-4,6.6376594E-4,-3.1737424E-3,4.1982482E-4,-2.7266135E-3,-5.617365E-3,-7.5653866E-3,-3.5914665E-3,-8.828598E-4,-3.2605303E-3,-1.4587657E-3,1.9723382E-3,3.3070196E-3,5.792721E-3,2.4187407E-3,5.404886E-3,4.6468973E-3,6.810555E-3,-5.460837E-4,2.3678234E-3,6.8253516E-3,4.5582145E-3,3.506741E-3,5.133503E-3,6.5371396E-6,-3.2490434E-3,8.140783E-3,6.5539526E-3,8.090299E-3,1.0233559E-2,6.426868E-3,9.875606E-3,9.790149E-3,1.1609762E-2],"categories":[],"categories_nodes":[],"categories_segments":[],"categories_sizes":[],"default_left":[0,0,0,0,0,0,0,0,0,0,0,0,0,0,0,0,0,0,0,0,0,0,0,0,0,0,0,0,0,0,0,0,0,0,0,0,0,0,0,0,0,0,0,0,0,0,0,0,0,0,0,0,0,0,0,0,0,0,0,0,0,0,0,0,0,0,0,0,0,0,0,0,0,0,0,0,0,0,0,0,0,0,0,0,0,0,0,0,0,0,0,0,0,0,0,0,0,0,0,0,0,0,0,0,0,0,0,0,0,0,0,0,0,0,0,0,0,0,0,0,0,0,0,0,0],"id":11,"left_children":[1,3,5,7,9,11,13,15,17,19,21,23,25,27,29,31,33,35,37,39,41,43,45,47,49,51,53,55,57,59,61,63,65,67,69,71,73,75,77,79,81,83,85,87,89,91,93,95,97,99,101,103,-1,105,107,109,111,113,115,117,119,121,123,-1,-1,-1,-1,-1,-1,-1,-1,-1,-1,-1,-1,-1,-1,-1,-1,-1,-1,-1,-1,-1,-1,-1,-1,-1,-1,-1,-1,-1,-1,-1,-1,-1,-1,-1,-1,-1,-1,-1,-1,-1,-1,-1,-1,-1,-1,-1,-1,-1,-1,-1,-1,-1,-1,-1,-1,-1,-1,-1,-1,-1,-1],"loss_changes":[2.7414328E2,1.5208862E1,3.2186234E1,5.8102264E0,1.9347456E0,7.003191E0,5.2231903E0,2.1911926E0,7.078228E-1,4.5327377E-1,1.9415021E-1,8.9450836E-1,1.4597654E0,1.8589175E-1,1.7746582E0,1.6483002E0,1.4991379E-1,3.7136352E-1,3.027656E-1,1.1084604E-1,1.10137105E-1,7.476425E-2,2.2825148E-2,1.7033064E-1,1.9269648E-1,2.1937656E-1,4.7393274E-1,2.945926E-1,6.88889E-2,2.9045486E-1,2.940979E-1,9.081955E-1,9.661102E-1,6.008625E-2,7.460785E-2,3.3718884E-2,7.776934E-2,6.893754E-2,2.8136492E-2,9.483361E-2,5.9391737E-2,5.442649E-2,6.250793E-2,2.6596501E-2,2.9150873E-2,6.416186E-3,1.0181513E-2,7.602137E-2,8.810842E-2,1.5372097E-1,8.4820494E-2,9.979248E-2,0E0,4.5100307E-1,5.5149794E-2,1.2460678E-1,1.4253378E-2,4.2066336E-2,3.1923885E-3,2.248497E-1,3.583393E-1,1.8731308E-1,2.2330856E-1,0E0,0E0,0E0,0E0,0E0,0E0,0E0,0E0,0E0,0E0,0E0,0E0,0E0,0E0,0E0,0E0,0E0,0E0,0E0,0E0,0E0,0E0,0E0,0E0,0E0,0E0,0E0,0E0,0E0,0E0,0E0,0E0,0E0,0E0,0E0,0E0,0E0,0E0,0E0,0E0,0E0,0E0,0E0,0E0,0E0,0E0,0E0,0E0,0E0,0E0,0E0,0E0,0E0,0E0,0E0,0E0,0E0,0E0,0E0,0E0,0E0,0E0],"parents":[2147483647,0,0,1,1,2,2,3,3,4,4,5,5,6,6,7,7,8,8,9,9,10,10,11,11,12,12,13,13,14,14,15,15,16,16,17,17,18,18,19,19,20,20,21,21,22,22,23,23,24,24,25,25,26,26,27,27,28,28,29,29,30,30,31,31,32,32,33,33,34,34,35,35,36,36,37,37,38,38,39,39,40,40,41,41,42,42,43,43,44,44,45,45,46,46,47,47,48,48,49,49,50,50,51,51,53,53,54,54,55,55,56,56,57,57,58,58,59,59,60,60,61,61,62,62],"right_children":[2,4,6,8,10,12,14,16,18,20,22,24,26,28,30,32,34,36,38,40,42,44,46,48,50,52,54,56,58,60,62,64,66,68,70,72,74,76,78,80,82,84,86,88,90,92,94,96,98,100,102,104,-1,106,108,110,112,114,116,118,120,122,124,-1,-1,-1,-1,-1,-1,-1,-1,-1,-1,-1,-1,-1,-1,-1,-1,-1,-1,-1,-1,-1,-1,-1,-1,-1,-1,-1,-1,-1,-1,-1,-1,-1,-1,-1,-1,-1,-1,-1,-1,-1,-1,-1,-1,-1,-1,-1,-1,-1,-1,-1,-1,-1,-1,-1,-1,-1,-1,-1,-1,-1,-1],"split_conditions":[5.872632E-1,5.550685E-1,7.70657E-1,7.2164387E-1,7.315068E-1,3.5780823E-1,5.271233E-1,3.9232877E-1,3.3736396E-1,6.476712E-1,3.808948E-1,2.1972603E-1,4.6640316E-1,3.9561644E-1,8.766626E-1,4.9972603E-1,6.980822E-1,2.0383562E-1,2.630137E-1,8.213699E-1,7.048744E-1,7.791781E-1,5.026199E-1,9.2301494E-1,7.658863E-1,8.2684934E-1,8.7835616E-1,4.7299078E-1,8.493632E-1,8.5424656E-1,8.9643836E-1,2.3287672E-1,1.4684932E-1,4.7561467E-1,5.9068495E-1,7.81468E-1,3.3260274E-1,2.2520548E-1,4.1808218E-1,2.94686E-1,7.8851646E-1,6.600625E-1,3.043478E-1,2.603443E-1,3.249315E-1,3.3413947E-1,2.296685E-1,3.3071473E-1,1.5780821E-1,8.140468E-1,2.7616438E-1,3.2894158E-1,7.993229E-3,9.076985E-1,5.397453E-1,1.9886549E-1,3.0315453E-1,8.827086E-1,7.6417166E-1,4.2204654E-1,4.712329E-1,4.4876713E-1,4.6835953E-1,-1.1210657E-2,-9.331743E-3,-1.0369873E-2,-7.287898E-3,-7.844808E-3,-6.659663E-3,-6.1475867E-3,-3.93111E-3,-4.1739624E-3,-6.6943835E-3,-1.5455093E-3,6.6831557E-4,-7.725195E-3,-5.671484E-3,-1.2863973E-3,-3.7867483E-3,-5.6306096E-3,-3.3248935E-3,-3.9357566E-3,-1.8017488E-3,-5.4786704E-3,-2.0277528E-3,-2.3207217E-3,-9.199002E-4,-1.1717128E-4,1.672929E-3,3.152281E-3,-9.819615E-4,-9.0506853E-4,6.6376594E-4,-3.1737424E-3,4.1982482E-4,-2.7266135E-3,-5.617365E-3,-7.5653866E-3,-3.5914665E-3,-8.828598E-4,-3.2605303E-3,-1.4587657E-3,1.9723382E-3,3.3070196E-3,5.792721E-3,2.4187407E-3,5.404886E-3,4.6468973E-3,6.810555E-3,-5.460837E-4,2.3678234E-3,6.8253516E-3,4.5582145E-3,3.506741E-3,5.133503E-3,6.5371396E-6,-3.2490434E-3,8.140783E-3,6.5539526E-3,8.090299E-3,1.0233559E-2,6.426868E-3,9.875606E-3,9.790149E-3,1.1609762E-2],"split_indices":[4,56,4,11,56,56,56,56,44,56,24,56,27,31,4,11,51,56,56,36,45,56,24,19,58,56,56,47,22,56,56,56,56,59,21,10,56,56,36,12,50,25,12,5,11,14,5,45,51,13,56,12,0,9,7,30,30,9,0,32,11,11,19,0,0,0,0,0,0,0,0,0,0,0,0,0,0,0,0,0,0,0,0,0,0,0,0,0,0,0,0,0,0,0,0,0,0,0,0,0,0,0,0,0,0,0,0,0,0,0,0,0,0,0,0,0,0,0,0,0,0,0,0,0,0],"split_type":[0,0,0,0,0,0,0,0,0,0,0,0,0,0,0,0,0,0,0,0,0,0,0,0,0,0,0,0,0,0,0,0,0,0,0,0,0,0,0,0,0,0,0,0,0,0,0,0,0,0,0,0,0,0,0,0,0,0,0,0,0,0,0,0,0,0,0,0,0,0,0,0,0,0,0,0,0,0,0,0,0,0,0,0,0,0,0,0,0,0,0,0,0,0,0,0,0,0,0,0,0,0,0,0,0,0,0,0,0,0,0,0,0,0,0,0,0,0,0,0,0,0,0,0,0],"sum_hessian":[1.4718E4,6.821E3,7.897E3,5.548E3,1.273E3,2.92E3,4.977E3,4.922E3,6.26E2,1.017E3,2.56E2,7.65E2,2.155E3,4.1E2,4.567E3,4.054E3,8.68E2,2.98E2,3.28E2,5.38E2,4.79E2,2.07E2,4.9E1,2.03E2,5.62E2,4.75E2,1.68E3,2.04E2,2.06E2,2.174E3,2.393E3,2.692E3,1.362E3,5.77E2,2.91E2,8.6E1,2.12E2,2.04E2,1.24E2,2.7E2,2.68E2,5.5E1,4.24E2,9.2E1,1.15E2,3.2E1,1.7E1,1.22E2,8.1E1,4.66E2,9.6E1,3.56E2,1.19E2,1.536E3,1.44E2,1.48E2,5.6E1,2.03E2,3E0,1.295E3,8.79E2,1.49E3,9.03E2,1.305E3,1.387E3,3.51E2,1.011E3,2.68E2,3.09E2,2.37E2,5.4E1,6.4E1,2.2E1,1.6E2,5.2E1,9.9E1,1.05E2,1.4E1,1.1E2,2.06E2,6.4E1,2.27E2,4.1E1,3.6E1,1.9E1,3.15E2,1.09E2,3.1E1,6.1E1,1.11E2,4E0,2.4E1,8E0,1.5E1,2E0,9E1,3.2E1,5.9E1,2.2E1,3.84E2,8.2E1,2.3E1,7.3E1,5.2E1,3.04E2,1.397E3,1.39E2,7.7E1,6.7E1,6.4E1,8.4E1,1.7E1,3.9E1,7.4E1,1.29E2,1E0,2E0,9.64E2,3.31E2,5.22E2,3.57E2,4.8E1,1.442E3,3.13E2,5.9E2],"tree_param":{"num_deleted":"0","num_feature":"60","num_nodes":"125","size_leaf_vector":"1"}},{"base_weights":[1.3867332E-4,-1.348735E-1,1.307239E-1,-1.7465673E-1,-6.7947485E-2,6.0818028E-2,1.755535E-1,-1.9581823E-1,-1.5010002E-1,-8.644811E-2,-3.3520002E-2,3.8586922E-2,9.3261294E-2,1.5153167E-1,1.9691648E-1,-2.3225619E-1,-1.9130969E-1,-1.6239764E-1,-1.3232596E-1,-1.0984579E-1,-7.306048E-2,-7.237917E-2,-2.5735218E-2,5.5015464E-3,4.7705684E-2,5.335551E-2,1.0119657E-1,1.3576218E-1,1.6374668E-1,1.8792126E-1,2.1258168E-1,-1.2126986E-2,-1.5586013E-1,-2.0308669E-1,-1.7525168E-1,-2.0644367E-1,-1.577033E-1,-1.4184885E-1,-1.0541779E-1,-1.3451035E-1,-8.460128E-2,-7.722044E-2,-2.6921974E-2,-4.8666637E-2,-1.1547029E-1,5.537232E-4,-4.1810773E-2,-1.3317873E-2,2.9648306E-2,2.3542447E-2,6.2175926E-2,3.719176E-2,8.847232E-2,7.295933E-2,1.1101079E-1,8.286744E-2,1.394548E-1,1.2652166E-1,1.6628133E-1,1.7884868E-1,1.9412692E-1,2.0639339E-1,1.1154736E-2,-5.5800877E-3,-9.246358E-3,-1.0530233E-2,-8.161302E-3,-9.016853E-3,-7.297022E-3,-8.609666E-3,-1.1249143E-2,-8.147126E-3,-6.047618E-3,-9.22292E-3,-6.6537927E-3,-5.849034E-3,-3.4555465E-3,-7.166002E-3,-4.955239E-3,-5.430515E-3,-3.2249528E-3,-4.219365E-3,-2.263994E-3,-1.6801486E-3,3.874041E-4,2.9818696E-4,-2.9023204E-3,8.61064E-4,-6.1728377E-3,-1.6178858E-3,1.0026934E-3,-3.0159967E-3,-1.3267474E-4,-1.070659E-3,3.5020222E-3,5.6827196E-4,2.4234E-3,3.2832075E-4,2.2631837E-3,9.1254496E-4,3.4204766E-3,2.038083E-3,-1.7719737E-3,2.4584914E-3,4.894803E-3,4.100959E-3,2.677748E-3,4.483111E-3,6.1867833E-3,1.3644046E-3,4.632729E-3,6.7011723E-3,7.977429E-3,6.5866173E-3,4.0693576E-3,8.0377115E-3,9.304917E-3,8.7299235E-3,1.0091638E-2,9.3128085E-3,1.0586847E-2,8.941E-3,1.0469986E-2],"categories":[],"categories_nodes":[],"categories_segments":[],"categories_sizes":[],"default_left":[0,0,0,0,0,0,0,0,0,0,0,0,0,0,0,0,0,0,0,0,0,0,0,0,0,0,0,0,0,0,0,0,0,0,0,0,0,0,0,0,0,0,0,0,0,0,0,0,0,0,0,0,0,0,0,0,0,0,0,0,0,0,0,0,0,0,0,0,0,0,0,0,0,0,0,0,0,0,0,0,0,0,0,0,0,0,0,0,0,0,0,0,0,0,0,0,0,0,0,0,0,0,0,0,0,0,0,0,0,0,0,0,0,0,0,0,0,0,0,0,0,0,0],"id":12,"left_children":[1,3,5,7,9,11,13,15,17,19,21,23,25,27,29,31,33,35,37,39,41,43,45,47,49,51,53,55,57,59,61,-1,63,65,67,69,71,73,75,77,79,81,83,85,87,89,91,93,95,97,99,101,103,105,107,109,111,113,115,117,119,121,-1,-1,-1,-1,-1,-1,-1,-1,-1,-1,-1,-1,-1,-1,-1,-1,-1,-1,-1,-1,-1,-1,-1,-1,-1,-1,-1,-1,-1,-1,-1,-1,-1,-1,-1,-1,-1,-1,-1,-1,-1,-1,-1,-1,-1,-1,-1,-1,-1,-1,-1,-1,-1,-1,-1,-1,-1,-1,-1,-1,-1],"loss_changes":[2.5915213E2,1.9230255E1,2.3405464E1,2.3256989E0,1.7142649E0,2.1031704E0,2.3061523E0,3.5494232E-1,4.3796158E-1,5.4108334E-1,2.837069E-1,5.2318287E-1,3.7048054E-1,3.9133835E-1,2.9908752E-1,1.6881657E-1,3.7459564E-1,2.23423E-1,2.0669746E-1,3.8462162E-1,2.1250391E-1,1.5480304E-1,3.3303928E-1,1.7125976E-1,4.7405744E-1,1.0966581E-1,2.659788E-1,1.7263031E-1,9.265518E-2,5.1807404E-2,1.0551453E-2,0E0,2.3101449E-2,3.387146E-1,1.11558914E-1,3.49164E-2,1.9651985E-1,2.1319771E-1,8.847237E-2,8.5608006E-2,1.459899E-1,2.3081493E-1,2.203364E-2,5.312544E-2,6.0411513E-2,1.9318224E-1,3.542515E-1,1.445598E-1,5.622202E-2,1.8812901E-1,2.3149085E-1,3.722608E-2,1.8149793E-2,4.096389E-2,1.8775845E-1,3.2285243E-2,7.465744E-2,8.328438E-3,9.3307495E-2,2.6987076E-2,8.544922E-2,9.057999E-3,0E0,0E0,0E0,0E0,0E0,0E0,0E0,0E0,0E0,0E0,0E0,0E0,0E0,0E0,0E0,0E0,0E0,0E0,0E0,0E0,0E0,0E0,0E0,0E0,0E0,0E0,0E0,0E0,0E0,0E0,0E0,0E0,0E0,0E0,0E0,0E0,0E0,0E0,0E0,0E0,0E0,0E0,0E0,0E0,0E0,0E0,0E0,0E0,0E0,0E0,0E0,0E0,0E0,0E0,0E0,0E0,0E0,0E0,0E0,0E0,0E0],"parents":[2147483647,0,0,1,1,2,2,3,3,4,4,5,5,6,6,7,7,8,8,9,9,10,10,11,11,12,12,13,13,14,14,15,15,16,16,17,17,18,18,19,19,20,20,21,21,22,22,23,23,24,24,25,25,26,26,27,27,28,28,29,29,30,30,32,32,33,33,34,34,35,35,36,36,37,37,38,38,39,39,40,40,41,41,42,42,43,43,44,44,45,45,46,46,47,47,48,48,49,49,50,50,51,51,52,52,53,53,54,54,55,55,56,56,57,57,58,58,59,59,60,60,61,61],"right_children":[2,4,6,8,10,12,14,16,18,20,22,24,26,28,30,32,34,36,38,40,42,44,46,48,50,52,54,56,58,60,62,-1,64,66,68,70,72,74,76,78,80,82,84,86,88,90,92,94,96,98,100,102,104,106,108,110,112,114,116,118,120,122,-1,-1,-1,-1,-1,-1,-1,-1,-1,-1,-1,-1,-1,-1,-1,-1,-1,-1,-1,-1,-1,-1,-1,-1,-1,-1,-1,-1,-1,-1,-1,-1,-1,-1,-1,-1,-1,-1,-1,-1,-1,-1,-1,-1,-1,-1,-1,-1,-1,-1,-1,-1,-1,-1,-1,-1,-1,-1,-1,-1,-1],"split_conditions":[5.260274E-1,3.1342465E-1,7.5945204E-1,2.1534246E-1,4.350685E-1,6.679452E-1,8.569863E-1,1.1178082E-1,2.690411E-1,5.1910406E-1,2.449315E-1,3.205973E-1,4.6684933E-1,8.109589E-1,9.1178083E-1,3.6657533E-1,2.0383562E-1,1.4684932E-1,5.103206E-1,5.1835614E-1,6.728767E-1,7.2149646E-1,5.0665057E-1,3.2277283E-1,4.675534E-1,8.7342465E-1,5.397453E-1,5.068493E-1,3.8630137E-1,8.427397E-1,9.221918E-1,-1.2126986E-2,1.7589042E-1,3.479452E-1,5.5248135E-1,7.9227054E-1,4.208219E-1,1.7917809E-1,5.6622076E-1,8.6739725E-1,3.0315453E-1,7.4571806E-1,8.081419E-1,3.808948E-1,6.569041E-1,6.929766E-1,7.0356166E-1,4.7232875E-1,6.508361E-1,7.8958905E-1,1.23835616E-1,7.262228E-1,8.8956064E-1,5.554395E-1,6.0166883E-1,4.0300046E-3,8.216952E-1,8.652174E-1,8.353096E-1,9.282192E-1,8.438356E-1,1.9835617E-1,1.1154736E-2,-5.5800877E-3,-9.246358E-3,-1.0530233E-2,-8.161302E-3,-9.016853E-3,-7.297022E-3,-8.609666E-3,-1.1249143E-2,-8.147126E-3,-6.047618E-3,-9.22292E-3,-6.6537927E-3,-5.849034E-3,-3.4555465E-3,-7.166002E-3,-4.955239E-3,-5.430515E-3,-3.2249528E-3,-4.219365E-3,-2.263994E-3,-1.6801486E-3,3.874041E-4,2.9818696E-4,-2.9023204E-3,8.61064E-4,-6.1728377E-3,-1.6178858E-3,1.0026934E-3,-3.0159967E-3,-1.3267474E-4,-1.070659E-3,3.5020222E-3,5.6827196E-4,2.4234E-3,3.2832075E-4,2.2631837E-3,9.1254496E-4,3.4204766E-3,2.038083E-3,-1.7719737E-3,2.4584914E-3,4.894803E-3,4.100959E-3,2.677748E-3,4.483111E-3,6.1867833E-3,1.3644046E-3,4.632729E-3,6.7011723E-3,7.977429E-3,6.5866173E-3,4.0693576E-3,8.0377115E-3,9.304917E-3,8.7299235E-3,1.0091638E-2,9.3128085E-3,1.0586847E-2,8.941E-3,1.0469986E-2],"split_indices":[1,1,1,1,1,1,1,56,1,57,56,47,56,1,1,6,6,56,57,6,56,0,39,40,9,6,7,56,51,56,56,0,46,56,2,17,6,56,3,16,50,2,34,39,25,18,56,56,58,56,46,30,9,25,52,40,2,3,2,11,6,26,0,0,0,0,0,0,0,0,0,0,0,0,0,0,0,0,0,0,0,0,0,0,0,0,0,0,0,0,0,0,0,0,0,0,0,0,0,0,0,0,0,0,0,0,0,0,0,0,0,0,0,0,0,0,0,0,0,0,0,0,0],"split_type":[0,0,0,0,0,0,0,0,0,0,0,0,0,0,0,0,0,0,0,0,0,0,0,0,0,0,0,0,0,0,0,0,0,0,0,0,0,0,0,0,0,0,0,0,0,0,0,0,0,0,0,0,0,0,0,0,0,0,0,0,0,0,0,0,0,0,0,0,0,0,0,0,0,0,0,0,0,0,0,0,0,0,0,0,0,0,0,0,0,0,0,0,0,0,0,0,0,0,0,0,0,0,0,0,0,0,0,0,0,0,0,0,0,0,0,0,0,0,0,0,0,0,0],"sum_hessian":[1.4697E4,7.226E3,7.471E3,4.531E3,2.695E3,2.92E3,4.551E3,2.43E3,2.101E3,1.752E3,9.43E2,1.734E3,1.186E3,2.146E3,2.405E3,2.62E2,2.168E3,1.237E3,8.64E2,6.35E2,1.117E3,1.56E2,7.87E2,3.75E2,1.359E3,1.98E2,9.88E2,9.42E2,1.204E3,1.536E3,8.69E2,2.29E2,3.3E1,1.244E3,9.24E2,1.15E2,1.122E3,6.35E2,2.29E2,3.19E2,3.16E2,1.024E3,9.3E1,1.02E2,5.4E1,2.99E2,4.88E2,2.11E2,1.64E2,5.1E2,8.49E2,1.37E2,6.1E1,2.57E2,7.31E2,6.3E1,8.79E2,8E1,1.124E3,6.36E2,9E2,5.6E2,3.09E2,1.5E1,1.8E1,1.043E3,2.01E2,7.83E2,1.41E2,4.4E1,7.1E1,9.79E2,1.43E2,1.05E2,5.3E2,1.72E2,5.7E1,2.53E2,6.6E1,1.42E2,1.74E2,8.35E2,1.89E2,7.8E1,1.5E1,1.5E1,8.7E1,3E0,5.1E1,1.11E2,1.88E2,3.31E2,1.57E2,1.93E2,1.8E1,8.4E1,8E1,2.87E2,2.23E2,1.06E2,7.43E2,1.31E2,6E0,1.3E1,4.8E1,1.73E2,8.4E1,2.76E2,4.55E2,1E1,5.3E1,6.98E2,1.81E2,7E1,1E1,8.86E2,2.38E2,5.44E2,9.2E1,6.3E2,2.7E2,6.1E1,4.99E2],"tree_param":{"num_deleted":"0","num_feature":"60","num_nodes":"123","size_leaf_vector":"1"}},{"base_weights":[-1.8968768E-4,-1.2853076E-1,1.2395413E-1,-1.6453059E-1,-6.1504126E-2,5.7748277E-2,1.6665962E-1,-1.8130921E-1,-1.3241825E-1,-7.79781E-2,-3.026474E-2,2.5538482E-2,8.0213726E-2,1.4412041E-1,1.866608E-1,-2.0626284E-1,-1.7408386E-1,-1.9510491E-1,-1.2836275E-1,-6.815409E-2,-1.0517413E-1,-5.939594E-2,-1.8349852E-2,3.417506E-2,-9.472169E-3,6.798065E-2,1.03962146E-1,1.292927E-1,1.5523852E-1,1.7786224E-1,2.0181894E-1,-1.8405469E-1,-2.2259273E-1,-1.8073548E-1,-1.4414893E-1,-1.0981148E-1,-2.0816873E-1,-1.334125E-1,-9.017273E-2,-7.244937E-2,-2.6428057E-2,-1.3486852E-1,-9.5108286E-2,-1.612375E-2,-6.834311E-2,-3.3502713E-2,1.13991415E-2,-2.9162986E-3,4.1469328E-2,-2.719248E-2,1.9522604E-2,5.008363E-2,8.119195E-2,-7.6040463E-3,1.0590215E-1,9.0055294E-2,1.33602E-1,1.2357595E-1,1.5728217E-1,1.5616128E-1,1.8038987E-1,8.936684E-3,2.0425189E-1,-1.03631895E-2,-8.285637E-3,-1.0749136E-2,-1.2295449E-2,-9.739828E-3,-8.165802E-3,-7.359713E-3,-4.6823635E-3,-1.9882263E-3,-5.8764564E-3,-2.5984128E-3,-1.0471993E-2,-7.3058936E-3,-5.771225E-3,-4.816617E-3,-2.2804085E-3,-4.0115933E-3,-1.9436836E-3,-4.369523E-3,-6.408619E-4,-7.1804705E-3,-4.2952956E-3,-5.995763E-3,-4.210329E-3,-4.028463E-3,4.8762347E-4,-1.4789302E-4,-3.8359489E-3,-2.0298115E-3,3.1157145E-3,3.6815002E-3,-3.658947E-6,2.3805563E-4,-3.2086787E-3,2.2834602E-3,-1.1809076E-3,-3.5014458E-3,-7.7224657E-4,2.222432E-3,-1.6291902E-4,1.9838745E-3,4.1140164E-3,2.8876013E-3,4.7356347E-3,3.1726465E-3,-1.0527519E-3,5.044007E-3,6.866645E-3,4.879963E-3,2.3353498E-3,5.6327484E-3,6.9613494E-3,7.182263E-3,5.2610175E-3,7.639251E-3,8.923854E-3,7.2670043E-3,9.590086E-3,8.356097E-3,9.184218E-3,9.172029E-3,1.0388907E-2],"categories":[],"categories_nodes":[],"categories_segments":[],"categories_sizes":[],"default_left":[0,0,0,0,0,0,0,0,0,0,0,0,0,0,0,0,0,0,0,0,0,0,0,0,0,0,0,0,0,0,0,0,0,0,0,0,0,0,0,0,0,0,0,0,0,0,0,0,0,0,0,0,0,0,0,0,0,0,0,0,0,0,0,0,0,0,0,0,0,0,0,0,0,0,0,0,0,0,0,0,0,0,0,0,0,0,0,0,0,0,0,0,0,0,0,0,0,0,0,0,0,0,0,0,0,0,0,0,0,0,0,0,0,0,0,0,0,0,0,0,0,0,0,0,0],"id":13,"left_children":[1,3,5,7,9,11,13,15,17,19,21,23,25,27,29,31,33,35,37,39,41,43,45,47,49,51,53,55,57,59,61,63,65,67,69,71,73,75,77,79,81,83,85,87,89,91,93,95,97,99,101,103,105,107,109,111,113,115,117,119,121,-1,123,-1,-1,-1,-1,-1,-1,-1,-1,-1,-1,-1,-1,-1,-1,-1,-1,-1,-1,-1,-1,-1,-1,-1,-1,-1,-1,-1,-1,-1,-1,-1,-1,-1,-1,-1,-1,-1,-1,-1,-1,-1,-1,-1,-1,-1,-1,-1,-1,-1,-1,-1,-1,-1,-1,-1,-1,-1,-1,-1,-1,-1,-1],"loss_changes":[2.3577284E2,1.7546494E1,2.1257713E1,2.5261383E0,1.3068743E0,2.133318E0,2.0342178E0,5.240936E-1,3.88834E-1,4.3767738E-1,3.043537E-1,3.6740363E-1,4.9784946E-1,3.350258E-1,2.867279E-1,2.0998764E-1,4.548111E-1,8.5223675E-2,2.8341675E-1,2.178154E-1,1.1868811E-1,9.762472E-2,2.8257164E-1,2.6364088E-1,1.2435579E-1,2.6784277E-1,1.2828827E-1,1.450491E-1,5.989456E-2,5.6243896E-2,1.2973785E-2,9.293747E-2,1.7045975E-2,4.512024E-1,5.450058E-2,3.4354627E-3,5.5954456E-3,2.9189873E-1,4.5565367E-2,2.8718853E-1,9.51307E-2,3.4312487E-2,7.9687834E-2,7.5828016E-2,1.1532915E-1,2.8459668E-1,1.5135907E-1,7.602339E-2,2.23593E-1,7.4401885E-2,5.2386075E-2,1.6124141E-1,2.0370102E-1,1.1849658E-2,7.753801E-2,2.6508152E-2,8.270168E-2,1.3988018E-2,8.215523E-2,3.6916256E-2,2.9273987E-2,0E0,1.9863129E-2,0E0,0E0,0E0,0E0,0E0,0E0,0E0,0E0,0E0,0E0,0E0,0E0,0E0,0E0,0E0,0E0,0E0,0E0,0E0,0E0,0E0,0E0,0E0,0E0,0E0,0E0,0E0,0E0,0E0,0E0,0E0,0E0,0E0,0E0,0E0,0E0,0E0,0E0,0E0,0E0,0E0,0E0,0E0,0E0,0E0,0E0,0E0,0E0,0E0,0E0,0E0,0E0,0E0,0E0,0E0,0E0,0E0,0E0,0E0,0E0,0E0,0E0],"parents":[2147483647,0,0,1,1,2,2,3,3,4,4,5,5,6,6,7,7,8,8,9,9,10,10,11,11,12,12,13,13,14,14,15,15,16,16,17,17,18,18,19,19,20,20,21,21,22,22,23,23,24,24,25,25,26,26,27,27,28,28,29,29,30,30,31,31,32,32,33,33,34,34,35,35,36,36,37,37,38,38,39,39,40,40,41,41,42,42,43,43,44,44,45,45,46,46,47,47,48,48,49,49,50,50,51,51,52,52,53,53,54,54,55,55,56,56,57,57,58,58,59,59,60,60,62,62],"right_children":[2,4,6,8,10,12,14,16,18,20,22,24,26,28,30,32,34,36,38,40,42,44,46,48,50,52,54,56,58,60,62,64,66,68,70,72,74,76,78,80,82,